tree
version=v4
num_class=1
num_tree_per_iteration=1
label_index=0
max_feature_idx=34
objective=regression
feature_names=price volume_MT temperature_avg_C rainfall_mm humidity_percent month day_of_week quarter week_of_year is_public_holiday is_day_before_holiday near_major_holiday demand_multiplier harvest_period_rice vegetable_peak_season price_lag_1 price_lag_7 price_lag_14 price_lag_28 volume_lag_1 volume_lag_7 volume_lag_14 volume_lag_28 price_rolling_7_mean price_rolling_7_std price_rolling_28_mean volume_rolling_7_mean volume_rolling_7_std volume_rolling_28_mean price_momentum_7 price_momentum_28 volume_momentum_7 volume_momentum_28 price_change_7 item_encoded
feature_infos=[31.859999999999999:902.34000000000003] [1:107.09999999999999] [16.300000000000001:38.100000000000001] [0:142.69999999999999] [50:98] [1:12] [0:6] [1:4] [1:53] [0:1] none [0:1] [1:1.3] [0:1] [0:1] [31.859999999999999:902.34000000000003] [31.859999999999999:902.34000000000003] [31.859999999999999:902.34000000000003] [31.859999999999999:902.34000000000003] [1:107.09999999999999] [1:107.09999999999999] [1:107.09999999999999] [1:107.09999999999999] [44.285714285714285:745.39857142857147] [0:185.71521977787054] [49.357142857142854:679.68892857142851] [3.7071428571428569:73.335714285714275] [0:29.593651265737638] [4.5667857142857136:61.603928571428575] [-486.20000000000005:483.25] [-475.65000000000003:532.76999999999998] [-69.829999999999998:69.75] [-87.919999999999987:75.390000000000001] [-81.651376146788991:207.15760495526493] [0:3]
tree_sizes=2891 2922 2924 2929 2920 2903 2900 2901 2929 2893 2880 2895 2860 2874 2857 2870 2876 2860 2873 2866 2847 2834 2829 2834 2837 2836 2851 2840 2830 2841 2811 2811 2836 2812 2847 2824 2834 2825 2811 2851 2836 2799 2851 2792 2822 2803 2812 2801 2838 2824 2829 2814 2798 2822 2840 2807 2827 2805 2793 2786 2817 2827 2816 2811 2809 2786 2796 2801 2798 2762 2773 2775 2754 2805 2751 2836 2840 2802 2851 2826 2843 2815 2768 2848 2708 2771 2805 2761 2820 2817 2746 2788 2822 2759 2763 2741 2724 2757 2802 2790 2758 2768 2729 2770 2800 2755 2741 2729 2782 2763 2701 2784 2682 2771 2743 2719 2728 2760 2754 2816 2740 2778 2802 2668 2671 2720 2782 2755 2712 2778 2736 2734 2761 2738 2734 2680 2654 2751 2745 2639 2720 2737 2745 2761 2742 2701 2687 2679 2713 2769 2703 2731 2718 2684 2650 2742 2735 2715 2718 2725 2700 2722 2742 2723 2724 2691 2676 2723 2761 2707 2724 2725 2701 2674 2717 2701 2672 2690 2729 2737 2792 2691 2682 2686 2674 2722 2721 2731 2698 2728 2695 2755 2762 2712 2719 2735 2745 2700 2699 2722 2684 2724 2683 2701 2757 2727 2731 2741 2757 2718 2696 2700 2720 2683 2676 2696 2712 2707 2701 2755 2734 2737 2728 2736 2715 2765 2728 2734 2735 2742 2719 2709 2711 2745 2687 2739 2748 2704 2664 2714 2715 2710 2727 2707 2716 2697 2702 2704 2668 2705 2683 2693 2689 2708 2687 2725 2745 2659 2672 2735 2727 2737 2689 2693 2771 2712 2700 2707 2693 2777 2755 2733 2739 2727 2736 2702 2719 2754 2687 2689 2701 2710 2698 2710 2737 2655 2682 2671 2689 2750 2698 2691 2699 2712 2717 2746 2691 2738 2711 2722 2735 2732 2733 2718 2695 2722 2713 2777 2729 2728 2691 2716 2690 2692 2691 2660 2718 2684 2656 2713 2670 2678 2696 2702 2734 2722 2728 2697 2710 2732 2669 2692 2765 2668 2768 2733 2706 2733 2690 2713 2730 2729 2701 2736 2735 2748 2679 2699 2723 2785 2719 2739 2698 2704 2706 2719 2717 2743 2729 2759 2729 2739 2770 2729 2710 2764 2737 2701 2746 2708 2686 2685 2743 2692 2684 2724 2722 2702 2712 2709 2706 2757 2696 2707 2723 2746 2682 2683 2745 2745 2682 2695 2710 2709 2704 2769 2745 2753 2670 2748 2742 2712 2751 2722 2735 2695 2697 2690 2733 2702 2700 2694 2755 2710 2696 2688 2674 2687 2682 2678 2735 2776 2781 2726 2760 2665 2675 2699 2702 2683 2733 2783 2700 2699 2750 2696 2689 2689 2720 2741 2695 2712 2737 2724 2705 2681 2688 2699 2731 2713 2730 2725 2723 2722 2753 2703 2689 2691 2718 2680 2765 2760 2716 2712 2709 2740 2714 2690 2744 2725 2741 2721 2701 2735 2703 2684 2683 2683 2659 2685 2760 2682 2710 2695 2687 2724 2708 2702 2729 2734 2742 2720 2726 2738 2723 2715 2717 2670 2743 2684 2672 2705 2713 2671 2742 2723 2719 2661 2742 2659 2754 2703 2749 2765 2782 2691 2749 2690 2660 2717 2724 2733 2721 2729 2717 2690 2703 2710 2674 2717 2684 2685 2686 2682 2724 2680 2688 2684 2704 2669 2745 2693 2705 2747 2745 2725 2691 2697 2726 2716 2727 2687 2700 2688 2729 2740 2709 2702 2711 2729 2666 2665 2704 2660 2752 2703 2704 2704 2701 2719 2732 2755 2729 2663 2727 2720 2748 2739 2705 2828 2736 2688 2713 2719 2685 2729 2699 2729 2685 2720 2705 2708 2758 2711 2715 2740 2731 2727 2739 2732 2740 2696 2755 2736 2776 2693 2693 2692 2701 2703 2728 2713 2747 2704 2727 2709 2710 2718 2720 2715 2737 2731 2738 2724 2729 2690 2703 2697 2727 2700 2673 2680 2700 2671 2680 2654 2731 2674 2698 2683 2680 2689 2736 2769 2687 2730 2707 2707 2746 2715 2698 2713 2689 2676 2700 2733 2703 2730 2710 2709 2797 2705 2785 2706 2718 2701 2701 2695 2692 2735 2720 2730 2752 2713 2733 2706 2725 2727 2736 2713 2722 2683 2733 2673 2708 2736 2725 2725 2711 2723 2697 2721 2697 2769 2701 2703 2720 2751 2711 2766 2777 2749 2695 2743 2738 2704 2714 2682 2695 2725 2702 2739 2763 2715 2736 2729 2730 2711 2699 2715 2750 2742 2761 2751 2744 2709 2729 2702 2724 2711 2713 2713 2778 2754 2755 2698 2704 2710 2712 2708 2752 2671 2735 2738 2700 2697 2708 2743 2676 2736 2695 2718 2707 2717 2716 2738 2714 2687 2746 2663 2708 2720 2690 2749 2700 2716 2735 2736 2782 2722 2703 2713 2713 2741 2699 2718 2715 2696 2716 2708 2721 2705 2724 2739 2724 2695 2700 2687 2697 2715 2707 2714 2700 2706 2717 2716 2721 2712 2723 2737 2740 2727 2743 2718 2726 2723 2766 2684 2752 2729 2712 2708 2713 2711 2707 2696 2737 2681 2681 2754 2682 2708 2662 2699 2730 2753 2697 2699 2754 2757 2722 2733 2691 2721 2718 2708 2724 2745 2717 2745 2720 2749 2695 2738 2718 2703 2692 2694 2732 2713 2725 2731 2718 2721 2735 2714 2709 2737 2688 2726 2716 2749 2733 2717 2718 2726 2727 2715 2704 2740 2730 2710 2703 2733 2686 2706 2711 2704 2725 2726 2726 2708 2719 2700 2705 2740 2693 2744 2756 2742 2728 2724 2738 2727 2690 2724 2750 2733 2689 2698 2662 2713 2728 2706 2715 2670 2692 2690 2704 2688 2723 2683 2699 2731 2699 2746 2729 2724 2821 2692 2707 2712 2782 2739 2722 2709 2697 2715 2721 2731 2708 2718 2739 2749 2736 2717 2745 2719 2741 2733 2714 2718 2728 2690 2710 2775 2726 2727 2741 2711 2760 2743 2750 2716 2675 2734 2731 2760 2754 2711 2744 2734 2695 2695 2718 2729 2735 2735 2702 2698 2746 2748 2700 2735 2730 2690 2693 2682 2721 2713 2712 2704 2706 2676 2704 2705 2718 2705 2713 2728 2725 2717 2721 2711 2696 2707 2733 2744 2748 2720

Tree=0
num_leaves=31
num_cat=0
split_feature=25 25 25 25 34 8 34 5 14 5 27 8 25 25 8 25 25 34 25 25 8 8 25 26 25 27 14 14 14 25
split_gain=1.59049e+09 2.04338e+08 6.46229e+07 2.40662e+07 1.13309e+07 8.81948e+06 6.27908e+06 5.96434e+06 4.31289e+06 3.82842e+06 3.38508e+06 3.12829e+06 3.04031e+06 2.86366e+06 2.38007e+06 2.3238e+06 2.1078e+06 1.68413e+06 1.50393e+06 1.46501e+06 1.21189e+06 1.17775e+06 1.08211e+06 994039 896210 998621 926420 881134 843277 665705
threshold=314.14303571428576 134.17750000000004 456.70857142857147 196.42750000000004 1.5000000000000002 10.500000000000002 1.5000000000000002 3.5000000000000004 1.0000000180025095e-35 3.5000000000000004 0.35519076525696741 9.5000000000000018 502.89357142857148 414.46464285714291 48.500000000000007 87.953750000000014 216.81750000000002 1.0000000180025095e-35 510.53517857142862 172.39196428571429 47.500000000000007 24.500000000000004 602.7766071428573 5.8430637480798788 251.19964285714289 1.0000000180025095e-35 1.0000000180025095e-35 1.0000000180025095e-35 1.0000000180025095e-35 397.34000000000009
decision_type=2 2 2 2 2 2 2 2 2 2 2 2 2 2 2 2 2 2 2 2 2 2 2 2 2 2 2 2 2 2
left_child=1 15 4 19 7 -4 -7 -2 12 29 -10 -5 -8 -11 22 -1 28 23 -12 -3 24 -15 -14 -17 26 -26 -18 -21 -13 -6
right_child=2 3 5 11 9 6 8 -9 10 13 18 16 14 21 -16 17 20 -19 -20 27 -22 -23 -24 -25 25 -27 -28 -29 -30 -31
leaf_value=246.91913812713003 262.43886376003962 251.42251067023861 266.84361040936557 253.32429235297377 260.99492753525561 247.60098562295516 267.27832711892364 248.30012930609425 263.48015134338402 263.83446234949099 270.79485578615345 253.38825542867099 269.98261814242267 268.00958696045433 267.31666719040243 251.18668430642214 254.51874978484025 247.95969180006387 272.73421090750549 252.05533740026652 253.83364998056661 265.45290393421305 272.0401672112568 262.46105205370156 249.38679748233423 255.94387444771874 255.45670839452703 253.16941736827619 254.50188061473958 262.93974946158187
leaf_weight=7734 130 6724 2630 4977 743 31 1407 175 131 3448 2277 3267 3664 591 762 60 5875 13493 1782 5378 1915 1894 774 29 59 3667 4770 2649 3544 1079
leaf_count=7734 130 6724 2630 4977 743 31 1407 175 131 3448 2277 3267 3664 591 762 60 5875 13493 1782 5378 1915 1894 774 29 59 3667 4770 2649 3544 1079
internal_value=255.557 251.611 267.32 253.602 263.78 269.441 270.072 254.326 270.136 264.151 271.391 254.461 269.34 264.767 269.898 247.611 254.706 248.005 271.646 251.967 255.015 266.061 270.341 254.86 255.173 255.84 254.939 252.423 253.968 262.147
internal_weight=85659 64141 21518 42825 8060 13458 10828 305 10797 7755 4190 28074 6607 5933 5200 21316 23097 13582 4059 14751 16286 2485 4438 89 14371 3726 10645 8027 6811 1822
internal_count=85659 64141 21518 42825 8060 13458 10828 305 10797 7755 4190 28074 6607 5933 5200 21316 23097 13582 4059 14751 16286 2485 4438 89 14371 3726 10645 8027 6811 1822
is_linear=0
shrinkage=1


Tree=1
num_leaves=31
num_cat=0
split_feature=25 25 25 25 34 8 34 7 14 7 27 8 25 25 8 25 25 25 34 25 8 8 26 25 8 25 27 14 14 25
split_gain=1.43542e+09 1.84415e+08 5.83222e+07 2.17461e+07 1.02261e+07 7.95958e+06 5.66687e+06 5.38282e+06 3.89238e+06 3.45515e+06 3.05503e+06 2.8493e+06 2.74388e+06 2.61681e+06 2.19888e+06 2.09981e+06 1.61789e+06 1.57362e+06 1.53908e+06 1.36931e+06 1.14041e+06 1.08523e+06 894206 885811 829893 790126 901255 833753 728221 643466
threshold=314.14303571428576 134.17750000000004 456.70857142857147 198.21196428571432 1.5000000000000002 10.500000000000002 1.5000000000000002 1.5000000000000002 1.0000000180025095e-35 1.5000000000000002 0.35519076525696741 9.5000000000000018 502.89357142857148 423.59160714285719 45.500000000000007 87.057857142857159 178.2641071428572 217.5876785714286 1.0000000180025095e-35 502.89357142857148 25.500000000000004 47.500000000000007 5.8430637480798788 602.7766071428573 9.5000000000000018 251.19964285714289 1.0000000180025095e-35 1.0000000180025095e-35 1.0000000180025095e-35 364.62821428571436
decision_type=2 2 2 2 2 2 2 2 2 2 2 2 2 2 2 2 2 2 2 2 2 2 2 2 2 2 2 2 2 2
left_child=1 15 4 16 7 -4 -7 -2 12 -6 -10 -5 -8 29 23 -1 -3 28 22 -12 -15 25 -17 -14 -18 27 -27 -19 -13 -11
right_child=2 3 5 11 9 6 8 -9 10 13 19 17 14 20 -16 18 24 21 -20 -21 -22 -23 -24 -25 -26 26 -28 -29 -30 -31
leaf_value=-8.2299228796520278 6.5369029228503894 -3.8071973238025514 10.721412376530271 -2.1021469070949723 6.2593126008273785 -7.5590813913652983 11.134393453927924 -6.894894887787955 7.5261261277526392 6.8068040333075075 14.335459626285463 -1.9954144126087563 13.855217377447511 12.271126174546808 11.883473808457175 -4.106655943198283 -4.0474246372853067 -0.98079220089628372 -7.230042142239526 16.173128205802392 9.5249371486812695 -1.6312590317881286 6.5579817015549242 15.760368246781198 -2.532173581323637 -5.8625601041114939 0.36666308134867381 -0.079189104311624778 -0.93158132087862 8.3389621300403363
leaf_weight=7403 130 8727 2630 4916 1822 31 1407 175 131 887 1964 3038 3094 502 1346 61 1076 5778 13823 2095 1531 1894 29 760 5641 59 3667 4610 3419 3013
leaf_count=7403 130 8727 2630 4916 1822 31 1407 175 131 887 1964 3038 3094 502 1346 61 1076 5778 13823 2095 1531 1894 29 760 5641 59 3667 4610 3419 3013
internal_value=-0.000572924 -3.74949 11.1742 -1.858 7.81059 13.1887 13.788 -1.16987 13.8493 8.16379 15.0414 -1.01181 13.0933 8.74865 13.6233 -7.5496 -3.35823 -0.77321 -7.18761 15.2839 10.203 -0.507435 -0.670273 14.2309 -2.7749 -0.356626 0.268025 -0.580678 -1.43211 7.99049
internal_weight=85659 64141 21518 42825 8060 13458 10828 305 10797 7755 4190 27381 6607 5933 5200 21316 15444 22465 13913 4059 2033 16008 90 3854 6717 14114 3726 10388 6457 3900
internal_count=85659 64141 21518 42825 8060 13458 10828 305 10797 7755 4190 27381 6607 5933 5200 21316 15444 22465 13913 4059 2033 16008 90 3854 6717 14114 3726 10388 6457 3900
is_linear=0
shrinkage=0.05


Tree=2
num_leaves=31
num_cat=0
split_feature=25 25 25 25 34 8 34 5 14 5 27 8 25 25 25 8 25 14 34 25 25 8 25 25 20 11 14 25 8 25
split_gain=1.29547e+09 1.66436e+08 5.26358e+07 1.88502e+07 9.22906e+06 7.18352e+06 5.11435e+06 4.858e+06 3.51288e+06 3.11827e+06 2.75717e+06 2.57743e+06 2.47635e+06 2.36168e+06 2.14992e+06 1.99834e+06 1.53463e+06 1.56855e+06 1.48963e+06 1.34501e+06 1.24303e+06 1.02922e+06 872523 764673 709875 634233 603581 600798 596129 580728
threshold=314.14303571428576 142.17464285714289 456.70857142857147 198.21196428571432 1.5000000000000002 10.500000000000002 1.5000000000000002 3.5000000000000004 1.0000000180025095e-35 3.5000000000000004 0.35519076525696741 8.5000000000000018 502.89357142857148 423.59160714285719 87.953750000000014 48.500000000000007 244.24946428571431 1.0000000180025095e-35 1.0000000180025095e-35 183.21053571428573 510.53517857142862 25.500000000000004 602.7766071428573 95.620892857142863 24.880000000000006 1.0000000180025095e-35 1.0000000180025095e-35 397.34000000000009 11.500000000000002 364.62821428571436
decision_type=2 2 2 2 2 2 2 2 2 2 2 2 2 2 2 2 2 2 2 2 2 2 2 2 2 2 2 2 2 2
left_child=1 14 4 19 7 -4 -7 -2 12 27 -10 -5 -8 29 -1 22 17 -13 23 28 -12 -15 -14 -16 -20 -18 -21 -6 -3 -11
right_child=2 3 5 11 9 6 8 -9 10 13 20 16 15 21 18 -17 25 -19 24 26 -22 -23 -24 -25 -26 -27 -28 -29 -30 -31
leaf_value=-7.7975001194448099 6.2100577431458701 -4.3396683935267131 10.18534162770036 -2.0730363575109991 4.8521977546157302 -7.1811272898027987 10.577673527295488 -6.5501500829969137 7.1498198123378618 6.4664637820394093 13.745692377994601 -1.43437257036594 13.026046160787473 11.657569851723325 5.2031001121767106 10.576642822527042 0.11598392324478168 -0.4666104148324241 -6.8634862771648404 -2.8760954197199635 15.50882638632649 9.048690438675461 14.873629256058727 -3.6211755643456671 -4.3287796957273015 -1.4621095093309304 -1.7106165285011188 6.699778554846116 -3.3206158583226988 7.9220137935756174
leaf_weight=7734 130 1735 2630 4379 743 31 1407 175 131 887 2277 9226 3664 502 31 762 5388 7666 13494 3417 1782 1531 774 118 282 722 1646 1079 8303 3013
leaf_count=7734 130 1735 2630 4379 743 31 1407 175 131 887 2277 9226 3664 502 31 762 5388 7666 13494 3417 1782 1531 774 118 282 722 1646 1079 8303 3013
internal_value=-0.000544273 -3.56202 10.6155 -1.74339 7.42006 12.5293 13.0986 -1.11137 13.1568 7.7556 14.2893 -0.961218 12.4386 8.31121 -7.12907 12.9421 -0.749556 -0.995179 -6.75782 -3.16162 14.5198 9.69289 13.3483 -1.78525 -6.8116 -0.0704945 -2.49719 5.94635 -3.49675 7.59097
internal_weight=85659 64141 21518 42482 8060 13458 10828 305 10797 7755 4190 27381 6607 5933 21659 5200 23002 16892 13925 15101 4059 2033 4438 149 13776 6110 5063 1822 10038 3900
internal_count=85659 64141 21518 42482 8060 13458 10828 305 10797 7755 4190 27381 6607 5933 21659 5200 23002 16892 13925 15101 4059 2033 4438 149 13776 6110 5063 1822 10038 3900
is_linear=0
shrinkage=0.05


Tree=3
num_leaves=31
num_cat=0
split_feature=18 15 0 17 15 17 17 0 8 0 0 16 15 8 17 27 8 27 14 14 0 27 16 16 8 27 14 0 15 24
split_gain=1.12051e+09 1.51843e+08 2.81421e+07 1.68204e+07 1.10015e+07 9.21858e+06 6.12933e+06 6.04924e+06 4.56842e+06 3.94604e+06 2.93634e+06 2.85386e+06 2.68731e+06 2.53063e+06 2.43116e+06 2.24198e+06 1.99947e+06 1.47068e+06 1.94098e+06 1.40664e+06 1.19749e+06 1.13747e+06 1.35002e+06 1.11238e+06 1.10059e+06 1.0524e+06 1.14575e+06 1.02546e+06 999354 985564
threshold=320.41500000000008 137.69500000000002 420.42000000000007 327.18000000000006 343.43000000000006 200.58500000000004 470.50000000000006 139.86500000000004 9.5000000000000018 299.19500000000005 190.24500000000003 498.87000000000006 468.89500000000004 44.500000000000007 373.17500000000007 0.35519076525696741 10.500000000000002 0.52878566854740072 1.0000000180025095e-35 1.0000000180025095e-35 215.96500000000003 0.35519076525696741 320.64000000000004 521.79500000000007 9.5000000000000018 0.35519076525696741 1.0000000180025095e-35 87.825000000000003 438.96500000000009 84.84011415020619
decision_type=2 2 2 2 2 2 2 2 2 2 2 2 2 2 2 2 2 2 2 2 2 2 2 2 2 2 2 2 2 2
left_child=1 7 4 5 9 10 11 27 -8 -2 -3 17 24 15 21 -10 -7 -4 -19 23 -18 -5 -23 -17 -6 -13 -27 -1 -20 -26
right_child=2 3 6 14 12 16 8 -9 13 -11 -12 25 -14 -15 -16 19 20 18 28 -21 -22 22 -24 -25 29 26 -28 -29 -30 -31
leaf_value=-7.1983231101697758 0.63677255683233358 -3.1398476049577586 3.4149614479806689 -4.7543973048528043 5.2877959084297927 -1.9337381683078441 9.6378931121374247 -3.6971632122260125 5.8365569638776353 5.694241486018278 -1.8253375270567387 2.0475395838419597 10.169589797282292 10.582293893738234 6.7096829244550662 11.299101968680976 -1.2931050158328079 8.1260696629212283 9.1978740482785959 13.91751151656219 -0.47083600350082205 0.74365025777768878 5.8146180511315668 13.064214132969065 7.6641635327979944 10.539592326590963 13.074867326046345 -6.4898851953968251 12.023369389864683 11.044444910987018
leaf_weight=8727 661 9180 117 54 448 4664 1762 1717 111 926 7908 30 1483 1471 583 1437 7067 1925 607 2531 11856 315 225 2356 2392 1194 711 12318 646 237
leaf_count=8727 661 9180 117 54 448 4664 1762 1717 111 926 7908 30 1483 1471 583 1437 7067 1925 607 2531 11856 315 225 2356 2392 1194 711 12318 646 237
internal_value=-0.000517081 -3.26417 10.0198 -1.47665 7.17332 -1.64716 11.1943 -6.55084 11.9402 3.58776 -2.53152 9.81537 8.42119 12.4533 4.41593 12.881 -1.00647 8.92032 9.123 13.0046 -0.777921 2.16465 2.85655 12.3955 7.57853 11.3395 11.4858 -6.78366 10.6546 7.96889
internal_weight=85659 64614 21045 41852 6147 40675 14898 22762 9668 1587 17088 5230 4560 7906 1177 6435 23587 3295 3178 6324 18923 594 540 3793 3077 1935 1905 21045 1253 2629
internal_count=85659 64614 21045 41852 6147 40675 14898 22762 9668 1587 17088 5230 4560 7906 1177 6435 23587 3295 3178 6324 18923 594 540 3793 3077 1935 1905 21045 1253 2629
is_linear=0
shrinkage=0.05


Tree=4
num_leaves=31
num_cat=0
split_feature=25 25 25 25 34 8 5 34 5 14 25 8 27 25 8 25 25 34 25 28 25 8 25 26 14 14 25 14 25 25
split_gain=1.05646e+09 1.35969e+08 4.40586e+07 1.64672e+07 8.04023e+06 5.78465e+06 4.36916e+06 4.33813e+06 2.92311e+06 2.90308e+06 2.35334e+06 2.15601e+06 2.11436e+06 1.81683e+06 1.74906e+06 1.61284e+06 1.58544e+06 1.24898e+06 1.03155e+06 958199 933496 911359 767354 757019 736429 716900 614004 605866 561302 518394
threshold=314.14303571428576 134.17750000000004 461.38767857142858 196.42750000000004 1.5000000000000002 10.500000000000002 3.5000000000000004 1.5000000000000002 3.5000000000000004 1.0000000180025095e-35 428.58696428571437 8.5000000000000018 0.35519076525696741 517.53410714285735 45.500000000000007 87.057857142857159 216.03160714285718 1.0000000180025095e-35 171.45910714285716 6.1951785714285732 510.53517857142862 47.500000000000007 261.64714285714291 5.8430637480798788 1.0000000180025095e-35 1.0000000180025095e-35 625.37589285714296 1.0000000180025095e-35 590.00750000000016 397.34000000000009
decision_type=2 2 2 2 2 2 2 2 2 2 2 2 2 2 2 2 2 2 2 2 2 2 2 2 2 2 2 2 2 2
left_child=1 15 4 18 6 -4 -2 -7 29 13 -10 -5 -11 -9 26 -1 27 23 -3 -12 -14 22 25 -17 -20 -18 -15 -13 -16 -6
right_child=2 3 5 11 8 7 -8 9 10 12 19 16 20 14 28 17 21 -19 24 -21 -22 -23 -24 -25 -26 -27 -28 -29 -30 -31
leaf_value=-7.0759278427019936 5.750783589253059 -3.4243510125029655 9.2722004180728632 -1.8934336117132784 4.3052424029999914 -7.0734557088216157 -6.335747111385519 9.8599555154005305 6.8944602297727506 6.6606673563559227 7.86211230898971 -1.8255978169027582 12.518593638426697 12.151696173431503 10.613976037740935 -3.4531836908371725 -0.73777263466324405 -6.2006625050286059 -2.9121497090481974 10.022982085706623 14.062962088393576 -1.4564393822032506 0.64706658533714234 6.3593417027900969 -1.9178439486894487 0.016036711850411778 14.490046717988552 -0.87305101492506554 7.6130159637967099 6.0011565985598949
leaf_weight=7403 130 6376 2581 4435 743 30 176 1624 4137 127 1005 3306 2170 3281 1049 61 7928 13823 5580 1048 1782 1935 1860 29 2795 5238 307 3372 183 1145
leaf_count=7403 130 6376 2581 4435 743 30 176 1624 4137 127 1005 3306 2170 3281 1049 61 7928 13823 5580 1048 1782 1935 1860 29 2795 5238 307 3372 183 1145
internal_value=-0.000491242 -3.21668 9.58636 -1.59253 6.75459 11.394 -1.20095 11.9129 7.05596 11.9671 7.58124 -0.881829 13.0109 11.3063 11.7937 -6.47969 -0.692038 -6.16244 -2.94514 8.96518 13.215 -0.4351 -0.303575 -0.29137 -2.58032 -0.437875 12.3518 -1.34462 10.1682 5.33375
internal_weight=85659 64141 21518 42825 8384 13134 306 10553 8078 10523 6190 28074 4079 6444 4820 21316 23639 13913 14751 2053 3952 16961 15026 90 8375 13166 3588 6678 1232 1888
internal_count=85659 64141 21518 42825 8384 13134 306 10553 8078 10523 6190 28074 4079 6444 4820 21316 23639 13913 14751 2053 3952 16961 15026 90 8375 13166 3588 6678 1232 1888
is_linear=0
shrinkage=0.05


Tree=5
num_leaves=31
num_cat=0
split_feature=23 23 23 23 34 8 34 23 3 8 8 27 34 28 23 23 5 23 23 5 8 32 8 13 8 32 8 23 5 8
split_gain=9.48326e+08 1.22739e+08 3.31842e+07 1.31944e+07 9.12564e+06 5.27377e+06 4.98818e+06 3.70735e+06 2.72496e+06 2.43138e+06 1.9148e+06 1.89294e+06 1.87925e+06 1.87077e+06 1.42409e+06 1.32495e+06 1.29862e+06 1.94182e+06 1.19642e+06 1.19271e+06 1.15797e+06 1.0215e+06 785636 726005 653271 616722 615162 548822 543112 531527
threshold=312.14500000000004 138.77142857142863 463.87785714285718 199.78285714285718 1.5000000000000002 9.5000000000000018 1.5000000000000002 415.11214285714289 8.2586666666666684 48.500000000000007 6.5000000000000009 0.35519076525696741 1.0000000180025095e-35 6.1365799149737148 88.380714285714305 236.32071428571433 7.5000000000000009 532.14142857142872 177.13571428571433 3.5000000000000004 14.500000000000002 0.51999999999999991 39.500000000000007 1.0000000180025095e-35 47.500000000000007 0.82000000000000084 8.5000000000000018 491.55642857142863 2.5000000000000004 46.500000000000007
decision_type=2 2 2 2 2 2 2 2 2 2 2 2 2 2 2 2 2 2 2 2 2 2 2 2 2 2 2 2 2 2
left_child=1 12 4 18 8 27 -7 19 -2 11 -5 -8 21 28 -14 23 20 22 -3 -6 -13 -1 -18 29 -17 -23 -20 -4 -9 -12
right_child=2 3 5 10 7 6 9 13 -10 -11 15 16 14 -15 -16 24 17 -19 26 -21 -22 25 -24 -25 -26 -27 -28 -29 -30 -31
leaf_value=-4.3959456106478525 3.5623783968335432 -3.0551095777113089 6.8032020049504247 -1.9332468029550645 4.6347014442809238 -6.8982304924412778 5.7274172013146547 5.3494528837961042 -5.815143465314593 8.8894174243541482 -0.53309722310201868 10.618853658699154 -6.6873483673014125 9.0919211902956008 -5.8454265902510318 -0.034909915526917835 8.3056909997037476 11.692770317611709 -3.3766022178065231 6.506350230372961 12.619084667798658 5.9058240660914674 10.592750838067797 -1.4665694970507213 -1.2697253757800029 -2.3455653875302045 -2.021376958623653 8.8942405484394413 7.4018175399587269 -1.5708066152353044
leaf_weight=132 139 8082 373 3310 1149 38 140 422 175 987 7632 912 8043 2214 13375 8291 700 3344 954 3284 3502 54 810 4691 1230 39 6848 1977 1365 1472
leaf_count=132 139 8082 373 3310 1149 38 140 422 175 987 7632 912 8043 2214 13375 8291 700 3344 954 3284 3502 54 810 4691 1230 39 6848 1977 1365 1472
internal_value=-0.00141474 -3.04877 9.07837 -1.48826 6.70555 10.7022 11.1842 7.01714 -1.66395 11.2503 -0.807885 11.498 -6.11384 8.12059 -6.16159 -0.648126 11.5851 11.0208 -2.62875 6.02123 12.2058 -1.56812 9.53252 -0.961254 -0.194433 2.44556 -2.18709 8.56234 6.91715 -0.700882
internal_weight=85684 64153 21531 42510 8748 12783 10433 8434 314 10395 26626 9408 21643 4001 21418 23316 9268 4854 15884 4433 4414 225 1510 13795 9521 93 7802 2350 1787 9104
internal_count=85684 64153 21531 42510 8748 12783 10433 8434 314 10395 26626 9408 21643 4001 21418 23316 9268 4854 15884 4433 4414 225 1510 13795 9521 93 7802 2350 1787 9104
is_linear=0
shrinkage=0.05


Tree=6
num_leaves=31
num_cat=0
split_feature=25 25 25 25 34 8 34 5 14 5 25 8 25 25 8 24 25 25 34 25 8 11 14 8 25 26 25 8 25 25
split_gain=8.5946e+08 1.10877e+08 3.61502e+07 1.30914e+07 5.7109e+06 4.61856e+06 3.91422e+06 3.69241e+06 2.51086e+06 2.1213e+06 1.82261e+06 1.75775e+06 1.75636e+06 1.49102e+06 1.44137e+06 1.2798e+06 1.14867e+06 881975 878101 873736 783545 706181 686638 606306 565682 546212 539429 531745 510759 486670
threshold=314.14303571428576 142.17464285714289 456.70857142857147 200.07321428571433 1.5000000000000002 9.5000000000000018 1.5000000000000002 3.5000000000000004 1.0000000180025095e-35 3.5000000000000004 414.46464285714291 9.5000000000000018 545.78214285714296 88.720714285714294 44.500000000000007 13.826106429332759 183.21053571428573 510.53517857142862 1.0000000180025095e-35 221.51964285714288 24.500000000000004 1.0000000180025095e-35 1.0000000180025095e-35 9.5000000000000018 524.92696428571446 7.7135714285714299 625.37589285714296 11.500000000000002 95.620892857142863 487.90250000000009
decision_type=2 2 2 2 2 2 2 2 2 2 2 2 2 2 2 2 2 2 2 2 2 2 2 2 2 2 2 2 2 2
left_child=1 13 4 16 7 24 -7 -2 12 -6 -11 -5 29 -1 26 -10 27 -17 28 22 -12 25 -13 -18 -4 -21 -14 -3 -15 -8
right_child=2 3 5 11 9 6 8 -9 15 10 20 19 14 18 -16 17 23 -19 -20 21 -22 -23 -24 -25 -26 -27 -28 -29 -30 -31
leaf_value=-6.3554470228188427 5.2712135689599178 -3.6650400669862671 7.2030452134422447 -1.6056461015086911 4.7628432634477758 -6.5432932304613516 8.4164182151615314 -5.7535053442759683 5.739191610357735 5.9702545472371567 9.3213854091962176 -1.5355203567749145 11.188094865044693 5.1291221380233765 9.191559060911338 11.157529879406772 -3.1934612739388024 12.640157566993251 -5.5376907383669778 0.10571604946329721 7.2455864322758998 -1.1684737020458555 -0.55331039368400525 -1.7749906467462446 8.8070095505920793 -0.56015022917022417 13.486990449126338 -2.7112800351123201 -2.9149857509243597 9.7124348645510832
leaf_weight=8084 140 1772 868 4839 1822 33 1136 166 89 3446 600 3293 2514 24 978 2315 891 1770 13402 7004 1876 2148 3871 4876 1499 5497 284 8337 111 1999
leaf_count=8084 140 1772 868 4839 1822 33 1136 166 89 3446 600 3293 2514 24 978 2315 891 1770 13402 7004 1876 2148 3871 4876 1499 5497 284 8337 111 1999
internal_value=-0.00134402 -2.90276 8.64147 -1.4206 5.99004 10.2243 10.6512 -0.709516 10.7024 6.25477 6.71379 -0.743533 10.1176 -5.81814 10.8439 11.6707 -2.55723 11.7999 -5.49727 -0.552282 7.74861 -0.330985 -1.00479 -1.99414 8.21882 -0.187082 11.4214 -2.87846 -1.48492 9.24281
internal_weight=85684 64149 21535 42528 8050 13485 11118 306 11085 7744 5922 26652 6911 21621 3776 4174 15876 4085 13537 21813 2476 14649 7164 5767 2367 12501 2798 10109 135 3135
internal_count=85684 64149 21535 42528 8050 13485 11118 306 11085 7744 5922 26652 6911 21621 3776 4174 15876 4085 13537 21813 2476 14649 7164 5767 2367 12501 2798 10109 135 3135
is_linear=0
shrinkage=0.05


Tree=7
num_leaves=31
num_cat=0
split_feature=25 25 25 25 34 8 34 5 14 5 27 25 8 25 8 25 25 25 14 25 34 8 25 5 26 8 25 13 11 27
split_gain=7.75662e+08 1.00107e+08 3.26256e+07 1.22451e+07 5.15408e+06 4.16972e+06 3.54396e+06 3.3324e+06 2.16537e+06 1.91447e+06 1.72104e+06 1.6449e+06 1.59091e+06 1.57123e+06 1.25495e+06 1.21199e+06 1.10259e+06 929833 1.21594e+06 787073 777211 707150 706196 551361 530095 515411 477189 453854 440551 424178
threshold=314.14303571428576 134.17750000000004 456.70857142857147 200.07321428571433 1.5000000000000002 10.500000000000002 1.5000000000000002 3.5000000000000004 1.0000000180025095e-35 3.5000000000000004 0.35519076525696741 414.46464285714291 8.5000000000000018 510.53517857142862 48.500000000000007 86.187142857142859 183.21053571428573 246.25964285714289 1.0000000180025095e-35 520.95500000000004 1.0000000180025095e-35 24.500000000000004 625.37589285714296 2.5000000000000004 5.8430637480798788 5.5000000000000009 388.62821428571436 1.0000000180025095e-35 1.0000000180025095e-35 1.0000000180025095e-35
decision_type=2 2 2 2 2 2 2 2 2 2 2 2 2 2 2 2 2 2 2 2 2 2 2 2 2 2 2 2 2 2
left_child=1 15 4 16 7 25 -7 -2 13 26 -10 -11 -5 -8 22 -1 27 18 -14 -12 24 -13 -15 -18 -17 -4 -6 29 -19 -3
right_child=2 3 5 12 9 6 8 -9 10 11 19 21 17 14 -16 20 23 28 -20 -21 -22 -23 -24 -25 -26 -27 -28 -29 -30 -31
leaf_value=-6.0946670650879673 5.0076528536421918 -5.9234707004422642 7.2428288845776283 -1.5860080592089392 3.4089600223383516 -6.2161286671956386 8.2850468850949017 -5.4658300049333697 5.5965080468550976 5.6717418393152066 10.793887278767542 8.8553161091009773 -1.1022839603961292 10.232203861971771 8.1936863296719462 -3.0105799941221871 -3.0768255652377556 0.18812815595385976 -0.2467677676053103 12.288439438414629 -5.3222461161906267 6.8833071036796483 12.81264128804102 -1.6922903436754411 5.7817725459734604 8.6473075275608036 5.1115397671081588 -3.2406556659861412 -1.2032073395919658 -2.4878117945315972
leaf_weight=7073 140 91 1353 4309 628 33 1629 166 138 3446 2737 600 9334 3993 756 60 842 4882 7483 1299 14136 1876 284 4925 24 1263 1194 3301 644 7045
leaf_count=7073 140 91 1353 4309 628 33 1629 166 138 3446 2737 600 9334 3993 756 60 842 4882 7483 1299 14136 1876 284 4925 24 1263 1194 3301 644 7045
internal_value=-0.00127679 -2.75762 8.2094 -1.36537 5.69054 9.71306 10.1444 -0.67404 10.1942 5.94203 11.0872 6.3781 -0.706357 9.63476 10.0716 -5.5598 -2.44929 -0.53671 -0.721608 11.2749 -5.29375 7.36118 10.4035 -1.89444 -0.498479 7.92091 4.5247 -2.75588 0.0259819 -2.53162
internal_weight=85684 64149 21535 42856 8050 13485 10869 306 10836 7744 4174 5922 26652 6662 5033 21293 16204 22343 16817 4036 14220 2476 4277 5767 84 2616 1822 10437 5526 7136
internal_count=85684 64149 21535 42856 8050 13485 10869 306 10836 7744 4174 5922 26652 6662 5033 21293 16204 22343 16817 4036 14220 2476 4277 5767 84 2616 1822 10437 5526 7136
is_linear=0
shrinkage=0.05


Tree=8
num_leaves=31
num_cat=0
split_feature=18 16 34 16 17 18 8 17 17 17 34 8 17 27 8 1 8 18 34 27 16 8 14 18 16 15 14 15 14 8
split_gain=6.71703e+08 9.0811e+07 1.78045e+07 1.06471e+07 9.94109e+06 6.16655e+06 4.09685e+06 3.85769e+06 2.72444e+06 2.67672e+06 2.37025e+06 2.185e+06 1.77453e+06 1.50352e+06 1.50269e+06 1.3991e+06 1.31726e+06 1.25589e+06 1.16192e+06 1.12985e+06 1.11481e+06 1.05666e+06 1.01099e+06 722830 720533 658508 641610 611408 597884 587131
threshold=320.41500000000008 137.38500000000002 1.5000000000000002 423.2000000000001 347.19500000000005 200.77500000000003 10.500000000000002 139.64500000000001 484.25000000000006 422.97500000000008 1.5000000000000002 11.500000000000002 197.55500000000004 0.52878566854740072 44.500000000000007 19.050000000000001 10.500000000000002 496.31500000000005 1.0000000180025095e-35 0.52878566854740072 366.93500000000006 28.500000000000004 1.0000000180025095e-35 496.31500000000005 240.67500000000004 175.52500000000003 1.0000000180025095e-35 90.445000000000007 1.0000000180025095e-35 10.500000000000002
decision_type=2 2 2 2 2 2 2 2 2 2 2 2 2 2 2 2 2 2 2 2 2 2 2 2 2 2 2 2 2 2
left_child=1 7 11 9 5 12 23 18 17 15 28 19 25 -13 -10 29 -7 21 -1 -2 24 -8 -11 -5 -18 -3 -14 -20 -6 -4
right_child=2 4 3 6 10 16 8 -9 14 22 -12 13 26 -15 -16 -17 20 -19 27 -21 -22 -23 -24 -25 -26 -27 -28 -29 -30 -31
leaf_value=-1.6146044997843327 7.0554499904632566 -2.7501567846943931 3.7307860588196444 6.0555241501847386 0.85656272283983681 -1.4731983139137463 8.5082972898378326 -2.8469144438703857 10.109100751894671 6.5903338460848238 5.4186280626262358 -5.574042407076627 -1.7147537297905651 0.18373624637412531 8.2665500797070095 -0.20775159371310267 -0.81694278403109166 9.2485783450185632 -5.592549997825234 -0.77337000333283046 3.5390003365385967 6.6116882463007656 8.6140969839067232 7.6859961446221323 -0.17305378275743349 -1.9687756878626665 -0.71309159974993941 -5.0479150722556696 -5.6072488639089801 5.691482921869353
leaf_weight=216 125 5478 451 1155 106 4741 1488 1794 5772 1633 702 187 4198 288 1369 116 11647 1803 9621 73 166 1450 992 1652 6930 5310 2582 11096 54 2489
leaf_count=216 125 5478 451 1155 106 4741 1488 1794 5772 1633 702 187 4198 288 1369 116 11647 1803 9621 73 166 1450 992 1652 6930 5310 2582 11096 54 2489
internal_value=-0.00121298 -2.52707 7.75785 8.0222 -1.14708 -1.25866 8.7331 -5.0721 9.13896 6.18408 4.16692 -0.243618 -1.96717 -2.08301 9.75587 5.1782 -0.72863 8.20976 -5.26281 4.16907 -0.540294 7.57226 7.35512 7.0151 -0.576745 -2.36555 -1.33329 -5.30084 -1.32497 5.39071
internal_weight=85684 64641 21043 20370 41914 41052 14689 22727 11882 5681 862 673 17568 475 7141 3056 23484 4741 20933 198 18743 2938 2625 2807 18577 10788 6780 20717 160 2940
internal_count=85684 64641 21043 20370 41914 41052 14689 22727 11882 5681 862 673 17568 475 7141 3056 23484 4741 20933 198 18743 2938 2625 2807 18577 10788 6780 20717 160 2940
is_linear=0
shrinkage=0.05


Tree=9
num_leaves=31
num_cat=0
split_feature=25 25 25 25 34 8 34 3 14 25 27 8 28 25 13 8 25 25 25 34 8 25 5 25 19 14 26 5 25 25
split_gain=6.32202e+08 8.1747e+07 2.75238e+07 1.03004e+07 4.26916e+06 3.32401e+06 2.82901e+06 2.77647e+06 1.96039e+06 1.83072e+06 1.50802e+06 1.32918e+06 1.29144e+06 1.23303e+06 1.23065e+06 1.18308e+06 1.03424e+06 917620 784925 653062 620086 619718 590978 573845 491119 483473 481824 459697 423576 409091
threshold=314.14303571428576 134.17750000000004 461.38767857142858 200.07321428571433 1.5000000000000002 9.5000000000000018 1.5000000000000002 8.2586666666666684 1.0000000180025095e-35 428.58696428571437 0.35519076525696741 8.5000000000000018 6.2098214285714297 549.22232142857149 1.0000000180025095e-35 44.500000000000007 84.131607142857163 178.2641071428572 218.27357142857144 1.0000000180025095e-35 46.500000000000007 520.95500000000004 2.5000000000000004 364.62821428571436 23.385000000000002 1.0000000180025095e-35 5.8333059165805654 2.5000000000000004 590.00750000000016 625.37589285714296
decision_type=2 2 2 2 2 2 2 2 2 2 2 2 2 2 2 2 2 2 2 2 2 2 2 2 2 2 2 2 2 2
left_child=1 16 4 17 7 -4 -7 -2 13 14 -10 -5 27 -8 23 29 -1 -3 25 26 24 -12 -19 -6 -20 -13 -18 -11 -17 -15
right_child=2 3 5 11 9 6 8 -9 10 12 21 18 -14 15 -16 28 19 22 20 -21 -22 -23 -24 -25 -26 -27 -28 -29 -30 -31
leaf_value=-5.5526459987693038 4.5094252813869806 -2.5736505686286097 7.1230405881629508 -1.4310825225617512 4.2599703537429763 -5.6387414336204529 8.0026361582050587 -5.0273139570698602 4.9001517101010279 4.0519051744219139 9.8534451343237865 -1.4089211050675823 7.7025151155964808 9.6667842683877208 3.770465040621211 8.4386187730084341 -2.8528813982009886 -2.8930865554556537 0.093827679786894158 -4.818149380884595 -1.0579268512339295 11.18777126933608 -1.6347763244252169 5.7282111773956261 -0.50849353562653055 -0.52838536333234065 5.4089859924316412 6.0319943224406005 5.9765697864691418 11.672543547522855
leaf_weight=6412 142 8732 2327 4309 870 32 3141 165 134 408 2636 2975 1180 2424 1739 642 60 1093 7959 14796 2246 1299 6379 2831 5888 3275 25 1041 240 284
leaf_count=6412 142 8732 2327 4309 870 32 3141 165 134 408 2636 2975 1180 2424 1739 642 60 1093 7959 14796 2246 1299 6379 2831 5888 3275 25 1041 240 284
internal_value=-0.00115232 -2.48958 7.41145 -1.23146 5.17095 8.83757 9.2059 -0.616184 9.24988 5.39113 10.1163 -0.62704 6.4745 8.72612 4.86757 9.35912 -5.02178 -2.22559 -0.471975 -4.79304 -0.287289 10.2939 -1.81884 5.38307 -0.16229 -0.94752 -0.42292 5.47445 7.76867 9.87714
internal_weight=85684 64149 21535 42856 8376 13159 10832 307 10800 8069 4069 26652 2629 6731 5440 3590 21293 16204 22343 14881 16093 3935 7472 3701 13847 6250 85 1449 882 2708
internal_count=85684 64149 21535 42856 8376 13159 10832 307 10800 8069 4069 26652 2629 6731 5440 3590 21293 16204 22343 14881 16093 3935 7472 3701 13847 6250 85 1449 882 2708
is_linear=0
shrinkage=0.05


Tree=10
num_leaves=31
num_cat=0
split_feature=25 25 25 25 34 8 34 5 8 8 25 25 8 25 14 13 25 27 25 23 8 34 8 14 27 13 25 26 27 18
split_gain=5.69556e+08 7.33757e+07 2.51861e+07 9.39713e+06 4.28192e+06 3.11244e+06 2.63561e+06 2.54876e+06 1.71193e+06 1.6961e+06 1.67456e+06 1.22344e+06 1.17188e+06 928581 920040 782677 781955 736095 728714 703399 703064 640018 598222 578221 523707 512145 494431 485064 642098 484130
threshold=314.14303571428576 134.17750000000004 461.38767857142858 198.21196428571432 1.5000000000000002 9.5000000000000018 1.5000000000000002 3.5000000000000004 48.500000000000007 10.500000000000002 423.59160714285719 484.08339285714288 9.5000000000000018 86.187142857142859 1.0000000180025095e-35 1.0000000180025095e-35 216.03160714285718 0.35519076525696741 170.38857142857145 586.7850000000002 24.500000000000004 1.0000000180025095e-35 46.500000000000007 1.0000000180025095e-35 0.35519076525696741 1.0000000180025095e-35 364.62821428571436 7.7135714285714299 1.0000000180025095e-35 377.75500000000005
decision_type=2 2 2 2 2 2 2 2 2 2 2 2 2 2 2 2 2 2 2 2 2 2 2 2 2 2 2 2 2 2
left_child=1 13 4 18 7 -4 -7 29 11 -6 25 15 -5 -1 19 24 -14 -16 -3 -13 -12 -15 27 -20 -8 26 -11 28 -18 -2
right_child=2 3 5 12 9 6 8 -9 -10 10 20 14 16 21 17 -17 22 -19 23 -21 -22 -23 -24 -25 -26 -27 -28 -29 -30 -31
leaf_value=-5.2357529917095391 1.9723961617797614 -2.5853167685271141 6.7516077637532081 -1.3190186262099761 3.4308675029673825 -5.1383811838486615 2.0133228890357482 -4.8006776432533051 6.7594769533414478 4.123816369604639 7.8624282264744849 8.4504572235310587 -0.96111969092170713 -0.20900310362086577 5.5077161672351131 6.0018558059911156 -3.9101897499778056 10.072882592587943 -2.1654771823486221 9.7380165241673406 5.9580292926134844 -4.5607264290999883 -1.0362090999897284 -1.339681199976215 8.5957437956841076 3.8845709967223869 5.5001108079029812 -0.49536345160490858 0.14195147594581239 8.2062463604936422
leaf_weight=7079 80 6094 2349 4912 1259 34 31 177 934 875 674 3516 5895 85 91 455 99 2976 6215 1519 1725 14105 2315 3217 1197 1041 2567 6347 7821 51
leaf_count=7079 80 6094 2349 4912 1259 34 31 177 934 875 674 3516 5895 85 91 455 99 2976 6215 1519 1725 14105 2315 3217 1197 1041 2567 6347 7821 51
internal_value=-0.00515614 -2.36661 7.02781 -1.17646 4.89927 8.40043 8.76062 -0.887694 8.80471 5.1182 5.42689 8.99993 -0.619395 -4.76801 9.25475 7.77324 -0.466504 9.93743 -2.15916 8.8389 6.49307 -4.53466 -0.290665 -1.88382 8.42958 4.85634 5.15024 -0.169691 0.0912997 4.39931
internal_weight=85735 64184 21551 42915 8449 13102 10753 308 10719 8141 6882 9785 27389 21269 8102 1683 22477 3067 15526 5035 2399 14190 16582 9432 1228 4483 3442 14267 7920 131
internal_count=85735 64184 21551 42915 8449 13102 10753 308 10719 8141 6882 9785 27389 21269 8102 1683 22477 3067 15526 5035 2399 14190 16582 9432 1228 4483 3442 14267 7920 131
is_linear=0
shrinkage=0.05


Tree=11
num_leaves=31
num_cat=0
split_feature=25 25 25 25 34 5 34 5 14 5 25 25 27 14 25 5 25 27 25 1 25 28 5 25 25 25 34 27 13 25
split_gain=5.14024e+08 6.62306e+07 2.27305e+07 8.18979e+06 3.86444e+06 2.71772e+06 2.37168e+06 2.30026e+06 1.58993e+06 1.52766e+06 1.26496e+06 1.23116e+06 1.13231e+06 1.11001e+06 1.70672e+06 974339 946578 834756 625088 613722 560989 544938 534409 491441 484428 482872 479321 478072 454335 497854
threshold=314.14303571428576 142.17464285714289 461.38767857142858 194.61482142857147 1.5000000000000002 2.5000000000000004 1.5000000000000002 3.5000000000000004 1.0000000180025095e-35 3.5000000000000004 428.58696428571437 510.53517857142862 0.35519076525696741 1.0000000180025095e-35 234.47446428571433 11.500000000000002 90.143571428571434 0.35519076525696741 217.5876785714286 44.945000000000007 510.53517857142862 6.2023041150126579 3.5000000000000004 263.61910714285722 625.37589285714296 590.00750000000016 1.0000000180025095e-35 1.0000000180025095e-35 1.0000000180025095e-35 364.62821428571436
decision_type=2 2 2 2 2 2 2 2 2 2 2 2 2 2 2 2 2 2 2 2 2 2 2 2 2 2 2 2 2 2
left_child=1 16 4 22 7 -4 -7 -2 11 -6 28 -8 -10 14 -5 24 -1 19 -19 -15 -14 -12 -3 -16 -13 -17 -18 -24 29 -11
right_child=2 3 5 13 9 6 8 -9 12 10 21 15 20 17 23 25 26 18 -20 -21 -22 -23 27 -25 -26 -27 -28 -29 -30 -31
leaf_value=-4.9041214576118604 4.1793492332667839 -2.6587004252233024 6.3756150575690587 -1.3021905854137028 3.6080217156553624 -4.8814620915581202 6.6846320805953967 -4.5606437428522915 4.388806746753513 3.9176255882282875 5.4275108553630353 8.4145874094185515 8.7432005891285023 -5.4881812555893612 -0.5410311987720281 7.2657003772299156 -1.2093455612200958 -0.52984193645753186 0.32448152425323307 -1.1475495456367411 9.9481179584768817 7.0537030881979961 -5.223173073234908 0.35743831461136799 10.549969171155507 4.1823433654323505 -4.2609004439990201 -1.8946520815629129 3.4872019077437209 5.2889503619893103
leaf_weight=8760 131 3288 2196 9765 1870 34 1637 177 122 875 1017 4098 2167 115 8028 664 130 3903 4743 279 1743 1044 109 1878 284 157 12711 10475 618 2717
leaf_count=8760 131 3288 2196 9765 1870 34 1637 177 122 875 1017 4098 2167 115 8028 664 130 3903 4743 279 1743 1044 109 1878 284 157 12711 10475 618 2717
internal_value=-0.00489833 -2.24828 6.67642 -1.10434 4.6543 7.98041 8.30355 -0.843309 8.34478 4.86229 5.23632 7.88055 9.13232 -0.62235 -0.833106 8.25682 -4.50339 -0.163746 -0.0611794 -2.41449 9.28033 6.25126 -2.1019 -0.370697 8.55298 6.67607 -4.23001 -1.92893 4.73945 4.9549
internal_weight=85735 64184 21551 42583 8449 13102 10906 308 10872 8141 6271 6840 4032 28711 19671 5203 21601 9040 8646 394 3910 2061 13872 9906 4382 821 12841 10584 4210 3592
internal_count=85735 64184 21551 42583 8449 13102 10906 308 10872 8141 6271 6840 4032 28711 19671 5203 21601 9040 8646 394 3910 2061 13872 9906 4382 821 12841 10584 4210 3592
is_linear=0
shrinkage=0.05


Tree=12
num_leaves=31
num_cat=0
split_feature=25 25 25 25 34 8 34 20 14 25 13 27 8 8 25 25 8 25 5 25 14 34 25 25 26 28 25 8 23 8
split_gain=4.63907e+08 5.98059e+07 2.05155e+07 7.69144e+06 3.20933e+06 2.68897e+06 2.37617e+06 2.06973e+06 1.46911e+06 1.38098e+06 1.20461e+06 1.18751e+06 979839 978886 957258 772521 676597 619024 603974 550044 865522 545080 514825 494468 481995 477400 471953 462531 444929 439016
threshold=314.14303571428576 134.17750000000004 452.23875000000004 203.6994642857143 1.5000000000000002 8.5000000000000018 1.5000000000000002 5.7615010752688178 1.0000000180025095e-35 510.53517857142862 1.0000000180025095e-35 0.35519076525696741 8.5000000000000018 48.500000000000007 186.48517857142858 83.214285714285737 14.500000000000002 364.62821428571436 3.5000000000000004 246.25964285714289 1.0000000180025095e-35 1.0000000180025095e-35 538.86250000000007 392.95357142857148 5.8430637480798788 5.9819642857142865 502.89357142857148 49.500000000000007 599.33000000000004 9.5000000000000018
decision_type=2 2 2 2 2 2 2 2 2 2 2 2 2 2 2 2 2 2 2 2 2 2 2 2 2 2 2 2 2 2
left_child=1 15 4 14 7 22 -7 -2 9 25 17 -10 -5 28 -3 -1 -13 -6 -19 20 -14 24 -4 -12 -17 -8 -18 -20 -11 -16
right_child=2 3 5 12 10 6 8 -9 11 13 23 16 19 -15 29 21 26 18 27 -21 -22 -23 -24 -25 -26 -27 -28 -29 -30 -31
leaf_value=-4.7807525409743112 3.4346385084589324 -2.1334324201660086 5.1203659216779194 -1.2050578151990565 3.7217442656551087 -4.677609539031983 5.1229186987402429 -4.8173380351685857 3.895663554795826 7.8309016171961563 2.5833607358829873 6.3667302718716314 -0.84991457806169235 6.1706288138471281 -2.3911534573742323 -2.4139409146001265 8.3328803117813504 3.1027782155304964 5.5349431898511874 0.062898742558262208 -0.10246981445133806 -4.1359105163428893 6.6585219725505924 4.0929386334629934 6.0610856180605683 6.803908349801886 9.4397550378509845 3.6873662185668952 8.9754814274470984 -1.1797884407433983
leaf_weight=6069 150 11519 1088 4173 875 38 603 154 131 3388 828 282 8717 753 875 62 1867 322 3504 5510 6970 15115 1088 1573 23 1410 1989 375 1133 5151
leaf_count=6069 150 11519 1088 4173 875 38 603 154 131 3388 828 282 8717 753 875 62 1867 322 3504 5510 6970 15115 1088 1573 23 1410 1989 375 1133 5151
internal_value=-0.00465341 -2.13586 6.3426 -1.06139 4.29037 7.50225 7.80495 -0.745639 7.846 7.4145 4.49512 8.58255 -0.504732 7.83974 -1.86631 -4.30387 8.73093 4.9316 5.1836 -0.366861 -0.517812 -4.11346 5.88944 3.57235 -0.120698 6.30036 8.90383 5.35633 8.11774 -1.35568
internal_weight=85735 64184 21551 42915 7781 13770 11594 304 11556 7287 7477 4269 25370 5274 17545 21269 4138 5076 4201 21197 15687 15200 2176 2401 85 2013 3856 3879 4521 6026
internal_count=85735 64184 21551 42915 7781 13770 11594 304 11556 7287 7477 4269 25370 5274 17545 21269 4138 5076 4201 21197 15687 15200 2176 2401 85 2013 3856 3879 4521 6026
is_linear=0
shrinkage=0.05


Tree=13
num_leaves=31
num_cat=0
split_feature=25 25 25 25 34 8 5 34 25 8 25 13 28 25 8 14 13 25 14 25 8 34 8 25 8 18 30 25 14 24
split_gain=4.18676e+08 5.39748e+07 1.85798e+07 6.94293e+06 3.2765e+06 2.3246e+06 1.90204e+06 1.81506e+06 1.48391e+06 1.34217e+06 1.05597e+06 866997 863596 777445 723499 715844 706111 698388 505560 609608 509419 486574 479658 478209 471402 436927 431950 428800 486443 397069
threshold=314.14303571428576 134.17750000000004 465.3875000000001 192.73928571428573 1.5000000000000002 9.5000000000000018 3.5000000000000004 1.5000000000000002 428.58696428571437 45.500000000000007 217.5876785714286 1.0000000180025095e-35 6.0476785714285723 487.90250000000009 6.5000000000000009 1.0000000180025095e-35 1.0000000180025095e-35 86.187142857142859 1.0000000180025095e-35 570.98821428571443 40.500000000000007 1.0000000180025095e-35 10.500000000000002 590.00750000000016 48.500000000000007 377.75500000000005 -2.1550000000000007 263.61910714285722 1.0000000180025095e-35 32.052742163840541
decision_type=2 2 2 2 2 2 2 2 2 2 2 2 2 2 2 2 2 2 2 2 2 2 2 2 2 2 2 2 2 2
left_child=1 17 4 22 6 -4 25 -7 11 13 15 -6 -10 16 -12 -5 29 -1 19 -15 -21 26 -3 -11 27 -2 -19 28 -16 -9
right_child=2 3 5 10 8 7 -8 9 12 23 14 -13 -14 18 24 -17 -18 21 -20 20 -22 -23 -24 -25 -26 -27 -28 -29 -30 -31
leaf_value=-4.4943216991384149 1.4930769740976393 -2.6444713912270839 5.8115209386475257 -1.394869449183715 4.3849614956668326 -4.5194633853050972 -4.1206780313617655 2.3229644305176205 4.3569218680926136 6.5615658268711137 -1.1319551771753915 3.0392281737792404 6.0757784190129973 7.1905687437935661 -0.47757223244673974 -0.51780091658854654 5.1843592804283167 -2.4154264609018963 8.5685759827139005 8.8726510241384116 7.0241158580903473 -3.9090349444278965 -1.8189082870848001 3.8809435535104657 -1.0834030567230977 7.4152346162235041 5.4071675071716312 0.5882456887758778 0.1382431411956129 7.6552174793208296
leaf_weight=7079 80 2079 2320 5329 3727 31 180 36 1280 1338 2697 1763 1703 2436 9049 4129 458 60 2888 1407 507 14105 11446 190 1549 51 25 1670 4967 1156
leaf_count=7079 80 2079 2320 5329 3727 31 180 36 1280 1338 2697 1763 1703 2436 9049 4129 458 60 2888 1407 507 14105 11446 190 1549 51 25 1670 4967 1156
internal_value=-0.00442074 -2.02907 6.02547 -1.00832 4.25555 7.24322 -0.784884 7.56116 4.44055 7.59712 -0.576892 3.95281 5.33822 7.83245 -0.37044 -1.01197 6.85303 -4.08867 8.05572 7.71523 8.38299 -3.88631 -1.94581 6.22824 -0.251275 3.79865 -0.114664 -0.169102 -0.259339 7.49418
internal_weight=85735 64184 21551 42915 8784 12767 311 10447 8473 10416 29390 5490 2983 8888 19932 9458 1650 21269 7238 4350 1914 14190 13525 1528 17235 131 85 15686 14016 1192
internal_count=85735 64184 21551 42915 8784 12767 311 10447 8473 10416 29390 5490 2983 8888 19932 9458 1650 21269 7238 4350 1914 14190 13525 1528 17235 131 85 15686 14016 1192
is_linear=0
shrinkage=0.05


Tree=14
num_leaves=31
num_cat=0
split_feature=23 23 23 23 27 14 34 23 8 8 14 34 34 19 23 23 27 23 18 8 23 23 23 14 32 27 20 8 27 8
split_gain=3.76845e+08 4.97592e+07 1.28416e+07 5.44539e+06 2.81519e+06 2.72867e+06 2.5356e+06 1.69783e+06 1.14075e+06 1.0835e+06 1.03779e+06 957318 902587 824744 798650 753527 710447 953322 703399 682652 649753 582169 570826 551415 536635 661635 454062 391070 390754 380867
threshold=331.84142857142859 146.05714285714288 443.5157142857143 202.68285714285716 0.35519076525696741 1.0000000180025095e-35 1.5000000000000002 491.55642857142863 9.5000000000000018 5.5000000000000009 1.0000000180025095e-35 1.0000000180025095e-35 1.5000000000000002 5.7615010752688178 237.15357142857144 90.610714285714309 0.35519076525696741 293.03785714285721 444.01000000000005 48.500000000000007 581.40357142857158 174.02214285714288 510.00500000000005 1.0000000180025095e-35 0.51999999999999991 1.0000000180025095e-35 24.880000000000006 41.500000000000007 0.35519076525696741 5.5000000000000009
decision_type=2 2 2 2 2 2 2 2 2 2 2 2 2 2 2 2 2 2 2 2 2 2 2 2 2 2 2 2 2 2
left_child=1 11 6 21 12 7 13 29 28 -9 14 24 -4 -2 -5 -13 -12 -18 -10 20 -11 -3 -7 -23 -1 -26 -17 -22 -8 -6
right_child=2 3 4 10 5 22 8 9 18 19 16 15 -14 -15 -16 26 17 -19 -20 -21 27 23 -24 -25 25 -27 -28 -29 -30 -31
leaf_value=-3.0184721412758035 2.0426187153743665 -1.984710480217819 -2.8729662585415339 -0.98047492994330643 3.4285273811481773 7.2223766404129579 -3.0867411182772728 5.2270762457527535 4.0610820821903326 6.7127263009915001 -2.0135034860946588 -4.2082079733680153 3.4293430045445761 -4.3211842018261297 -0.31447232740405789 -3.6839656133054017 0.033288443893076641 3.1975266923857251 5.2965150417821834 5.5447512101078749 8.2356650372912732 -1.6611699069612804 8.372311720106854 -0.885245475444288 4.6273984454228332 -1.6453507362512731 -2.3689079293557138 6.3523267212151779 2.6348508791591891 5.3297210214273569
leaf_weight=240 92 6413 76 9275 303 2263 31 1163 4136 3717 405 9077 225 114 8746 12114 7352 246 1597 823 1438 6141 2063 3651 65 119 694 341 798 2017
leaf_count=240 92 6413 76 9275 303 2263 31 1163 4136 3717 405 9077 225 114 8746 12114 7352 246 1597 823 1438 6141 2063 3651 65 119 694 341 798 2017
internal_value=-0.00419971 -1.90397 5.77999 -0.894874 6.62285 6.72479 3.98307 6.26317 4.15454 6.6296 -0.446834 -3.81411 1.83806 -1.4791 -0.657249 -3.8597 0.0269723 0.135737 4.40523 6.88773 7.08883 -1.61439 7.77076 -1.37186 -1.46096 0.570566 -3.61271 7.87467 2.4209 5.08142
internal_weight=85735 64538 21197 42229 14429 14128 6768 9802 6562 7482 26024 22309 301 206 18021 21885 8003 7598 5733 6319 5496 16205 4326 9792 424 184 12808 1779 829 2320
internal_count=85735 64538 21197 42229 14429 14128 6768 9802 6562 7482 26024 22309 301 206 18021 21885 8003 7598 5733 6319 5496 16205 4326 9792 424 184 12808 1779 829 2320
is_linear=0
shrinkage=0.05


Tree=15
num_leaves=31
num_cat=0
split_feature=25 25 25 25 8 34 27 2 8 14 25 14 25 25 25 8 34 8 34 25 8 25 25 25 8 8 18 27 14 5
split_gain=3.39124e+08 4.52292e+07 1.42714e+07 5.56072e+06 1.87118e+06 1.81501e+06 1.58345e+06 1.27629e+06 1.21923e+06 1.2187e+06 897868 1.02875e+06 860710 843333 803414 730480 637416 581088 557089 553375 552276 547086 519236 488092 484344 372021 351457 437483 482055 390130
threshold=338.01053571428577 149.12785714285715 461.38767857142858 203.6994642857143 9.5000000000000018 1.5000000000000002 0.35519076525696741 26.723225806451616 10.500000000000002 1.0000000180025095e-35 250.09607142857146 1.0000000180025095e-35 117.91589285714288 410.08392857142866 510.53517857142862 10.500000000000002 1.5000000000000002 41.500000000000007 1.0000000180025095e-35 186.48517857142858 26.500000000000004 567.06857142857154 83.214285714285737 583.86339285714291 14.500000000000002 5.5000000000000009 339.81000000000006 0.35519076525696741 1.0000000180025095e-35 3.5000000000000004
decision_type=2 2 2 2 2 2 2 2 2 2 2 2 2 2 2 2 2 2 2 2 2 2 2 2 2 2 2 2 2 2
left_child=1 12 5 15 -4 7 16 -2 -7 14 11 25 18 -10 -8 -3 -6 21 -1 -17 -15 -16 -20 -19 -11 -5 27 29 -29 -12
right_child=2 3 4 10 6 8 9 -9 13 24 26 -13 -14 20 17 19 -18 23 22 -21 -22 -23 -24 -25 -26 -27 -28 28 -30 -31
leaf_value=0.16779007646065389 3.7170670629634213 -2.3294963637470412 5.2241047864552321 -1.4372335929529969 -4.1725536167621611 2.556996123754836 5.4286737334676722 -3.9353839181718371 3.6882436517297252 5.5387617272160119 0.52081280494558402 -0.059181922730788497 -2.5371184891967316 5.7599266662944162 6.4431413716474015 -1.6523685898189306 3.5618102410023322 6.5442774869105396 -4.1192589332993137 -0.99989873360061476 4.3584940613890018 7.7920399440321733 -3.5687296839422178 4.7766617587071272 7.7070234270692772 -0.69300636696538664 1.7101710303804314 -0.0186215222030362 1.5527157325044687 -4.7854961971903958
leaf_weight=92 96 2582 2364 1987 32 1299 1504 126 3433 277 58 7131 1679 1045 1369 8908 159 1542 6084 5116 2148 1667 14468 523 3669 10839 348 4674 545 86
leaf_count=92 96 2582 2364 1987 32 1299 1504 126 3433 277 58 7131 1679 1045 1369 8908 159 1542 6084 5116 2148 1667 14468 523 3669 10839 348 4674 545 86
internal_value=-0.00257062 -1.8051 5.4761 -0.843683 6.49764 3.83275 6.77791 -0.626216 3.95766 6.85959 -0.382434 -0.540628 -3.62578 4.23225 6.44424 -1.55664 2.266 6.74367 -3.71432 -1.41435 4.81715 7.18379 -3.7317 6.0966 7.55482 -0.808302 0.170371 0.0704545 0.145467 -2.64823
internal_weight=85850 64597 21253 42274 13106 8147 10742 222 7925 10551 25668 19957 22323 6626 6605 16606 191 5101 20644 14024 3193 3036 20552 2065 3946 12826 5711 5363 5219 144
internal_count=85850 64597 21253 42274 13106 8147 10742 222 7925 10551 25668 19957 22323 6626 6605 16606 191 5101 20644 14024 3193 3036 20552 2065 3946 12826 5711 5363 5219 144
is_linear=0
shrinkage=0.05


Tree=16
num_leaves=31
num_cat=0
split_feature=25 25 25 25 8 34 25 27 20 14 8 25 14 25 25 5 25 34 8 25 24 13 8 8 27 14 30 25 8 25
split_gain=3.06059e+08 4.08328e+07 1.28799e+07 4.48825e+06 1.69776e+06 1.63805e+06 1.44651e+06 1.42862e+06 1.16301e+06 1.14433e+06 1.10035e+06 833008 798510 767567 753048 668505 599179 582484 525195 516461 495262 485421 443406 437120 413142 350858 345488 340227 322108 319700
threshold=338.01053571428577 155.35875000000001 461.38767857142858 203.6994642857143 8.5000000000000018 1.5000000000000002 121.62089285714286 0.35519076525696741 5.8150000000000004 1.0000000180025095e-35 10.500000000000002 266.16160714285718 1.0000000180025095e-35 419.03017857142862 510.53517857142862 2.5000000000000004 234.47446428571433 1.5000000000000002 49.500000000000007 90.143571428571434 20.161693224777437 1.0000000180025095e-35 26.500000000000004 14.500000000000002 1.0000000180025095e-35 1.0000000180025095e-35 -168.33499999999998 181.32142857142858 41.500000000000007 535.4114285714287
decision_type=2 2 2 2 2 2 2 2 2 2 2 2 2 2 2 2 2 2 2 2 2 2 2 2 2 2 2 2 2 2
left_child=1 6 5 15 29 8 19 17 -2 14 -7 12 16 -12 -9 -3 -5 -6 -16 -1 25 24 -15 -11 -17 -13 -18 -26 -24 -4
right_child=2 3 4 11 7 10 -8 9 -10 23 13 20 -14 22 18 21 26 -19 -20 -21 -22 -23 28 -25 27 -27 -28 -29 -30 -31
leaf_value=-3.8115010034682353 3.1232393249317454 -2.2848320774849635 4.1892855626938523 -0.96393123127625968 -3.9639259278774261 2.4291463106213205 -2.2130222076089203 5.1601146540743885 -4.1173577615043575 5.2618236261584705 3.5821273907291928 -0.020345470048487187 -0.020130870032738099 5.651055757410516 6.5701232121763642 -5.0105068162960169 5.9034159118481604 3.4034986528646516 4.9476067594686484 -3.3085075036552336 0.86319962500898184 -1.7944639927198314 3.6413513541760758 7.3216722862024852 -1.393087019542927 -4.4979599054654438 -0.37051557832805648 -0.80208002387839439 4.9735938742024297 5.4285056796056921
leaf_weight=8782 108 2030 946 7683 32 1299 2358 1604 114 277 3982 105 7509 815 4697 68 22 166 558 12183 1822 3767 995 3669 4904 75 8452 4837 834 1157
leaf_count=8782 108 2030 946 7683 32 1299 2358 1604 114 277 3982 105 7509 815 4697 68 22 166 558 12183 1822 3767 995 3669 4904 75 8452 4837 834 1157
internal_value=-0.00244208 -1.71485 5.20229 -0.769868 6.17276 3.64111 -3.38715 6.42155 -0.594905 6.49868 3.75978 -0.363312 -0.446158 4.02064 6.10839 -1.43855 -0.644155 2.2128 6.39784 -3.51921 0.616017 -1.31201 4.68106 7.17708 -1.12673 -1.88602 -0.354227 -1.09962 4.24884 4.87106
internal_weight=85850 64597 21253 41274 13106 8147 23323 11003 222 10805 7925 25668 23666 6626 6859 15606 16157 198 5255 20965 2002 13576 2644 3946 9809 180 8474 9741 1829 2103
internal_count=85850 64597 21253 41274 13106 8147 23323 11003 222 10805 7925 25668 23666 6626 6859 15606 16157 198 5255 20965 2002 13576 2644 3946 9809 180 8474 9741 1829 2103
is_linear=0
shrinkage=0.05


Tree=17
num_leaves=31
num_cat=0
split_feature=25 25 25 25 8 27 27 32 14 13 8 25 25 25 14 7 25 25 24 8 14 30 8 25 22 8 8 25 27 30
split_gain=2.76218e+08 3.68602e+07 1.16241e+07 5.01569e+06 1.53716e+06 1.36843e+06 1.22371e+06 1.09314e+06 1.08517e+06 1.05348e+06 759907 734532 653132 619931 573520 504426 704376 503571 469032 467757 433291 493410 430822 402197 400764 394501 392866 391035 344301 318471
threshold=338.01053571428577 134.17750000000004 461.38767857142858 203.6994642857143 7.5000000000000009 0.35519076525696741 0.35519076525696741 -0.23999999999999996 1.0000000180025095e-35 1.0000000180025095e-35 6.5000000000000009 510.53517857142862 266.16160714285718 170.38857142857145 1.0000000180025095e-35 1.5000000000000002 405.61500000000007 90.989285714285714 20.161693224777437 48.500000000000007 1.0000000180025095e-35 -168.33499999999998 23.500000000000004 233.68696428571431 6.2350000000000012 14.500000000000002 49.500000000000007 401.4862500000001 0.35519076525696741 148.27500000000003
decision_type=2 2 2 2 2 2 2 2 2 2 2 2 2 2 2 2 2 2 2 2 2 2 2 2 2 2 2 2 2 2
left_child=1 17 5 13 -4 7 24 -2 11 15 -5 -8 20 -3 -15 -7 -17 -1 -14 -13 21 -12 29 -23 -6 -10 -18 -11 -16 -20
right_child=2 3 4 10 6 9 8 -9 25 27 12 19 18 14 28 16 26 -19 22 -21 -22 23 -24 -25 -26 -27 -28 -29 -30 -31
leaf_value=-3.612410079001616 -2.3071132466652329 -1.8501048797293369 4.5204014122107692 -1.067572390908081 3.917023985202496 2.2633736400213578 4.8745879046077008 3.1659777622931715 4.9987324328951885 2.0042709513473254 5.7060761287806603 6.2503080396570132 -1.9967401459813119 -1.488577126176426 -4.8774364695549011 3.5391170089734558 4.9825847151333322 -3.1211592280663822 2.8833943538616857 4.8883978322578807 -0.01912432988123176 -0.80749378331731403 0.4908554305454178 -0.25276148657107372 -0.69235002970373305 6.955588574065203 3.0639067831336231 3.2716860829289787 -0.70298980960274327 -2.7653284143518522
leaf_weight=9117 180 6064 1831 3188 130 386 1691 185 277 1019 32 4706 151 7424 50 2431 2130 12194 329 728 7509 6096 1294 7042 74 3669 305 1511 4080 27
leaf_count=9117 180 6064 1831 3188 130 386 1691 185 277 1019 32 4706 151 7424 50 2431 2130 12194 329 728 7509 6096 1294 7042 74 3669 305 1511 4080 27
internal_value=-0.00232 -1.6291 4.94218 -0.791053 5.86412 3.45906 6.08233 0.466919 6.15304 3.5994 -0.345147 5.78465 -0.242696 -1.4407 -1.22583 4.00317 4.14118 -3.33132 0.670534 6.06785 -0.322232 -0.495052 0.91463 -0.510156 2.245 6.81822 4.74226 2.76121 -0.753528 2.45498
internal_weight=85850 64597 21253 43286 13106 8147 11275 365 11071 7782 25668 7125 22480 17618 11554 5252 4866 21311 1801 5434 20679 13170 1650 13138 204 3946 2435 2530 4130 356
internal_count=85850 64597 21253 43286 13106 8147 11275 365 11071 7782 25668 7125 22480 17618 11554 5252 4866 21311 1801 5434 20679 13170 1650 13138 204 3946 2435 2530 4130 356
is_linear=0
shrinkage=0.05


Tree=18
num_leaves=31
num_cat=0
split_feature=25 25 25 25 8 34 25 27 20 14 8 8 25 25 8 25 34 25 34 8 25 25 14 24 25 28 8 30 8 14
split_gain=2.49287e+08 3.329e+07 1.04908e+07 3.67481e+06 1.38909e+06 1.35383e+06 1.17719e+06 1.16676e+06 1.00409e+06 930237 919144 709235 665269 642461 618970 612747 500360 500345 500149 454888 529717 439906 427671 423301 399748 390690 388817 357259 356037 335102
threshold=338.01053571428577 155.35875000000001 461.38767857142858 212.56767857142862 8.5000000000000018 1.5000000000000002 117.91589285714288 0.35519076525696741 5.8150000000000004 1.0000000180025095e-35 10.500000000000002 9.5000000000000018 436.20785714285722 189.74964285714287 6.5000000000000009 510.53517857142862 1.0000000180025095e-35 266.16160714285718 1.5000000000000002 41.500000000000007 567.06857142857154 583.86339285714291 1.0000000180025095e-35 20.161693224777437 83.214285714285737 6.0251785714285715 23.500000000000004 -168.33499999999998 14.500000000000002 1.0000000180025095e-35
decision_type=2 2 2 2 2 2 2 2 2 2 2 2 2 2 2 2 2 2 2 2 2 2 2 2 2 2 2 2 2 2
left_child=1 6 5 11 -4 8 16 18 -2 15 -7 -3 -12 -13 -5 -9 -1 22 -6 20 -17 -21 27 -19 -18 -14 -25 -16 -11 -26
right_child=2 3 4 14 7 10 -8 9 -10 28 12 13 25 -15 17 19 24 23 -20 21 -22 -23 -24 26 29 -27 -28 -29 -30 -31
leaf_value=0.49357258366501855 2.8898613100803536 -1.9682261453867618 4.3934808928033675 -0.94111837402413112 -3.7311121404170993 2.1778431823630577 -2.0715331794330436 4.6583795337345535 -3.8378606439159628 4.748795826254339 3.3450665249858598 -1.3641439980766195 3.4778161385612698 -0.73433356077623324 5.1280676447113995 5.4673918532369745 -3.5421004831947678 -1.8969031944229506 3.0957838238003745 5.6216818649118867 6.7580731928742068 3.9435855917269311 0.10646218614803804 2.3322309818244382 -3.2230563130265537 5.085226229592462 0.46631265425927926 -0.42848559892067978 6.6078092199283951 -2.7059888345249266
leaf_weight=92 108 2624 2103 2890 32 1299 2679 1604 114 277 4986 9065 591 7318 29 1505 6084 151 166 1542 1685 523 5956 356 9879 1049 1294 11591 3669 4589
leaf_count=92 108 2624 2103 2890 32 1299 2679 1604 114 277 4986 9065 591 7318 29 1505 6084 151 166 1542 1685 523 5956 356 9879 1049 1294 11591 3669 4589
internal_value=-0.00220398 -1.54765 4.69507 -0.694403 5.57091 3.28611 -3.05761 5.79596 -0.564915 5.86566 3.39398 -1.20505 3.6324 -1.08282 -0.258515 5.51377 -3.18558 -0.156708 1.99245 5.77486 6.14915 5.19667 -0.238039 0.637007 -3.20205 4.50597 0.868899 -0.414618 6.47731 -3.05905
internal_weight=85850 64597 21253 41274 13106 8147 23323 11003 222 10805 7925 19007 6626 16383 22267 6859 20644 19377 198 5255 3190 2065 17576 1801 20552 1640 1650 11620 3946 14468
internal_count=85850 64597 21253 41274 13106 8147 23323 11003 222 10805 7925 19007 6626 16383 22267 6859 20644 19377 198 5255 3190 2065 17576 1801 20552 1640 1650 11620 3946 14468
is_linear=0
shrinkage=0.05


Tree=19
num_leaves=31
num_cat=0
split_feature=25 25 25 25 27 14 25 27 32 13 25 25 14 14 13 5 25 25 8 27 25 8 25 25 23 8 8 8 8 8
split_gain=2.24982e+08 3.00532e+07 9.46793e+06 3.20291e+06 1.26638e+06 1.42868e+06 1.22921e+06 1.14269e+06 930761 905535 899546 632014 681034 610465 529022 421776 600956 391405 390807 389914 362336 357607 347309 341276 316147 357241 296975 281545 279327 272775
threshold=338.01053571428577 157.17660714285716 461.38767857142858 206.3023214285715 0.35519076525696741 1.0000000180025095e-35 121.62089285714286 0.35519076525696741 -0.36999999999999994 1.0000000180025095e-35 545.78214285714296 245.21571428571431 1.0000000180025095e-35 1.0000000180025095e-35 1.0000000180025095e-35 3.5000000000000004 410.08392857142866 88.720714285714294 40.500000000000007 1.0000000180025095e-35 583.86339285714291 7.5000000000000009 392.95357142857148 480.44535714285718 551.29500000000007 24.500000000000004 48.500000000000007 49.500000000000007 10.500000000000002 5.5000000000000009
decision_type=2 2 2 2 2 2 2 2 2 2 2 2 2 2 2 2 2 2 2 2 2 2 2 2 2 2 2 2 2 2
left_child=1 6 7 13 24 10 17 8 -2 15 21 12 29 18 -12 -9 -17 -1 -3 -15 -16 -6 -11 -7 25 -4 -13 -18 -19 -5
right_child=2 3 4 11 5 23 -8 9 -10 22 14 26 -14 19 20 16 27 28 -20 -21 -22 -23 -24 -25 -26 -27 -28 -29 -30 -31
leaf_value=-3.2903217118049959 -2.4863634460002371 -1.6842123029366105 -1.2316740799408694 -1.2920080344800908 3.6386806835691581 5.2037145491645509 -1.8836881902648035 2.0334978862959949 2.6058131448834123 1.6106704053041225 4.9889743240954196 0.18876682237662223 -0.049618358917309174 -4.6633914690751297 5.522732246088232 3.2348433828394643 4.5555842716367136 -3.3059125814155355 -1.0385430460528859 -0.77079036185206029 6.8321087629438253 4.7331980666603535 2.8709487179103768 6.3811061548168606 4.6008325543668533 3.2446585071392549 -0.99176773181923095 2.8345300543899823 -2.7284413453028304 -0.59254264493883813
leaf_weight=8101 159 6170 104 1643 966 763 2695 386 206 799 2471 6801 6448 65 1296 2614 1982 2633 3779 6262 892 3281 1731 3183 72 78 578 270 10231 9191
leaf_count=8101 159 6170 104 1643 966 763 2695 386 206 799 2471 6801 6448 65 1296 2614 1982 2633 3779 6262 892 3281 1731 3183 72 78 578 270 10231 9191
internal_value=-0.00209379 -1.47027 4.46032 -0.650372 5.29237 5.36146 -2.88887 3.1218 0.387577 3.25004 5.01056 -0.291075 -0.456473 -1.19477 5.49033 3.62439 3.75059 -3.01808 -1.43896 -0.810781 6.05654 4.48424 2.47294 6.15345 1.79626 0.686754 0.0962951 4.34924 -2.84664 -0.698618
internal_weight=85850 64597 21253 40937 13106 12852 23660 8147 365 7782 8906 24661 17282 16276 4659 5252 4866 20965 9949 6327 2188 4247 2530 3946 254 182 7379 2252 12864 10834
internal_count=85850 64597 21253 40937 13106 12852 23660 8147 365 7782 8906 24661 17282 16276 4659 5252 4866 20965 9949 6327 2188 4247 2530 3946 254 182 7379 2252 12864 10834
is_linear=0
shrinkage=0.05


Tree=20
num_leaves=31
num_cat=0
split_feature=25 25 25 25 34 3 8 34 13 8 25 14 25 25 5 8 25 20 25 25 13 27 34 14 25 8 8 8 8 8
split_gain=2.03138e+08 2.66459e+07 9.11307e+06 3.46347e+06 1.66302e+06 1.26025e+06 1.05149e+06 847352 804882 773943 710692 718430 498896 480755 676290 464628 415201 373474 342860 330534 317406 295223 286449 278771 291265 264597 263371 336900 260895 260988
threshold=314.14303571428576 142.17464285714289 465.3875000000001 190.77946428571431 1.5000000000000002 8.2586666666666684 10.500000000000002 1.5000000000000002 1.0000000180025095e-35 48.500000000000007 230.7508928571429 1.0000000180025095e-35 484.08339285714288 388.62821428571436 3.5000000000000004 49.500000000000007 90.989285714285714 5.5404729729729736 401.4862500000001 524.92696428571446 1.0000000180025095e-35 1.0000000180025095e-35 1.0000000180025095e-35 1.0000000180025095e-35 625.37589285714296 9.5000000000000018 6.5000000000000009 48.500000000000007 29.500000000000004 40.500000000000007
decision_type=2 2 2 2 2 2 2 2 2 2 2 2 2 2 2 2 2 2 2 2 2 2 2 2 2 2 2 2 2 2
left_child=1 16 4 20 5 17 19 -8 13 12 11 -5 28 -6 -15 -16 22 -2 -10 -4 21 -3 -1 24 -14 -18 -12 -28 -9 -30
right_child=2 3 6 10 8 -7 7 9 18 -11 26 -13 23 14 15 -17 25 -19 -20 -21 -22 -23 -24 -25 -26 -27 27 -29 29 -31
leaf_value=1.8554969434080453 0.14187345054421216 -3.976718283692966 3.4070283849554395 -0.90275360090643719 2.7259873387975446 -3.4262558641928167 -3.5718875461154513 5.033426483737081 1.6409523148259479 3.8913107469160644 -0.66540864094686902 -0.23450987587351083 5.2479545560293603 1.7964326970577602 4.1404919946202163 2.3713751324033363 -3.1432481918155508 5.4191526164747268 2.8142955837393639 4.5837815484531825 -1.7619566411933627 -1.1881793745327551 -3.1217203791594317 5.955731479602175 6.8542012880757399 -2.5519720265680483 0.052890647928776451 -0.85115512144804717 2.7263805396854881 5.2779084989031162
leaf_weight=29 62 96 963 9484 1766 176 27 946 1020 893 1955 6984 4526 412 3190 420 2325 73 1598 1569 3954 8402 9088 3100 301 10162 10308 1145 302 150
leaf_count=29 62 96 963 9484 1766 176 27 946 1020 893 1955 6984 4526 412 3190 420 2325 73 1598 1569 3954 8402 9088 3100 301 10162 10308 1145 302 150
internal_value=-0.00681295 -1.42056 4.19824 -0.691301 2.95179 -0.638671 5.04862 5.27411 3.08463 5.29749 -0.39931 -0.619355 5.43215 3.41368 3.71563 3.93467 -2.84936 2.99551 2.35715 4.13622 -1.39187 -1.21968 -3.10589 5.58574 5.34812 -2.66206 -0.129046 -0.0374902 4.56128 3.57313
internal_weight=85426 63932 21494 42328 8717 311 12777 10245 8406 10218 29876 16468 9325 5788 4022 3610 21604 135 2618 2532 12452 8498 9117 7927 4827 12487 13408 11453 1398 452
internal_count=85426 63932 21494 42328 8717 311 12777 10245 8406 10218 29876 16468 9325 5788 4022 3610 21604 135 2618 2532 12452 8498 9117 7927 4827 12487 13408 11453 1398 452
is_linear=0
shrinkage=0.05


Tree=21
num_leaves=31
num_cat=0
split_feature=25 25 25 25 34 3 25 8 25 34 8 13 5 8 8 8 34 20 8 25 25 14 5 8 8 14 8 25 8 24
split_gain=1.83332e+08 2.4085e+07 8.23392e+06 2.44362e+06 1.59053e+06 1.13885e+06 961745 940309 865948 707839 708481 527126 505753 484203 459406 425643 413026 337061 336609 338550 330999 374312 328565 325588 413870 323340 323064 340585 357737 340913
threshold=314.14303571428576 157.17660714285716 472.96000000000009 207.22660714285718 1.5000000000000002 8.2586666666666684 121.62089285714286 7.5000000000000009 436.20785714285722 1.5000000000000002 48.500000000000007 1.0000000180025095e-35 2.5000000000000004 8.5000000000000018 9.5000000000000018 27.500000000000004 1.0000000180025095e-35 5.5404729729729736 49.500000000000007 378.19499999999999 524.92696428571446 1.0000000180025095e-35 3.5000000000000004 25.500000000000004 41.500000000000007 1.0000000180025095e-35 48.500000000000007 258.57964285714291 11.500000000000002 15.404911631654288
decision_type=2 2 2 2 2 2 2 2 2 2 2 2 2 2 2 2 2 2 2 2 2 2 2 2 2 2 2 2 2 2
left_child=1 6 4 12 5 17 16 -4 11 -9 20 18 -3 -5 -10 -14 -1 -2 19 -6 25 -22 -18 -16 -25 -11 27 -15 -29 -30
right_child=2 3 7 13 8 -7 -8 9 14 10 -12 -13 15 26 23 -17 22 -19 -20 -21 21 -23 -24 24 -26 -27 -28 28 29 -31
leaf_value=0.64886212703254487 0.1347797558552796 -1.8032102864836841 3.7708409619578998 -0.78237167375000904 2.4540062305851928 -3.2366640552295651 -1.7283666929316241 -3.5469178597132363 2.1918222108579899 4.2720653594998428 3.658798586673742 1.9846764575712712 -0.69131789809118382 -0.20368116651894275 4.661316089179194 -1.235689443212151 -3.0902169944129638 5.1481949959715756 1.3446733652839737 3.4422655220478298 5.1993531663915933 6.1793010075433807 -2.6312912504954431 2.7591020992384188 4.4067098634981408 5.1928197674346315 -0.85161270991275373 5.1905476814661275 -3.4920390580381664 0.45736195737054341
leaf_weight=90 62 2082 1730 4029 1320 179 2700 24 432 1589 841 1971 7030 15817 994 7340 5194 73 293 2523 4277 1262 15656 847 693 2384 1647 39 56 2252
leaf_count=90 62 2082 1730 4029 1320 179 2700 24 432 1589 841 1971 7030 15817 994 7340 5194 73 293 2523 4277 1262 15656 847 693 2384 1647 39 56 2252
internal_value=-0.00647231 -1.34953 3.98833 -0.606169 2.87693 -0.621619 -2.61651 4.85004 2.99801 5.02995 5.04984 2.65759 -1.0749 -0.282699 3.69893 -0.969375 -2.73103 2.84574 2.97827 3.10282 5.17282 5.42262 -2.74562 3.95586 3.50053 4.82456 -0.18108 -0.12028 0.441779 0.361536
internal_weight=85426 63932 21494 40292 9387 314 23640 12107 9073 10377 10353 6107 16452 23840 2966 14370 20940 135 4136 3843 9512 5539 20850 2534 1540 3973 19811 18164 2347 2308
internal_count=85426 63932 21494 40292 9387 314 23640 12107 9073 10377 10353 6107 16452 23840 2966 14370 20940 135 4136 3843 9512 5539 20850 2534 1540 3973 19811 18164 2347 2308
is_linear=0
shrinkage=0.05


Tree=22
num_leaves=31
num_cat=0
split_feature=25 25 25 25 34 3 23 27 14 25 25 5 28 14 14 25 14 27 25 1 25 5 27 1 30 5 27 25 20 25
split_gain=1.65458e+08 2.17367e+07 7.43111e+06 2.21732e+06 1.43545e+06 1.02781e+06 885415 868686 939926 781518 563635 583817 554552 529526 478095 421872 394274 672505 489591 406679 335328 334927 352181 427491 324275 323740 315714 309182 304197 291783
threshold=314.14303571428576 157.17660714285716 472.96000000000009 212.56767857142862 1.5000000000000002 8.2586666666666684 120.39785714285715 0.35519076525696741 1.0000000180025095e-35 436.20785714285722 563.96375 10.500000000000002 6.2176785714285723 1.0000000180025095e-35 1.0000000180025095e-35 388.62821428571436 1.0000000180025095e-35 0.35519076525696741 250.09607142857146 44.945000000000007 284.08964285714291 9.5000000000000018 0.35519076525696741 6.4150000000000009 -155.21499999999997 1.5000000000000002 1.0000000180025095e-35 84.131607142857163 5.5404729729729736 590.00750000000016
decision_type=2 2 2 2 2 2 2 2 2 2 2 2 2 2 2 2 2 2 2 2 2 2 2 2 2 2 2 2 2 2
left_child=1 6 4 13 5 28 27 -4 10 14 25 -12 -11 21 -6 -16 18 19 -5 -18 -19 22 23 -3 -20 -9 -15 -1 -2 -13
right_child=2 3 7 16 9 -7 -8 8 -10 12 11 29 -14 26 15 -17 17 20 24 -21 -22 -23 -24 -25 -26 -27 -28 -29 -30 -31
leaf_value=-2.8920710716239721 0.12804077981460479 6.7177610331568225 1.4943276179649614 -0.55116044284874366 2.1204470749267226 -3.0748308542054463 -1.6886758328276461 2.99369808426504 5.3486993588819196 2.8367228380818128 5.2055894584709144 4.4553575131436682 4.2041521384049183 -4.0929190093820749 2.4850611474007018 3.7334165723428878 -4.7818203457091988 0.20746789571717686 4.4277975513821559 -0.98183063847177177 4.404356454561154 -0.84185529416977767 -1.4396730206331199 -2.5251423055475413 0.015134774363523375 4.1957588654912277 -0.61918767881728742 -2.4733087879568507 4.8907851929533974 2.2983967873281328
leaf_weight=6389 62 29 220 10933 3328 179 3037 642 3534 1497 2680 363 1469 66 1613 1166 95 5632 42 272 48 4160 6900 22 4782 4392 7311 14214 73 276
leaf_count=6389 62 29 220 10933 3328 179 3037 642 3534 1497 2680 363 1469 66 1613 1166 95 5632 42 272 48 4160 6900 22 4782 4392 7311 14214 73 276
internal_value=-0.00614869 -1.28205 3.78891 -0.575861 2.73308 -0.590538 -2.48568 4.60753 4.66515 2.84811 4.37596 4.88178 3.51398 -0.978668 2.52471 3.00884 -0.234313 0.108903 -0.366027 -1.96548 0.242935 -1.19671 -1.40908 2.73063 0.0535535 4.04246 -0.650266 -2.60317 2.70345 3.52371
internal_weight=85426 63932 21494 40292 9387 314 23640 12107 11887 9073 8353 3319 2966 18488 6107 2779 21804 6047 15757 367 5680 11111 6951 51 4824 5034 7377 20603 135 639
internal_count=85426 63932 21494 40292 9387 314 23640 12107 11887 9073 8353 3319 2966 18488 6107 2779 21804 6047 15757 367 5680 11111 6951 51 4824 5034 7377 20603 135 639
is_linear=0
shrinkage=0.05


Tree=23
num_leaves=31
num_cat=0
split_feature=25 25 25 25 27 8 32 13 34 8 25 14 25 23 8 8 13 18 34 30 25 25 8 25 8 8 27 23 13 27
split_gain=1.49325e+08 1.96195e+07 6.70658e+06 2.77213e+06 1.30031e+06 804463 769614 765222 609320 568567 547245 549884 503001 401374 389259 362603 359368 339969 319286 354121 313455 306131 304701 324421 291812 282008 267619 255695 245453 316849
threshold=314.14303571428576 134.17750000000004 472.96000000000009 190.77946428571431 0.35519076525696741 5.5000000000000009 -0.36999999999999994 1.0000000180025095e-35 1.5000000000000002 48.500000000000007 230.7508928571429 1.0000000180025095e-35 440.04339285714292 539.83714285714302 14.500000000000002 40.500000000000007 1.0000000180025095e-35 365.86000000000007 1.0000000180025095e-35 -2.1550000000000007 401.4862500000001 90.989285714285714 49.500000000000007 364.62821428571436 14.500000000000002 27.500000000000004 0.35519076525696741 467.91928571428576 1.0000000180025095e-35 1.0000000180025095e-35
decision_type=2 2 2 2 2 2 2 2 2 2 2 2 2 2 2 2 2 2 2 2 2 2 2 2 2 2 2 2 2 2
left_child=1 18 4 28 6 27 -2 12 -7 13 11 -5 22 16 -14 -15 26 -8 19 -1 -9 -20 23 -6 -25 -26 -10 -4 29 -3
right_child=2 3 5 10 7 8 17 20 9 -11 -12 -13 14 15 -16 -17 -18 -19 21 -21 -22 -23 -24 24 25 -27 -28 -29 -30 -31
leaf_value=-1.441951387315183 -2.206598628499497 -3.7720969445237489 -2.445771079063416 -0.77674912427688447 2.0068073532696089 -3.44428833325704 -0.38076650893803943 1.3404307715646153 1.7000783246358235 3.2826615956464651 -0.098562959407560144 -0.19212295610227895 2.0797738351323876 5.1989188920549916 4.0430534644154674 4.1373046447657282 3.7981105743758286 3.3112423710807968 -2.6907999315653264 5.2477801914568305 2.4465316593938313 -2.3067018048231307 1.2283446811816909 1.7091630097754988 3.7558341960724464 2.74857551776604 4.7211938877036959 3.2545088245142453 -1.5405730932347654 -1.0345247884463746
leaf_weight=74 211 107 20 9484 870 24 103 1015 75 841 13408 6984 301 3723 1566 1026 1955 158 9088 27 1736 12087 308 337 1432 1350 3240 1203 3995 8678
leaf_count=74 211 107 20 9484 870 24 103 1015 75 841 13408 6984 301 3723 1566 1026 1955 158 9088 27 1736 12087 308 337 1432 1350 3240 1203 3995 8678
internal_value=-0.00584126 -1.21795 3.59947 -0.599349 2.59643 4.37716 0.038909 2.73184 4.51378 4.53137 -0.335721 -0.528812 3.04131 4.63618 3.72653 4.96956 4.33576 1.85424 -2.45817 0.346393 2.03843 -2.47155 2.74358 2.86058 3.09872 3.26705 4.65284 3.16129 -1.21563 -1.06787
internal_weight=85426 63932 21494 42656 9387 12107 472 8915 10884 10860 29876 16468 6164 10019 1867 4749 5270 261 21276 101 2751 21175 4297 3989 3119 2782 3315 1223 12780 8785
internal_count=85426 63932 21494 42656 9387 12107 472 8915 10884 10860 29876 16468 6164 10019 1867 4749 5270 261 21276 101 2751 21175 4297 3989 3119 2782 3315 1223 12780 8785
is_linear=0
shrinkage=0.05


Tree=24
num_leaves=31
num_cat=0
split_feature=25 25 25 25 27 8 23 32 13 27 8 8 25 23 13 28 25 8 11 5 18 13 25 23 1 8 8 25 22 3
split_gain=1.34766e+08 1.77509e+07 6.0565e+06 1.84812e+06 1.15559e+06 758700 708181 686871 575413 537730 530739 497844 450073 420971 436046 377404 460231 344763 329714 296914 283932 274691 263892 257057 256871 247264 254569 239698 233172 232926
threshold=314.14303571428576 157.17660714285716 465.3875000000001 190.77946428571431 0.52878566854740072 5.5000000000000009 120.39785714285715 -0.36999999999999994 1.0000000180025095e-35 0.35519076525696741 5.5000000000000009 48.500000000000007 221.51964285714288 539.83714285714302 1.0000000180025095e-35 5.826607142857144 378.19499999999999 40.500000000000007 1.0000000180025095e-35 3.5000000000000004 365.86000000000007 1.0000000180025095e-35 401.4862500000001 459.89642857142866 11.115 13.500000000000002 26.500000000000004 567.06857142857154 6.2150000000000007 11.026451612903228
decision_type=2 2 2 2 2 2 2 2 2 2 2 2 2 2 2 2 2 2 2 2 2 2 2 2 2 2 2 2 2 2
left_child=1 6 4 -3 7 23 19 29 15 28 -5 13 21 14 -11 -6 -17 27 24 -1 -9 -12 -10 -4 -14 -18 -27 -15 -7 -2
right_child=2 3 5 10 8 9 -8 20 22 11 12 -13 18 17 -16 16 25 -19 -20 -21 -22 -23 -24 -25 -26 26 -28 -29 -30 -31
leaf_value=-2.6785247204594622 1.5191462028967706 -1.0923869975853948 -2.6665077142138038 -0.95633918157072118 1.9170812136670692 3.2223915726751899 -1.5319574751099712 -0.23621658159231923 1.2936685006765227 4.4293885495746963 -0.32445395594806037 3.1533423183794915 0.1990169101538074 4.5542315038567214 3.5236200132907012 2.1483877655765613 1.7073088905648532 3.9244185995839356 -0.66014935168533473 -2.2402113451493437 3.0726548240147533 -0.86195637729880037 2.3312339880616242 3.0468621691202156 -0.23383501711499113 3.8722854002950235 2.9933714928310797 5.3627507922319229 -0.19190931958811625 -2.7868139312412201
leaf_weight=5152 38 10416 20 2944 952 111 3037 109 1011 3609 7399 892 7768 1819 2103 1169 230 1025 2129 15451 160 3502 1556 1259 6134 1542 1769 1848 91 181
leaf_count=5152 38 10416 20 2944 952 111 3037 109 1011 3609 7399 892 7768 1819 2103 1169 230 1025 2129 15451 160 3502 1556 1259 6134 1542 1769 1848 91 181
internal_value=-0.00554919 -1.15705 3.41949 -0.518882 2.40335 4.11275 -2.24475 0.0393266 2.54355 4.24125 -0.318935 4.28697 -0.249259 4.38417 4.09591 2.82507 3.0086 4.73509 -0.0807085 -2.34982 1.73189 -0.497129 1.92259 2.95752 0.00802901 3.29258 3.4027 4.96169 1.68427 -2.03966
internal_weight=85426 63932 21494 40292 8717 12777 23640 488 8229 11498 29876 11296 26932 10404 5712 5662 4710 4692 16031 20603 269 10901 2567 1279 13902 3541 3311 3667 202 219
internal_count=85426 63932 21494 40292 8717 12777 23640 488 8229 11498 29876 11296 26932 10404 5712 5662 4710 4692 16031 20603 269 10901 2567 1279 13902 3541 3311 3667 202 219
is_linear=0
shrinkage=0.05


Tree=25
num_leaves=31
num_cat=0
split_feature=25 23 25 25 5 25 34 27 25 13 14 32 25 14 14 34 25 27 5 5 25 21 25 25 5 5 5 27 25 5
split_gain=1.23442e+08 1.62079e+07 5.00912e+06 1.58072e+06 906608 792619 789932 608262 569038 509585 464036 459917 425600 480214 398710 395275 383767 308724 262761 261957 255903 242988 240350 235803 234209 231395 233993 221622 228107 216349
threshold=338.01053571428577 158.32571428571433 443.67946428571435 203.6994642857143 2.5000000000000004 115.71928571428573 1.5000000000000002 0.52878566854740072 484.08339285714288 1.0000000180025095e-35 1.0000000180025095e-35 -0.36999999999999994 263.61910714285722 1.0000000180025095e-35 1.0000000180025095e-35 1.0000000180025095e-35 625.37589285714296 0.35519076525696741 11.500000000000002 3.5000000000000004 524.92696428571446 6.6950000000000012 234.47446428571433 392.95357142857148 9.5000000000000018 6.5000000000000009 9.5000000000000018 0.35519076525696741 560.34678571428583 11.500000000000002
decision_type=2 2 2 2 2 2 2 2 2 2 2 2 2 2 2 2 2 2 2 2 2 2 2 2 2 2 2 2 2 2
left_child=1 5 7 14 20 15 -6 11 25 -9 16 -2 13 22 24 -1 29 21 -14 -17 -4 -15 -5 -11 -3 -8 -27 -12 -29 -10
right_child=2 3 4 12 6 -7 8 9 10 23 27 -13 18 17 -16 19 -18 -19 -20 -21 -22 -23 -24 -25 -26 26 -28 28 -30 -31
leaf_value=1.229551994091783 -1.7860977248454386 -1.3033258238036591 2.3246933546078412 -0.6543490890012158 -3.0085990548133852 -1.4746157862636249 3.8562096997425162 2.6049050504428379 4.0095121642108147 0.96626858114051462 2.3959828615188599 1.8210375369743597 0.537991312035634 -4.645736447970072 -0.56196663195431584 -2.5610210768171702 5.7068296499106275 0.098914196469981674 -1.5972802397976449 -2.1446924783801276 3.3715855672952921 -0.88698688301726847 -0.2642078608879091 2.0620480160420529 -0.77795932234212073 2.2752294184738679 3.5627703986552639 4.6335270004858868 5.9466009094092342 3.1629201830651565
leaf_weight=82 163 5381 984 7782 40 4129 1481 4299 4871 781 99 193 2236 51 5755 5041 302 7137 154 15084 1435 274 8012 1322 3502 661 757 2598 379 893
leaf_count=82 163 5381 984 7782 40 4129 1481 4299 4871 781 99 193 2236 51 5755 5041 302 7137 154 15084 1435 274 8012 1322 3502 661 757 2598 379 893
internal_value=0.000206677 -1.08707 3.3053 -0.471596 3.82928 -2.10587 4.00619 2.18104 4.02949 2.2929 4.22305 0.169456 -0.234969 -0.300266 -0.886168 -2.23486 3.96938 0.0302846 0.400405 -2.24898 2.94573 -1.47682 -0.456438 1.6551 -1.09621 3.41911 2.96258 4.7233 4.80069 3.87835
internal_weight=85878 64620 21258 40284 14500 24336 12081 6758 12041 6402 9142 356 25646 23256 14638 20207 6066 7462 2390 20125 2419 325 15794 2103 8883 2899 1418 3076 2977 5764
internal_count=85878 64620 21258 40284 14500 24336 12081 6758 12041 6402 9142 356 25646 23256 14638 20207 6066 7462 2390 20125 2419 325 15794 2103 8883 2899 1418 3076 2977 5764
is_linear=0
shrinkage=0.05


Tree=26
num_leaves=31
num_cat=0
split_feature=25 25 25 25 25 8 27 14 25 34 2 14 8 28 27 25 8 25 34 8 25 25 27 5 13 25 8 8 5 8
split_gain=1.11407e+08 1.46379e+07 4.5225e+06 1.23191e+06 1.03157e+06 1.00974e+06 704587 574842 536853 513497 560418 512587 420959 400096 361794 343698 338216 309633 293677 289803 306872 286023 264151 1.12174e+06 279834 237148 423092 232646 232392 217609
threshold=338.01053571428577 165.15625000000003 440.04339285714292 216.81750000000002 134.17750000000004 5.5000000000000009 0.35519076525696741 1.0000000180025095e-35 517.53410714285735 1.5000000000000002 26.119256756756759 1.0000000180025095e-35 9.5000000000000018 5.9819642857142865 0.35519076525696741 520.95500000000004 5.5000000000000009 625.37589285714296 1.5000000000000002 48.500000000000007 263.61910714285722 82.381071428571445 0.35519076525696741 3.5000000000000004 1.0000000180025095e-35 392.95357142857148 28.500000000000004 49.500000000000007 2.5000000000000004 27.500000000000004
decision_type=2 2 2 2 2 2 2 2 2 2 2 2 2 2 2 2 2 2 2 2 2 2 2 2 2 2 2 2 2 2
left_child=1 4 9 11 21 -4 18 8 13 10 -2 28 -11 -8 -13 -9 -5 27 -7 20 -18 -1 23 -22 -24 -14 -27 -10 -3 -16
right_child=2 3 5 16 -6 6 7 15 17 12 -12 14 25 -15 29 -17 19 -19 -20 -21 22 -23 24 -25 -26 26 -28 -29 -30 -31
leaf_value=-2.4071091823095512 4.1811316426396372 -1.3689439223367479 2.3998183767398111 -0.73008612086163149 -1.26781316362728 -2.3881197794623996 2.2283685566607634 3.9900506163186584 3.8898611879188274 1.0748091380849216 -1.9017916599909466 -3.7982230941970627 1.8925421979467421 3.4464879357862213 -0.23991555262776498 4.9580580091516406 -0.10292376327140665 5.4214881273294919 1.9882790398208994 -0.73271054184980811 6.4418135699103862 -1.9929839296974536 1.3394134591971112 -3.9382072657078235 0.12161403847486163 3.2801720924113043 2.0810854075813152 2.8192865021854745 -0.8123109088730841 -1.0347454866314547
leaf_weight=5699 50 2384 1523 2280 4462 46 1014 3084 4761 845 156 77 2305 2011 6088 1305 14699 302 230 1575 34 15535 913 111 976 1232 1826 568 8784 1003
leaf_count=5699 50 2384 1523 2280 4462 46 1014 3084 4761 845 156 77 2305 2011 6088 1305 14699 302 230 1575 34 15535 913 111 976 1232 1826 568 8784 1003
internal_value=0.00019635 -1.03271 3.14003 -0.421279 -1.95891 3.61942 3.75886 3.81175 3.57541 2.03058 -0.425354 -0.71934 2.11207 3.03817 -0.389358 4.27787 -0.15582 3.86402 1.25888 -0.0843039 -0.0232723 -2.10413 0.55234 -1.50427 0.710206 2.27551 2.56417 3.77575 -0.931134 -0.352342
internal_weight=85878 64620 21258 38924 25696 14844 13321 13045 8656 6414 206 18336 6208 3025 7168 4389 20588 5631 276 18308 16733 21234 2034 145 1889 5363 3058 5329 11168 7091
internal_count=85878 64620 21258 38924 25696 14844 13321 13045 8656 6414 206 18336 6208 3025 7168 4389 20588 5631 276 18308 16733 21234 2034 145 1889 5363 3058 5329 11168 7091
is_linear=0
shrinkage=0.05


Tree=27
num_leaves=31
num_cat=0
split_feature=25 25 25 25 25 8 27 13 32 27 8 5 8 25 18 23 13 24 5 8 8 25 25 8 25 11 0 27 25 13
split_gain=1.00548e+08 1.34751e+07 3.72942e+06 1.15208e+06 1.00388e+06 761100 614820 566663 535527 446125 429578 422230 494527 408973 307779 287233 325232 285503 346877 276535 270598 261037 258422 242691 242444 240768 232389 308835 230794 216797
threshold=348.57125000000002 166.2244642857143 469.26517857142863 217.5876785714286 134.17750000000004 6.5000000000000009 0.52878566854740072 1.0000000180025095e-35 -0.36999999999999994 0.35519076525696741 48.500000000000007 2.5000000000000004 27.500000000000004 284.08964285714291 460.32500000000005 539.83714285714302 1.0000000180025095e-35 22.857002886396213 3.5000000000000004 5.5000000000000009 40.500000000000007 392.95357142857148 83.214285714285737 31.500000000000004 517.53410714285735 1.0000000180025095e-35 420.42000000000007 0.98376463503289446 625.37589285714296 1.0000000180025095e-35
decision_type=2 2 2 2 2 2 2 2 2 2 2 2 2 2 2 2 2 2 2 2 2 2 2 2 2 2 2 2 2 2
left_child=1 4 6 11 22 26 8 14 -2 24 15 -3 -13 19 -8 16 -11 18 -15 -5 -14 -9 -1 -17 -7 29 27 -4 -25 -21
right_child=2 3 5 13 -6 9 7 21 -10 10 -12 12 20 17 -16 23 -18 -19 -20 25 -22 -23 -24 28 -26 -27 -28 -29 -30 -31
leaf_value=-2.2760593550677615 -1.664931178738408 -1.2892630561557581 -3.7863765181973577 -0.70679028845991665 -1.1987443480564026 -0.43038187455577948 2.3629645291944046 0.87652122768987395 2.0181747993641497 3.886459909748353 2.6908551239824132 -0.30064444929886303 -1.1424946368859079 2.100914160311222 3.2191501037454451 4.6420013149319477 3.0658472456378836 1.1950311755443912 -3.0932467183139591 0.1483167525847856 -0.55708588358191902 1.9988870862340953 -1.8891384705244463 3.7308818240591197 3.0868443229282749 -0.57204260931326423 2.7058620910002098 1.932579883204566 5.2009463222748513 -0.23234658291028154
leaf_weight=6025 187 2394 32 2178 4807 97 4057 720 209 3411 874 8026 4060 50 1416 1566 1869 868 90 7790 3842 1847 15209 2724 99 2419 1431 90 296 7195
leaf_count=6025 187 2394 32 2178 4807 97 4057 720 209 3411 874 8026 4060 50 1416 1566 1869 868 90 7790 3842 1847 15209 2724 99 2419 1431 90 296 7195
internal_value=0.000186533 -0.970878 3.01445 -0.38173 -1.85122 3.56306 2.20227 2.297 0.27893 3.71015 3.75329 -0.670141 -0.577086 -0.125088 2.58448 3.84741 3.59598 0.857084 -1.23819 -0.175646 -0.857865 1.68408 -1.99892 4.13689 1.34618 -0.109177 2.52727 0.432526 3.87497 -0.0344575
internal_weight=85878 64953 20925 38912 26041 12489 8436 8040 396 10936 10740 18322 15928 20590 5473 9866 5280 1008 140 19582 7902 2567 21234 4586 196 17404 1553 122 3020 14985
internal_count=85878 64953 20925 38912 26041 12489 8436 8040 396 10936 10740 18322 15928 20590 5473 9866 5280 1008 140 19582 7902 2567 21234 4586 196 17404 1553 122 3020 14985
is_linear=0
shrinkage=0.05


Tree=28
num_leaves=31
num_cat=0
split_feature=25 23 25 25 8 25 27 13 32 25 27 14 14 5 25 14 25 27 8 14 27 3 25 25 5 18 21 25 8 0
split_gain=9.07442e+07 1.21741e+07 3.37116e+06 1.26071e+06 657088 591540 561843 587712 523087 460288 404527 450638 390386 320113 345193 314916 299943 277402 265603 255269 397584 258999 238829 234139 233347 227041 212054 208961 208065 206833
threshold=348.57125000000002 158.32571428571433 472.96000000000009 203.6994642857143 6.5000000000000009 105.4282142857143 0.35519076525696741 1.0000000180025095e-35 -0.36999999999999994 263.61910714285722 0.35519076525696741 1.0000000180025095e-35 1.0000000180025095e-35 3.5000000000000004 419.03017857142862 1.0000000180025095e-35 625.37589285714296 0.35519076525696741 14.500000000000002 1.0000000180025095e-35 1.0000000180025095e-35 15.400967741935487 517.53410714285735 392.95357142857148 11.500000000000002 365.86000000000007 6.6950000000000012 75.384821428571442 49.500000000000007 420.42000000000007
decision_type=2 2 2 2 2 2 2 2 2 2 2 2 2 2 2 2 2 2 2 2 2 2 2 2 2 2 2 2 2 2
left_child=1 5 6 15 29 19 8 13 -2 12 22 16 -5 -8 -15 -3 28 26 -13 20 21 -1 -6 -9 -11 -10 -14 -21 -12 -4
right_child=2 3 4 9 10 -7 7 23 25 24 11 18 17 14 -16 -17 -18 -19 -20 27 -22 -23 -24 -25 -26 -27 -28 -29 -30 -31
leaf_value=-1.0432919437768031 -1.8428060213842337 -0.95022606829449041 0.36032242154968636 -0.39616553854651515 -0.63677353473861575 -1.4604224662209735 1.213125242903665 0.82032227524902257 -0.90191287383740759 0.54520073041197081 3.3729863762868493 2.3315337651251062 -4.3462721319759599 2.2058185529828944 3.0152589586290506 -0.47543138879062452 4.891692796581431 0.10773451518741342 4.1576610396110993 -2.1989711775913596 -2.196496687360868 3.1708760220270893 2.9325020747955399 1.872963800946629 -1.4586129408474866 2.9837921004950796 -0.83491680021703685 -1.5781752200113877 2.4351412958165959 2.5932326436103943
leaf_weight=122 169 8883 112 15794 89 8187 455 724 51 2568 6005 212 51 2737 2539 5755 302 7137 3277 1870 9179 52 99 1954 154 143 274 4927 656 1401
leaf_count=122 169 8883 112 15794 89 8187 455 724 51 2568 6005 212 51 2737 2539 5755 302 7137 3277 1870 9179 52 99 1954 154 143 274 4927 656 1401
internal_value=0.000177204 -0.922334 2.86373 -0.392458 3.40291 -1.80664 2.11673 2.19987 0.190773 -0.183352 3.54155 3.5829 -0.255356 2.48561 2.59535 -0.763558 3.3505 0.0426795 4.0467 -1.98215 -2.15161 0.216115 1.24279 1.58838 0.431833 1.96229 -1.38593 -1.74897 3.28062 2.42794
internal_weight=85878 64953 20925 40616 12153 24337 8772 8409 363 25978 10640 10452 23256 5731 5276 14638 6963 7462 3489 16150 9353 174 188 2678 2722 194 325 6797 6661 1513
internal_count=85878 64953 20925 40616 12153 24337 8772 8409 363 25978 10640 10452 23256 5731 5276 14638 6963 7462 3489 16150 9353 174 188 2678 2722 194 325 6797 6661 1513
is_linear=0
shrinkage=0.05


Tree=29
num_leaves=31
num_cat=0
split_feature=25 25 25 25 25 8 27 14 25 14 27 8 28 14 27 14 27 30 19 25 25 26 8 25 25 25 22 25 8 18
split_gain=8.19091e+07 1.08098e+07 3.38691e+06 884817 821615 771633 517347 431203 413683 388080 386051 339663 337886 334391 310720 280806 758326 417037 346522 327778 277279 254648 248213 240516 237484 223745 206085 204683 197706 195658
threshold=338.01053571428577 166.2244642857143 440.04339285714292 217.5876785714286 115.71928571428573 5.5000000000000009 0.35519076525696741 1.0000000180025095e-35 517.53410714285735 1.0000000180025095e-35 0.52878566854740072 16.500000000000004 5.9819642857142865 1.0000000180025095e-35 0.35519076525696741 1.0000000180025095e-35 0.35519076525696741 -168.33499999999998 44.945000000000007 284.08964285714291 528.58017857142863 5.6865535869971362 10.500000000000002 364.62821428571436 250.09607142857146 625.37589285714296 6.2350000000000012 81.435892857142875 40.500000000000007 240.00500000000002
decision_type=2 2 2 2 2 2 2 2 2 2 2 2 2 2 2 2 2 2 2 2 2 2 2 2 2 2 2 2 2 2
left_child=1 4 10 9 22 -4 21 8 12 28 11 -2 -8 -12 -11 17 18 -5 -17 -18 -9 -7 -1 -15 -19 -10 -23 -24 -3 -6
right_child=2 3 5 15 29 6 7 20 25 14 13 -13 -14 23 -16 16 19 24 -20 -21 -22 26 27 -25 -26 -27 -28 -29 -30 -31
leaf_value=-2.1886079828059954 1.9235493627721316 -0.9467606489489393 2.0411380733603042 4.1478617562188047 -1.1669206867643014 5.6991301218668617 1.8540234996590037 3.4542349955813414 3.2481243946466671 -3.5206395426193873 1.5019916076438955 -1.2621368771913102 2.9734432402636983 1.4204055697878233 -0.28540769172360281 -3.7814077667395276 0.26115252297274932 -0.39490686794896851 -0.78606824030295508 2.081783101830446 4.3833754729902088 1.8769462262806684 -2.020875064467142 2.5284437543696869 0.030059506037110346 4.6471082217251229 -1.0170120492980288 -1.6287147708585814 -0.50657884370367867 3.7870096349716187
leaf_weight=3784 146 7192 1523 54 5814 27 1014 3331 5329 75 3460 196 2011 653 7102 150 4681 9924 271 261 1058 138 4636 1959 4916 302 111 11787 3953 20
leaf_count=3784 146 7192 1523 54 5814 27 1014 3331 5329 75 3460 196 2011 653 7102 150 4681 9924 271 261 1058 138 4636 1959 4916 302 111 11787 3953 20
internal_value=0.000168344 -0.885503 2.69243 -0.354192 -1.67263 3.10729 3.22918 3.27451 3.06981 -0.605972 1.73232 0.0978344 2.59821 1.82438 -0.319216 -0.126462 0.183771 -0.23817 -1.85329 0.357305 3.67821 1.08698 -1.82353 2.25143 -0.25413 3.32315 0.586868 -1.73942 -0.790633 -1.14994
internal_weight=85878 64620 21258 38579 26041 14844 13321 13045 8656 18322 6414 342 3025 6072 7177 20257 5363 14894 421 4942 4389 276 20207 2612 14840 5631 249 16423 11145 5834
internal_count=85878 64620 21258 38579 26041 14844 13321 13045 8656 18322 6414 342 3025 6072 7177 20257 5363 14894 421 4942 4389 276 20207 2612 14840 5631 249 16423 11145 5834
is_linear=0
shrinkage=0.05


Tree=30
num_leaves=31
num_cat=0
split_feature=23 25 25 25 23 27 8 13 34 25 18 8 5 25 14 18 13 25 8 25 5 5 8 27 28 25 24 8 8 8
split_gain=7.32693e+07 1.0077e+07 2.8698e+06 882307 723010 638421 530876 442358 374306 359048 320598 316368 360401 368235 315627 291250 317343 286356 365740 288980 277609 335012 238862 225056 212488 236207 246986 192396 192272 201624
threshold=344.14214285714291 166.2244642857143 472.96000000000009 212.56767857142862 116.19785714285716 0.35519076525696741 8.5000000000000018 1.0000000180025095e-35 1.5000000000000002 266.16160714285718 447.98000000000008 27.500000000000004 4.5000000000000009 535.4114285714287 1.0000000180025095e-35 393.15000000000003 1.0000000180025095e-35 549.22232142857149 40.500000000000007 583.86339285714291 2.5000000000000004 6.5000000000000009 40.500000000000007 0.35519076525696741 6.9487500000000013 602.7766071428573 127.53943560443811 10.500000000000002 14.500000000000002 27.500000000000004
decision_type=2 2 2 2 2 2 2 2 2 2 2 2 2 2 2 2 2 2 2 2 2 2 2 2 2 2 2 2 2 2
left_child=1 4 5 20 27 15 -4 10 -8 14 28 12 -10 -14 -5 -2 -17 -13 -19 -20 -3 -22 -23 -16 25 26 -21 -1 -7 -30
right_child=2 3 6 9 -6 7 8 -9 11 -11 -12 17 13 -15 23 16 -18 18 19 24 21 22 -24 -25 -26 -27 -28 -29 29 -31
leaf_value=-2.0659856023861694 -1.3194806134932118 -1.1450966300197416 2.3292908671081842 -0.31756355363817546 -1.1190543195854012 0.95946310970274851 -2.7677239583088804 1.4345102126488694 3.0625654889194922 0.46013911472640551 2.7629336739006485 2.5818786662868618 3.7434424124952104 5.5352875188515895 -1.1762830007786289 -0.090183977933412193 5.0619300015767417 3.6768396183994927 3.2513809634079145 1.5471640488495193 -0.26159971654064895 -1.0170538635499795 -0.45705595925935455 0.18883898028146084 -1.9978532706989964 3.1703975469886134 -3.7287345459063852 -1.6668791703732084 2.4390478822355077 1.6807251594280481
leaf_weight=3711 219 2076 1986 14272 6099 425 26 2613 1746 2373 1842 2343 1774 342 319 89 45 2326 895 293 6485 3998 3636 5638 34 265 24 16209 1879 1643
leaf_count=3711 219 2076 1986 14272 6099 425 26 2613 1746 2373 1842 2343 1774 342 319 89 45 2326 895 293 6485 3998 3636 5638 34 265 24 16209 1879 1643
internal_value=-0.00536655 -0.834101 2.57598 -0.323547 -1.59539 1.887 3.0764 1.97451 3.22377 -0.121711 2.21826 3.23928 3.5943 4.03305 -0.189966 -0.19605 1.64 3.01743 3.28339 2.67773 -0.605232 -0.525852 -0.750332 0.115736 1.84425 2.0687 1.14773 -1.74123 1.96407 2.08529
internal_weight=85625 64816 20809 38797 26019 8755 12054 8402 10068 22602 5789 10042 3862 2116 20229 353 134 6180 3837 1511 16195 14119 7634 5957 616 582 317 19920 3947 3522
internal_count=85625 64816 20809 38797 26019 8755 12054 8402 10068 22602 5789 10042 3862 2116 20229 353 134 6180 3837 1511 16195 14119 7634 5957 616 582 317 19920 3947 3522
is_linear=0
shrinkage=0.05


Tree=31
num_leaves=31
num_cat=0
split_feature=23 23 23 23 34 8 8 34 8 18 27 8 8 8 34 32 27 23 23 8 28 30 23 8 8 8 23 5 28 24
split_gain=6.61256e+07 9.05373e+06 2.14716e+06 1.08782e+06 547278 497954 489979 408834 394443 388285 343756 311265 344057 296557 294718 322639 574138 294350 293367 252680 252097 237497 228516 211578 210852 210506 180225 172764 165718 164619
threshold=344.14214285714291 148.88500000000002 471.74285714285719 192.155 1.5000000000000002 6.5000000000000009 9.5000000000000018 1.5000000000000002 5.5000000000000009 444.01000000000005 0.35519076525696741 27.500000000000004 18.500000000000004 28.500000000000004 1.0000000180025095e-35 0.51999999999999991 0.35519076525696741 532.14142857142872 236.32071428571433 46.500000000000007 6.0326785714285718 -54.899999999999984 96.752142857142871 48.500000000000007 40.500000000000007 27.500000000000004 423.59000000000003 2.5000000000000004 6.3605357142857155 32.052742163840541
decision_type=2 2 2 2 2 2 2 2 2 2 2 2 2 2 2 2 2 2 2 2 2 2 2 2 2 2 2 2 2 2
left_child=1 14 4 27 20 -4 10 -7 -5 13 -6 12 -9 26 15 21 -17 24 25 -19 -2 -1 -16 -20 -13 -10 -8 -3 -11 -14
right_child=2 3 5 8 6 7 9 11 18 28 -12 17 29 -15 22 16 -18 19 23 -21 -22 -23 -24 -25 -26 -27 -28 -29 -30 -31
leaf_value=-3.7268849215337205 1.0821336191954074 -1.2676825243007657 2.0449052982379756 -0.7388690009546931 -3.9399266502686907 -3.0316191707338609 1.8771662178744943 2.9065589353420482 -0.10520037119655574 2.1324440173144512 1.0942037290915712 1.772924648711657 1.5439633763150165 1.3370944588266527 -1.7773541565644626 5.0299877375364304 -0.62653216450909777 3.20246408650832 0.14710372529698079 2.2528288424023653 -2.4782294006324284 -0.62581939935172581 -1.4551533741051392 -0.60840432344914575 2.8262739267741135 -0.46253326491118574 2.7984933582120686 -0.68856474517848398 2.9167890824784783 3.9163510120738949
leaf_weight=84 97 1464 1560 3028 35 28 1884 2059 9098 1309 1090 987 76 2078 11786 64 150 3665 9320 866 102 233 10323 1029 916 7535 739 10702 1387 1931
leaf_count=84 97 1464 1560 3028 35 28 1884 2059 9098 1309 1090 987 76 2078 11786 64 150 3665 9320 866 102 233 10323 1029 916 7535 739 10702 1387 1931
internal_value=-0.00509822 -0.792396 2.44718 -0.359435 1.84922 2.87858 1.90975 3.00211 -0.197755 2.05761 0.937586 3.0182 3.36065 1.78327 -1.59896 -0.434906 1.06514 2.80179 -0.13703 3.02096 -0.742776 -1.44755 -1.62691 0.0719836 2.27995 -0.267078 2.13674 -0.758253 2.53596 3.82651
internal_weight=85625 64816 20809 42176 8721 12088 8522 10528 30010 7397 1125 10500 4066 4701 22640 531 214 6434 26982 4531 199 317 22109 10349 1903 16633 2623 12166 2696 2007
internal_count=85625 64816 20809 42176 8721 12088 8522 10528 30010 7397 1125 10500 4066 4701 22640 531 214 6434 26982 4531 199 317 22109 10349 1903 16633 2623 12166 2696 2007
is_linear=0
shrinkage=0.05


Tree=32
num_leaves=31
num_cat=0
split_feature=25 25 25 25 8 25 27 34 32 25 14 27 14 22 20 14 25 28 8 13 25 25 8 8 34 30 25 8 8 11
split_gain=5.97422e+07 7.9301e+06 2.82097e+06 755651 540044 527743 485566 398951 366495 320155 296747 303614 292533 261401 258420 258046 219638 364990 256557 219289 205069 200091 221500 204384 190929 266564 194600 188899 184167 214383
threshold=314.14303571428576 170.38857142857145 443.67946428571435 134.17750000000004 5.5000000000000009 221.51964285714288 0.52878566854740072 1.5000000000000002 0.21000000000000021 484.08339285714288 1.0000000180025095e-35 0.35519076525696741 1.0000000180025095e-35 5.5404729729729736 5.7615010752688178 1.0000000180025095e-35 602.7766071428573 6.8826785714285732 46.500000000000007 1.0000000180025095e-35 388.62821428571436 556.66053571428574 27.500000000000004 15.500000000000002 1.0000000180025095e-35 -1.0000000180025095e-35 95.036607142857164 27.500000000000004 6.5000000000000009 1.0000000180025095e-35
decision_type=2 2 2 2 2 2 2 2 2 2 2 2 2 2 2 2 2 2 2 2 2 2 2 2 2 2 2 2 2 2
left_child=1 3 6 24 -4 10 8 -6 14 19 -3 -12 16 -10 -2 -8 -11 18 -18 -9 -17 22 23 -14 25 -1 -26 -13 -7 -30
right_child=2 5 4 -5 7 28 15 9 13 12 11 27 21 -15 -16 20 17 -19 -20 -21 -22 -23 -24 -25 26 -27 -28 -29 29 -31
