tree
version=v4
num_class=1
num_tree_per_iteration=1
label_index=0
max_feature_idx=34
objective=regression
feature_names=price volume_MT temperature_avg_C rainfall_mm humidity_percent month day_of_week quarter week_of_year is_public_holiday is_day_before_holiday near_major_holiday demand_multiplier harvest_period_rice vegetable_peak_season price_lag_1 price_lag_7 price_lag_14 price_lag_28 volume_lag_1 volume_lag_7 volume_lag_14 volume_lag_28 price_rolling_7_mean price_rolling_7_std price_rolling_28_mean volume_rolling_7_mean volume_rolling_7_std volume_rolling_28_mean price_momentum_7 price_momentum_28 volume_momentum_7 volume_momentum_28 price_change_7 item_encoded
feature_infos=[30:902.34000000000003] [1:107.09999999999999] [16.300000000000001:38.100000000000001] [0:142.69999999999999] [50:98] [1:12] [0:6] [1:4] [1:53] [0:1] none [0:1] [1:1.3] [0:1] [0:1] [30:902.34000000000003] [30:902.34000000000003] [30:902.34000000000003] [30:902.34000000000003] [1:107.09999999999999] [1:107.09999999999999] [1:107.09999999999999] [1:107.09999999999999] [30:745.39857142857147] [0:185.71521977787054] [34.821428571428569:679.68892857142851] [3.7071428571428569:73.335714285714275] [0:29.593651265737638] [4.5667857142857136:61.603928571428575] [-486.20000000000005:483.25] [-475.65000000000003:532.76999999999998] [-69.829999999999998:69.75] [-87.919999999999987:75.390000000000001] [-81.651376146788991:228.57142857142856] [0:3]
tree_sizes=2818 2877 2867 2897 2837 2859 2851 2854 2893 2847 2818 2837 2816 2824 2837 2833 2822 2821 2830 2812 2812 2831 2837 2792 2821 2814 2811 2807 2805 2820 2794 2798 2806 2806 2815 2788 2790 2790 2777 2811 2809 2788 2815 2807 2758 2799 2816 2797 2805 2815 2798 2803 2812 2842 2807 2802 2794 2814 2820 2770 2818 2790 2805 2799 2770 2810 2809 2772 2778 2811 2817 2786 2762 2784 2805 2769 2775 2803 2755 2784 2748 2777 2776 2798 2805 2787 2752 2811 2751 2803 2810 2777 2777 2765 2776 2761 2757 2766 2714 2804 2726 2720 2743 2715 2808 2785 2710 2745 2802 2752 2743 2774 2729 2724 2770 2724 2781 2753 2760 2737 2773 2789 2766 2758 2773 2742 2793 2692 2749 2754 2747 2674 2755 2699 2730 2739 2685 2708 2701 2759 2701 2732 2745 2711 2723 2714 2692 2714 2700 2708 2724 2706 2711 2749 2769 2691 2722 2716 2750 2716 2689 2712 2700 2662 2727 2765 2744 2763 2742 2718 2762 2668 2684 2727 2696 2708 2692 2702 2686 2703 2710 2689 2670 2670 2717 2759 2659 2768 2736 2675 2751 2731 2754 2674 2724 2708 2693 2680 2722 2713 2705 2731 2743 2708 2718 2722 2653 2728 2705 2674 2720 2693 2699 2706 2701 2689 2715 2685 2749 2723 2739 2708 2724 2717 2707 2674 2666 2675 2675 2696 2724 2729 2671 2721 2789 2685 2669 2691 2679 2666 2699 2723 2669 2700 2735 2726 2708 2719 2716 2706 2729 2675 2703 2660 2712 2679 2691 2695 2709 2697 2678 2705 2693 2712 2706 2726 2724 2732 2711 2699 2691 2684 2729 2677 2685 2701 2708 2681 2711 2723 2688 2754 2691 2742 2686 2700 2680 2708 2710 2726 2678 2705 2689 2680 2661 2700 2722 2709 2721 2699 2717 2682 2737 2775 2680 2719 2732 2735 2717 2707 2732 2763 2709 2726 2708 2736 2709 2695 2711 2700 2682 2676 2671 2682 2663 2709 2684 2703 2692 2684 2673 2676 2669 2695 2696 2717 2694 2734 2711 2754 2705 2705 2697 2679 2721 2744 2755 2787 2705 2768 2738 2687 2725 2740 2700 2747 2700 2733 2732 2731 2740 2706 2723 2722 2705 2775 2705 2713 2702 2739 2758 2670 2700 2743 2733 2691 2701 2702 2721 2700 2697 2689 2706 2692 2735 2708 2678 2706 2717 2672 2685 2732 2680 2739 2750 2736 2753 2715 2721 2728 2750 2750 2769 2732 2747 2724 2738 2742 2700 2718 2654 2683 2683 2667 2791 2722 2694 2692 2718 2705 2729 2729 2720 2758 2727 2684 2692 2689 2768 2736 2724 2736 2711 2700 2690 2756 2732 2700 2735 2727 2714 2700 2727 2730 2691 2696 2704 2705 2739 2719 2728 2735 2692 2672 2758 2684 2721 2675 2682 2691 2700 2729 2723 2722 2701 2728 2708 2756 2714 2691 2704 2713 2731 2740 2715 2700 2733 2729 2697 2761 2704 2695 2738 2730 2755 2715 2671 2719 2732 2695 2727 2717 2750 2689 2745 2716 2730 2708 2720 2698 2707 2708 2723 2711 2700 2723 2699 2670 2735 2696 2689 2687 2687 2684 2698 2700 2691 2692 2728 2702 2700 2757 2707 2691 2763 2725 2714 2706 2706 2727 2744 2710 2730 2728 2704 2712 2723 2697 2691 2739 2682 2653 2726 2721 2739 2717 2740 2737 2695 2682 2732 2725 2738 2686 2652 2767 2718 2751 2749 2670 2771 2758 2716 2784 2741 2760 2682 2690 2682 2689 2717 2698 2727 2684 2723 2726 2717 2736 2724 2689 2722 2709 2732 2755 2729 2745 2714 2690 2728 2673 2712 2726 2701 2731 2756 2738 2710 2736 2717 2742 2706 2747 2724 2720 2712 2745 2736 2742 2749 2707 2717 2713 2702 2721 2701 2694 2720 2703 2712 2713 2722 2704 2686 2734 2705 2720 2735 2706 2729 2703 2668 2668 2720 2697 2669 2742 2706 2717 2709 2742 2756 2702 2715 2690 2772 2758 2704 2732 2708 2723 2769 2745 2754 2743 2763 2716 2680 2680 2711 2705 2741 2757 2679 2756 2684 2727 2725 2727 2726 2712 2756 2708 2697 2745 2718 2743 2747 2700 2782 2696 2718 2706 2718 2722 2735 2686 2736 2704 2747 2764 2665 2673 2675 2685 2705 2761 2738 2753 2683 2728 2663 2675 2714 2700 2672 2690 2710 2722 2714 2698 2710 2736 2818 2721 2724 2730 2718 2706 2676 2694 2719 2719 2698 2726 2708 2717 2720 2702 2707 2725 2676 2690 2745 2693 2717 2694 2710 2750 2707 2735 2706 2745 2726 2742 2750 2703 2720 2749 2752 2706 2685 2680 2697 2700 2685 2743 2739 2718 2698 2682 2682 2679 2692 2711 2676 2756 2762 2749 2772 2705 2710 2693 2732 2711 2740 2746 2708 2701 2720 2694 2704 2710 2747 2736 2706 2733 2734 2687 2744 2661 2702 2680 2699 2686 2697 2718 2726 2704 2700 2703 2738 2735 2748 2719 2776 2767 2735 2788 2708 2744 2711 2718 2677 2696 2700 2709 2699 2715 2685 2704 2691 2698 2758 2682 2710 2746 2757 2721 2712 2730 2708 2706 2709 2720 2726 2691 2719 2749 2717 2692 2688 2715 2682 2730 2716 2722 2719 2719 2717 2686 2765 2708 2742 2740 2741 2711 2704 2705 2672 2719 2712 2691 2698 2703 2691 2695 2686 2739 2689 2709 2704 2689 2697 2697 2709 2725 2696 2739 2728 2711 2716 2734 2729 2710 2704 2721 2727 2695 2714 2701 2711 2734 2762 2717 2731 2685 2729 2689 2747 2715 2726 2693 2792 2702 2699 2738 2732 2740 2731 2711 2737 2742 2736 2722 2715 2715 2714 2745 2702 2699 2694 2699 2758 2715 2767 2739 2711 2742 2744 2756 2738 2707 2728 2699 2731 2714 2757 2734 2729 2728 2702 2706 2723 2724 2715 2694 2710 2728 2717 2726 2695 2725 2712 2740 2735 2730 2673 2720 2744 2659 2739 2693 2699 2735 2754 2727 2720 2715 2716 2725 2718 2722 2709 2679 2745 2750 2732 2785 2731 2726 2712 2740 2708 2742 2709 2738 2761 2729 2730 2732 2697 2697 2702 2691 2676 2737 2721 2731 2760 2738

Tree=0
num_leaves=31
num_cat=0
split_feature=23 23 25 25 25 25 25 25 25 25 25 25 8 23 34 27 0 8 25 25 25 30 25 23 1 13 25 25 34 25
split_gain=1.64069e+09 2.15077e+08 8.17883e+07 2.62003e+07 1.00377e+07 9.50363e+06 7.22788e+06 5.1421e+06 3.10987e+06 2.43675e+06 2.21185e+06 1.86237e+06 1.49932e+06 1.41302e+06 1.28563e+06 1.23501e+06 945504 904458 863122 814723 797413 792495 714658 599131 573934 506976 500486 464607 444453 441974
threshold=324.57428571428574 154.64928571428575 477.73482142857148 206.79017857142864 429.22589285714292 534.53642857142859 127.32107142857144 240.26375000000004 92.445714285714303 186.06767857142862 378.76035714285723 570.06714285714304 15.500000000000002 301.54500000000002 1.5000000000000002 1.0000000180025095e-35 439.47500000000008 18.500000000000004 504.76946428571438 453.02571428571434 225.22553571428571 139.59500000000003 605.7355357142859 202.9864285714286 6.082953333333335 1.0000000180025095e-35 257.52875 80.636250000000004 1.5000000000000002 170.47767857142858
decision_type=2 2 2 2 2 2 2 2 2 2 2 2 2 2 2 2 2 2 2 2 2 2 2 2 2 2 2 2 2 2
left_child=1 6 4 9 10 12 8 20 27 21 -2 17 -4 23 16 24 -12 -7 -17 28 -5 29 -13 -9 -14 -24 -25 -1 -6 -3
right_child=2 3 5 7 19 11 -8 13 -10 -11 14 22 15 -15 -16 18 -18 -19 -20 -21 -22 -23 25 26 -26 -27 -28 -29 -30 -31
leaf_value=244.04853370291093 258.62302296562098 248.66370710737144 264.71070142263852 251.24607214834705 256.99169874966424 266.48743103747324 247.888912211075 247.24419632433683 245.55761580348775 250.31144665821199 249.8115659082338 268.98961381091203 258.2298064069933 256.210238659075 260.81195501274044 265.79372928283425 262.61570668617219 268.30950590955308 267.43566732584918 263.88875135041786 251.96540154789892 257.34308763855313 269.6649642359576 252.69289064172889 265.30174148470695 271.91036561137804 253.42677079892584 244.73541806002083 262.59583007691128 249.36592797858054
leaf_weight=5315 1948 3926 1911 7726 36 926 2448 46 12281 7372 46 2447 64 341 3785 1532 21 2575 1676 2132 7685 29 640 6298 52 414 3681 4586 2052 5220
leaf_count=5315 1948 3926 1911 7726 36 926 2448 46 12281 7372 46 2447 64 341 3785 1532 21 2575 1676 2132 7685 29 640 6298 52 414 3681 4586 2052 5220
internal_value=252.935 249.025 264.695 251.187 261.346 267.438 245.311 252.184 245.026 249.635 259.996 268.643 265.827 253.045 260.69 266.468 253.825 267.828 266.652 263.201 251.605 249.091 269.458 252.937 261.4 270.547 252.964 244.367 262.499 249.064
internal_weight=89211 66954 22257 42324 10020 12237 24630 25777 22182 16547 5800 7002 5235 10366 3852 3324 67 3501 3208 4220 15411 9175 3501 10025 116 1054 9979 9901 2088 9146
internal_count=89211 66954 22257 42324 10020 12237 24630 25777 22182 16547 5800 7002 5235 10366 3852 3324 67 3501 3208 4220 15411 9175 3501 10025 116 1054 9979 9901 2088 9146
is_linear=0
shrinkage=1


Tree=1
num_leaves=31
num_cat=0
split_feature=23 25 25 23 25 25 25 25 25 25 8 23 8 23 34 27 25 25 25 0 25 30 25 25 1 34 8 8 27 8
split_gain=1.48072e+09 1.94199e+08 7.38139e+07 2.62119e+07 9.05899e+06 8.5929e+06 4.30228e+06 4.29087e+06 3.44886e+06 1.9962e+06 1.52304e+06 1.48993e+06 1.45812e+06 1.26217e+06 1.16028e+06 1.15078e+06 1.06594e+06 919400 872759 853317 745192 682129 729677 600838 517975 479674 465287 433557 430796 404376
threshold=324.57428571428574 150.39714285714288 477.73482142857148 210.14285714285717 429.22589285714292 538.0330357142858 240.26375000000004 100.29285714285716 187.17821428571432 378.76035714285723 19.500000000000004 128.91142857142862 15.500000000000002 289.92000000000007 1.5000000000000002 1.0000000180025095e-35 605.7355357142859 84.478214285714287 504.76946428571438 439.47500000000008 448.85607142857151 139.59500000000003 221.62267857142859 167.31410714285718 6.082953333333335 1.5000000000000002 37.500000000000007 16.500000000000004 0.45257201001256891 15.500000000000002
decision_type=2 2 2 2 2 2 2 2 2 2 2 2 2 2 2 2 2 2 2 2 2 2 2 2 2 2 2 2 2 2
left_child=1 7 4 8 9 12 21 17 23 -2 -7 -9 -4 -8 19 24 26 -1 -17 -11 -6 22 -5 -3 -14 -15 -12 -16 -10 -24
right_child=2 3 5 6 20 10 13 11 28 14 16 -13 15 25 27 18 -18 -19 -20 -21 -22 -23 29 -25 -26 -27 -28 -29 -30 -31
leaf_value=-8.3604136370220079 5.3987842634616676 -4.2297848784424135 11.253607855817577 -1.7247392775243615 8.9563940829913555 13.472193426328822 -0.019483742233730575 -6.8217615943831538 -5.2013097501338876 -2.9721001242489922 15.622836932107909 -5.0474433849233602 5.0252283778041607 1.0651595248409627 6.6100309079530835 12.210955060524356 16.877557761906328 -7.5434027915930857 13.81263342562081 9.1918338957287027 10.30570409922516 3.7063773381710052 -1.4994983424820658 -3.4446272551119286 11.743567070594201 3.7488295231502633 14.582079717925101 7.8080928369025617 -2.3331892393509426 -0.75869741439397931
leaf_weight=6712 1948 3843 2021 5017 1744 1329 9617 8405 133 46 1897 1377 64 391 1042 1532 955 7071 1912 21 2476 70 2587 6658 52 290 2475 2743 8385 6398
leaf_count=6712 1948 3843 2021 5017 1744 1329 9617 8405 133 46 1897 1377 64 391 1042 1532 955 7071 1912 21 2476 70 2587 6658 52 290 2475 2743 8385 6398
internal_value=-0.00492693 -3.71893 11.1676 -1.73444 7.98556 13.7732 -0.648775 -7.37287 -3.12556 6.70317 14.9864 -6.57199 12.3262 0.127817 7.36281 12.9352 15.3642 -7.94127 13.1002 0.840476 9.74807 -1.21709 -1.24171 -3.73197 8.0369 2.20799 15.0337 7.47827 -2.37797 -0.971992
internal_weight=89211 66954 22257 43389 10020 12237 24370 23565 19019 5800 6656 9782 5581 10298 3852 3560 5327 13783 3444 67 4220 14072 14002 10501 116 681 4372 3785 8518 8985
internal_count=89211 66954 22257 43389 10020 12237 24370 23565 19019 5800 6656 9782 5581 10298 3852 3560 5327 13783 3444 67 4220 14072 14002 10501 116 681 4372 3785 8518 8985
is_linear=0
shrinkage=0.05


Tree=2
num_leaves=31
num_cat=0
split_feature=25 25 25 25 25 25 25 25 25 8 34 21 34 25 27 25 8 25 25 25 25 25 16 0 5 30 8 30 8 8
split_gain=1.33066e+09 1.74192e+08 7.06839e+07 2.33218e+07 1.04161e+07 7.01465e+06 4.18601e+06 3.87847e+06 2.09453e+06 1.96146e+06 1.66776e+06 1.69308e+06 1.41296e+06 1.38926e+06 1.22279e+06 1.20305e+06 1.03569e+06 1.13427e+06 1.01893e+06 988843 970373 737649 693137 618930 566335 499025 498300 432696 430084 426639
threshold=317.53625000000005 150.39714285714288 466.11410714285722 204.95142857142858 531.24785714285724 401.98482142857148 233.8026785714286 98.885714285714286 179.64392857142857 19.500000000000004 1.5000000000000002 6.3039677419354847 1.5000000000000002 127.32107142857144 0.21608736195905351 433.17482142857148 15.500000000000002 489.14089285714294 605.7355357142859 263.19285714285724 365.85767857142866 82.596071428571449 455.69500000000005 319.36500000000007 1.5000000000000002 -157.54499999999996 15.500000000000002 113.61000000000001 3.5000000000000004 37.500000000000007
decision_type=2 2 2 2 2 2 2 2 2 2 2 2 2 2 2 2 2 2 2 2 2 2 2 2 2 2 2 2 2 2
left_child=1 7 5 8 14 10 26 21 27 24 11 23 22 -9 -4 -14 28 -18 29 -8 -12 -1 -7 -2 -6 -21 -5 -3 -16 -11
right_child=2 3 4 6 9 12 19 13 -10 18 20 -13 15 -15 16 -17 17 -19 -20 25 -22 -23 -24 -25 -26 -27 -28 -29 -30 -31
leaf_value=-7.9863675025078678 -5.0834010068007878 -3.7122813027024146 7.4144361066879059 -1.8122766331706488 13.641620884024698 -1.0614163637161256 -0.3105822802306531 -6.5104142085022865 -2.5782079279518593 14.764226297145072 4.6416502544653424 8.288098093668621 7.6140304601662141 -4.798046123526011 12.289766224654947 9.1378022386648947 10.803599983943361 12.605901694452008 16.033680268033013 -3.9524468575914704 6.3591684593175994 -7.2326637800855158 9.0168786923090618 1.3544690483808519 11.740062034195814 0.90790888228208733 -1.1518371390514475 3.3094459273598411 10.229057197197038 13.816158806891375
leaf_weight=6006 70 8031 196 4240 689 59 10860 9133 8834 2167 1250 60 2424 1361 296 2782 1400 2319 955 54 2404 7065 24 80 907 2399 8750 22 1751 2623
leaf_count=6006 70 8031 196 4240 689 59 10860 9133 8834 2167 1250 60 2424 1361 296 2782 1400 2319 955 54 2404 7065 24 80 907 2399 8750 22 1751 2623
internal_value=-0.00468055 -3.54643 10.5239 -1.65981 12.8508 7.14202 -0.728849 -7.00423 -3.10987 14.1116 5.5226 1.18955 8.32512 -6.28833 11.2983 8.42831 11.4303 11.9274 14.5424 -0.105782 5.77162 -7.57898 1.85279 -1.64987 12.561 0.800914 -1.36741 -3.6931 10.527 14.2451
internal_weight=89211 66755 22456 43190 13303 9153 26303 23565 16887 7341 3864 210 5289 10494 5962 5206 5766 3719 5745 13313 3654 13071 83 150 1596 2453 12990 8053 2047 4790
internal_count=89211 66755 22456 43190 13303 9153 26303 23565 16887 7341 3864 210 5289 10494 5962 5206 5766 3719 5745 13313 3654 13071 83 150 1596 2453 12990 8053 2047 4790
is_linear=0
shrinkage=0.05


Tree=3
num_leaves=31
num_cat=0
split_feature=0 15 15 0 16 0 17 17 17 15 16 16 8 15 15 18 18 16 16 15 0 16 15 0 16 0 0 24 0 18
split_gain=1.16802e+09 1.59859e+08 3.86505e+07 1.7668e+07 1.20272e+07 1.10929e+07 6.79812e+06 6.65064e+06 4.60085e+06 4.29787e+06 3.31926e+06 2.87734e+06 2.3212e+06 2.2974e+06 1.62302e+06 1.58162e+06 1.51044e+06 1.40823e+06 1.3132e+06 1.18582e+06 1.17698e+06 987032 974281 882492 873663 703748 638505 563038 562322 535833
threshold=324.97500000000008 141.32500000000002 460.42000000000007 215.39500000000001 348.39500000000004 430.06500000000005 532.90000000000009 139.38500000000002 299.12500000000006 200.26000000000002 500.81500000000005 505.68500000000006 24.500000000000004 255.96500000000003 92.735000000000014 343.81500000000005 542.55500000000006 420.01500000000004 185.58500000000004 325.00500000000005 529.13000000000011 225.03500000000003 344.67500000000007 534.03500000000008 218.04500000000004 491.67500000000007 615.15000000000009 76.66802072443582 141.34500000000003 537.35000000000014
decision_type=2 2 2 2 2 2 2 2 2 2 2 2 2 2 2 2 2 2 2 2 2 2 2 2 2 2 2 2 2 2
left_child=1 7 5 9 13 8 10 14 22 18 16 20 -8 24 -1 -15 25 -10 -3 -6 29 -11 -2 -12 -5 -4 -14 -19 -9 -7
right_child=2 3 6 4 19 11 12 28 17 21 23 -13 26 15 -16 -17 -18 27 -20 -21 -22 -23 -24 -25 -26 -27 -28 -29 -30 -31
leaf_value=-7.1928984926135415 0.99625045874898532 -3.4904146396455005 8.4839997621715746 -1.4852849187941459 2.6892471692736373 7.6978209786898164 11.582082223642352 -5.0161961739165308 5.7909684337179277 -2.0301050551288804 11.091343570009192 11.204650034540093 13.304245061799751 -0.023333652011447735 -6.3361920249800354 3.6274957521012228 11.681577832524772 7.2009493472754578 -2.4414755348657815 6.5663302387109326 10.321914556968231 -0.97038124010278737 5.0928437380814087 12.733519365405193 -0.68837625486395382 10.153758569711748 14.64115032899735 9.4585926678894605 -3.3547043286095062 10.142864762454394
leaf_weight=10943 503 7134 1679 5605 295 2089 1813 771 2432 5785 1692 1446 2811 5683 11173 313 726 1256 5129 595 681 3543 204 1584 8901 1011 1309 354 1500 251
leaf_count=10943 503 7134 1679 5605 295 2089 1813 771 2432 5785 1692 1446 2811 5683 11173 313 726 1256 5129 595 681 3543 204 1584 8901 1011 1309 354 1500 251
internal_value=-0.00444656 -3.26199 10.0436 -1.42741 -0.408992 7.58183 11.8407 -6.4955 5.89944 -2.43644 10.7483 9.37044 13.073 -0.656007 -6.76009 0.167245 9.65776 6.55031 -3.0517 5.28123 8.4925 -1.6276 2.17829 11.8854 -0.996295 9.11156 13.729 7.69735 -3.91878 7.96009
internal_weight=89211 67370 21841 42983 21392 9216 12625 24387 4749 21591 6692 4467 5933 20502 22116 5996 3416 4042 12263 890 3021 9328 707 3276 14506 2690 4120 1610 2271 2340
internal_count=89211 67370 21841 42983 21392 9216 12625 24387 4749 21591 6692 4467 5933 20502 22116 5996 3416 4042 12263 890 3021 9328 707 3276 14506 2690 4120 1610 2271 2340
is_linear=0
shrinkage=0.05


Tree=4
num_leaves=31
num_cat=0
split_feature=23 23 25 25 25 25 25 25 25 23 25 25 8 34 27 23 0 25 30 34 8 5 25 23 23 1 25 8 8 25
split_gain=1.08958e+09 1.43289e+08 5.53286e+07 1.7965e+07 6.69788e+06 6.52987e+06 4.67147e+06 2.85062e+06 2.45372e+06 2.20547e+06 1.4742e+06 1.27439e+06 1.14987e+06 952397 907383 874816 694038 684695 684085 627124 558150 527503 511889 492766 483572 451271 423129 381888 364406 346963
threshold=324.57428571428574 154.64928571428575 477.73482142857148 215.91803571428576 429.22589285714292 538.0330357142858 127.32107142857144 190.60107142857143 244.46214285714288 91.837142857142865 378.76035714285723 570.06714285714304 15.500000000000002 1.5000000000000002 1.0000000180025095e-35 301.54500000000002 439.47500000000008 508.9383928571429 149.10999999999999 1.5000000000000002 15.500000000000002 4.5000000000000009 444.58232142857145 619.06714285714304 211.01428571428576 6.082953333333335 171.58089285714291 16.500000000000004 14.500000000000002 80.636250000000004
decision_type=2 2 2 2 2 2 2 2 2 2 2 2 2 2 2 2 2 2 2 2 2 2 2 2 2 2 2 2 2 2
left_child=1 6 4 7 10 12 9 18 20 29 28 21 -4 16 25 24 -12 -16 26 -6 -5 -7 -21 -13 -10 -14 -3 -15 -2 -1
right_child=2 3 5 8 19 11 -8 -9 15 -11 13 23 14 27 17 -17 -18 -19 -20 22 -22 -23 -24 -25 -26 -27 -28 -29 -30 -31
leaf_value=-7.2815993840702369 3.5611200694983105 -3.4809463478890912 9.6216858702409933 -1.3500020026212622 2.4022401788017969 11.069802809053776 -4.1494741887791582 -1.8824769939429296 -4.5614750376614657 -6.002155763643799 -3.0586539722007253 13.187463459276357 3.9543693870306016 5.5787121759967135 10.56015110605029 2.6954355720397842 7.9114424569266184 11.970163102603697 4.872816396642615 7.6127601848298854 -0.65368959204387966 12.546264101246985 8.7907189720905787 14.520626151236167 0.14252919468497596 10.22521379177387 -2.8351145320119802 6.7031208484119533 5.0508217330896024 -6.6892544734275079
leaf_weight=5290 588 4256 2021 4127 44 816 2448 9516 55 12251 46 2549 64 1042 1731 341 21 1713 27 1375 9509 2339 2801 952 8217 52 6276 2743 1360 4641
leaf_count=5290 588 4256 2021 4127 44 816 2448 9516 55 12251 46 2549 64 1042 1731 341 21 1713 27 1375 9509 2339 2801 952 8217 52 6276 2743 1360 4641
internal_value=-0.00422424 -3.19014 9.57973 -1.42562 6.82477 11.8356 -6.22228 -2.5101 -0.44712 -6.45104 5.7221 12.8932 10.5742 6.28897 11.115 0.213564 0.379734 11.2615 -3.07572 8.3403 -0.864432 12.1644 8.40286 13.55 0.111253 6.76544 -3.0961 6.39357 4.60116 -7.00478
internal_weight=89211 66954 22257 42324 10020 12237 24630 20075 22249 22182 5800 6656 5581 3852 3560 8613 67 3444 10559 4220 13636 3155 4176 3501 8272 116 10532 3785 1948 9931
internal_count=89211 66954 22257 42324 10020 12237 24630 20075 22249 22182 5800 6656 5581 3852 3560 8613 67 3444 10559 4220 13636 3155 4176 3501 8272 116 10532 3785 1948 9931
is_linear=0
shrinkage=0.05


Tree=5
num_leaves=31
num_cat=0
split_feature=23 23 23 23 23 23 23 23 23 23 8 23 23 8 23 23 8 34 8 23 8 27 18 23 27 21 8 23 23 23
split_gain=9.86466e+08 1.29294e+08 4.95007e+07 1.67771e+07 7.7158e+06 4.24086e+06 3.67523e+06 2.7417e+06 1.98694e+06 1.72456e+06 1.11154e+06 1.09231e+06 985855 926491 687301 658302 629724 470825 417188 410556 379672 360572 355338 355249 346095 418694 341162 316485 309928 285547
threshold=324.57428571428574 152.74785714285716 485.80000000000007 210.14285714285717 417.43428571428575 542.67357142857156 118.05285714285715 250.47642857142858 187.05928571428572 87.123571428571452 24.500000000000004 357.13214285714292 445.89214285714291 19.500000000000004 301.54500000000002 609.44214285714293 20.500000000000004 1.5000000000000002 24.500000000000004 136.3064285714286 50.500000000000007 0.21608736195905351 103.05500000000002 227.34142857142862 0.21608736195905351 6.2150000000000007 2.5000000000000004 509.05642857142863 168.61285714285717 101.67071428571431
decision_type=2 2 2 2 2 2 2 2 2 2 2 2 2 2 2 2 2 2 2 2 2 2 2 2 2 2 2 2 2 2
left_child=1 6 4 8 11 13 9 16 28 -1 -7 -2 17 26 -9 -12 -5 -6 -13 -8 -17 -15 -18 -24 25 -14 -4 -23 -3 -11
right_child=2 3 5 7 12 10 19 14 -10 29 15 18 24 21 -16 20 22 -19 -20 -21 -22 27 23 -25 -26 -27 -28 -29 -30 -31
leaf_value=-6.7698679586249018 3.7767730355646885 -3.3482326888243281 11.399440278707599 -1.2411516525154453 1.821180306411371 11.066465695358083 -4.9855049905890105 0.22171105510900666 -1.9525814135358706 -6.0637916213881198 12.322558561882754 5.1103668041381844 3.7600382120469038 8.1114509513786253 2.5470227937163887 13.879843654732761 6.0420345282554635 7.2250227092018733 6.1522261563585872 -3.8349748663682934 10.138575110170578 10.336611552483944 -0.99878630610426888 -0.41129936982375209 8.5630723139754057 8.4607924586144563 9.3293630116701642 11.395152080120091 -2.7733519845826247 -5.6029591713336009
leaf_weight=7759 1028 3844 223 6354 41 1397 1391 6543 8448 6734 3536 1998 85 111 334 1166 20 2389 1851 1752 72 1106 4084 6956 3321 107 1852 1953 6010 6712
leaf_count=7759 1028 3844 223 6354 41 1397 1391 6543 8448 6734 3536 1998 85 111 334 1166 20 2389 1851 1752 72 1106 4084 6956 3321 107 1852 1953 6010 6712
internal_value=-0.00254617 -3.03341 9.12181 -1.37201 6.69861 11.4185 -5.93978 -0.510647 -2.51524 -6.17628 12.307 5.22469 7.90815 10.3732 0.334646 12.67 -0.844463 7.13385 5.6114 -4.34417 13.6623 10.9109 -0.616564 -0.628627 8.44374 6.37973 9.55183 11.0124 -2.99761 -5.83375
internal_weight=89177 66941 22236 42593 10820 11416 24348 24291 18302 21205 6171 4877 5943 5245 6877 4774 17414 2430 3849 3143 1238 3170 11060 11040 3513 192 2075 3059 9854 13446
internal_count=89177 66941 22236 42593 10820 11416 24348 24291 18302 21205 6171 4877 5943 5245 6877 4774 17414 2430 3849 3143 1238 3170 11060 11040 3513 192 2075 3059 9854 13446
is_linear=0
shrinkage=0.05


Tree=6
num_leaves=31
num_cat=0
split_feature=23 25 25 23 25 25 25 25 25 8 25 25 25 23 25 25 25 18 25 34 23 18 8 5 25 8 13 34 8 25
split_gain=8.90286e+08 1.16826e+08 4.59671e+07 1.56125e+07 6.81559e+06 4.61788e+06 3.03744e+06 2.7884e+06 2.06036e+06 1.72311e+06 1.26937e+06 1.11707e+06 694405 664896 637426 611075 594153 547879 484963 404294 555688 390780 384300 372818 368586 353563 348627 328000 309146 297556
threshold=324.57428571428574 152.63839285714289 485.19196428571428 210.14285714285717 429.22589285714292 563.34839285714304 101.02803571428574 240.26375000000004 190.60107142857143 19.500000000000004 384.10857142857145 127.32107142857144 453.02571428571434 289.92000000000007 83.480178571428567 512.45196428571433 605.7355357142859 112.55500000000002 221.62267857142859 1.5000000000000002 437.75642857142856 318.75000000000006 14.500000000000002 3.5000000000000004 174.6126785714286 15.500000000000002 1.0000000180025095e-35 1.5000000000000002 6.5000000000000009 338.97982142857148
decision_type=2 2 2 2 2 2 2 2 2 2 2 2 2 2 2 2 2 2 2 2 2 2 2 2 2 2 2 2 2 2
left_child=1 6 4 8 10 9 14 17 24 28 22 -8 25 23 -1 -11 -7 -5 -19 20 -12 -10 -2 -9 -3 -6 -18 29 -4 -15
right_child=2 3 5 7 12 16 11 13 21 15 19 -13 -14 27 -16 -17 26 18 -20 -21 -22 -23 -24 -25 -26 -27 -28 -29 -30 -31
leaf_value=-6.5194417029153788 3.1947372238626777 -3.1071457314081137 9.9037780004459748 7.1270042845181054 5.8511779202093965 11.843561972836717 -5.2501770656522737 -0.5920337614620742 -1.7253392661532372 9.7526864869890151 -2.5224035204333419 -3.8546444107832336 8.1917116531767782 1.1085625819951535 -5.8445263525000364 11.062997331720259 12.467462935216965 -1.3479817240000189 -0.73498647118925653 5.8125533744175044 7.2973811645507816 -4.9035268328627764 4.6367205089160528 0.19029413079575863 -2.5317802316448978 7.3597969159671468 14.330546858638384 2.997033451988802 8.7788932386959644 -4.4231809680278493
leaf_weight=6339 645 5953 894 21 514 3130 8088 1900 7401 1218 34 1743 2818 374 7807 3302 620 5035 8983 3468 25 98 1629 7672 5228 1589 422 273 1928 26
leaf_count=6339 645 5953 894 21 514 3130 8088 1900 7401 1218 34 1743 2818 374 7807 3302 620 5035 8983 3468 25 98 1629 7672 5228 1589 422 273 1928 26
internal_value=-0.00241887 -2.88174 8.66572 -1.32133 6.30991 10.8595 -5.67782 -0.485379 -2.40807 10.1047 5.14884 -5.00275 7.67862 0.141812 -6.14696 10.7099 12.1878 -0.943073 -0.955163 5.74273 1.63852 -1.76687 4.22771 0.0350055 -2.83812 6.99107 13.222 1.66091 9.13525 0.748999
internal_weight=89177 66941 22236 42964 10722 11514 23977 24284 18680 7342 5801 9831 4921 10245 14146 4520 4172 14039 14018 3527 59 7499 2274 9572 11181 2103 1042 673 2822 400
internal_count=89177 66941 22236 42964 10722 11514 23977 24284 18680 7342 5801 9831 4921 10245 14146 4520 4172 14039 14018 3527 59 7499 2274 9572 11181 2103 1042 673 2822 400
is_linear=0
shrinkage=0.05


Tree=7
num_leaves=31
num_cat=0
split_feature=25 25 25 25 25 25 25 25 25 34 8 25 15 25 25 25 30 8 27 8 25 25 27 28 27 4 30 25 8 13
split_gain=7.99795e+08 1.06796e+08 4.10804e+07 1.38502e+07 6.18669e+06 4.17337e+06 3.43345e+06 2.4422e+06 2.15316e+06 1.63868e+06 1.56066e+06 1.51816e+06 1.05653e+06 921520 633804 616722 597127 559191 553568 543802 536223 464363 412946 407516 392485 457881 387000 361222 316117 314636
threshold=338.97982142857148 156.70125000000002 485.19196428571428 218.25410714285718 429.22589285714292 563.34839285714304 117.92714285714287 192.65892857142859 256.40375000000006 1.5000000000000002 19.500000000000004 89.085892857142866 434.89500000000004 397.87160714285727 453.02571428571434 317.53625000000005 139.59500000000003 15.500000000000002 1.0000000180025095e-35 16.500000000000004 605.7355357142859 512.45196428571433 0.21608736195905351 5.9200350230414758 0.21608736195905351 81.544666666666686 -170.79999999999995 233.01053571428577 15.500000000000002 1.0000000180025095e-35
decision_type=2 2 2 2 2 2 2 2 2 2 2 2 2 2 2 2 2 2 2 2 2 2 2 2 2 2 2 2 2 2
left_child=1 6 4 7 9 10 11 16 17 12 22 -1 -2 19 28 26 -3 -5 -12 -11 -7 -20 -4 -17 25 -16 -10 -19 -6 -22
right_child=2 3 5 8 14 20 -8 -9 15 13 18 -13 -14 -15 24 23 -18 27 21 -21 29 -23 -24 -25 -26 -27 -28 -29 -30 -31
leaf_value=-6.0821548420589302 -2.0972389394001265 -2.6238179766776728 3.2790288931982858 -1.0193624216850665 5.5586190485536822 11.25138391095919 -3.7942568404424457 -1.5306005564903857 -3.7020140696454931 3.5310540205232153 6.1036774521920742 -5.2226587231098112 6.2422826047213578 5.753739298338111 8.4461996055418442 -1.8971523580097018 5.6216733802448626 -0.70123540870343981 9.3948497965651701 4.9356839356484024 11.844089888699592 10.555653036356651 8.744020127503461 3.3625285780350107 7.9184076121837421 2.7215385436266661 0.55837801173879298 -0.14552638439598059 6.9847859314301211 13.614019518666922
leaf_weight=8481 134 11246 35 4735 514 3130 3151 9874 54 1058 82 13033 53 2422 62 42 22 5025 1170 1976 620 3268 2790 299 2682 80 4130 6995 1592 422
leaf_count=8481 134 11246 35 4735 514 3130 3151 9874 54 1058 82 13033 53 2422 62 42 22 5025 1170 1976 620 3268 2790 299 2682 80 4130 6995 1592 422
internal_value=-0.00229792 -2.71944 8.24961 -1.19828 5.99921 10.3156 -5.33571 -2.10467 -0.297765 4.86871 9.59822 -5.56148 0.266369 5.02645 7.2932 0.670035 -2.60772 -0.559137 10.1744 4.44587 11.5784 10.2496 8.67631 2.71471 7.78278 5.22104 0.503392 -0.377842 6.63671 12.5609
internal_weight=89177 67087 22090 42422 10573 11517 24665 21142 21280 5643 7345 21514 187 5456 4930 4525 11268 16755 4520 3034 4172 4438 2825 341 2824 142 4184 12020 2106 1042
internal_count=89177 67087 22090 42422 10573 11517 24665 21142 21280 5643 7345 21514 187 5456 4930 4525 11268 16755 4520 3034 4172 4438 2825 341 2824 142 4184 12020 2106 1042
is_linear=0
shrinkage=0.05


Tree=8
num_leaves=31
num_cat=0
split_feature=15 15 15 16 17 16 16 16 34 15 17 24 8 34 15 1 17 18 15 17 17 18 18 30 17 8 13 17 8 18
split_gain=7.01313e+08 9.64165e+07 2.30854e+07 1.02075e+07 7.04865e+06 6.23628e+06 4.60783e+06 4.44701e+06 3.07805e+06 2.71951e+06 2.01544e+06 1.62553e+06 1.59574e+06 1.33966e+06 1.32064e+06 1.16622e+06 1.11835e+06 883399 881675 819931 689296 602249 588646 521549 517020 506093 488510 480034 440480 381509
threshold=325.00500000000005 143.21500000000003 456.63000000000005 218.04500000000004 349.3250000000001 429.15500000000003 500.81500000000005 139.17500000000004 1.5000000000000002 202.14500000000001 513.99500000000012 74.635597357008763 24.500000000000004 1.5000000000000002 253.27500000000003 20.205000000000002 87.935000000000016 312.95500000000004 534.05500000000006 174.44500000000002 450.95000000000005 222.28500000000003 467.46500000000009 139.59500000000003 485.66500000000008 19.500000000000004 1.0000000180025095e-35 219.73500000000004 20.500000000000004 513.36000000000013
decision_type=2 2 2 2 2 2 2 2 2 2 2 2 2 2 2 2 2 2 2 2 2 2 2 2 2 2 2 2 2 2
left_child=1 7 5 9 14 8 10 16 23 19 18 24 -8 -6 27 20 -1 -16 29 -3 28 -11 -14 -2 -7 -12 -24 -5 -10 -4
right_child=2 3 6 4 13 11 12 -9 15 21 25 -13 22 -15 17 -17 -18 -19 -20 -21 -22 -23 26 -25 -26 -27 -28 -29 -30 -31
leaf_value=-5.6534151949531051 0.42487181952305875 -2.7579140732948333 6.3416397567710128 -1.1201939816252995 -0.91738430488917799 5.956524725781331 8.8762592301493424 -2.9930237796627024 4.1016524606383662 -1.5168589389092439 8.1425997491833773 8.5102501724571038 9.2779897096863504 4.7974994607355406 -0.056454577281360122 0.02951569139957428 -4.9329196510363111 2.0128542319797833 8.3917248965473643 -1.9461199603223851 6.2696759545017242 -0.70955173379335434 10.263842899987756 6.4406215643271425 7.5091961885931404 9.8114853686112067 11.391003606237215 -0.50916604305074165 5.3174233500963952 7.9218342684312617
leaf_weight=9090 473 5596 1771 5317 118 1715 2543 2476 1383 5686 687 1534 945 783 5512 115 13217 569 1133 7003 1005 3891 2746 39 780 1341 1479 8128 1615 487
leaf_count=9090 473 5596 1771 5317 118 1715 2543 2476 1383 5686 687 1534 945 783 5512 115 13217 569 1133 7003 1005 3891 2746 39 780 1341 1479 8128 1615 487
internal_value=-0.00218302 -2.52365 7.79514 -1.08114 -0.274746 5.79098 9.11665 -5.00338 4.53926 -1.82394 7.99926 7.22942 9.9017 4.04905 -0.474262 4.99384 -5.22652 0.137171 7.25355 -2.30669 5.13646 -1.18886 10.4061 0.883103 6.44193 9.24614 10.6584 -0.750805 4.75658 6.68245
internal_weight=89177 67386 21791 42603 20427 8659 13132 24783 4630 22176 5419 4029 7713 901 19526 4118 22307 6081 3391 12599 4003 9577 5170 512 2495 2028 4225 13445 2998 2258
internal_count=89177 67386 21791 42603 20427 8659 13132 24783 4630 22176 5419 4029 7713 901 19526 4118 22307 6081 3391 12599 4003 9577 5170 512 2495 2028 4225 13445 2998 2258
is_linear=0
shrinkage=0.05


Tree=9
num_leaves=31
num_cat=0
split_feature=23 23 25 25 25 23 25 25 25 25 8 25 23 18 27 5 30 27 22 25 8 8 14 25 27 8 8 28 27 25
split_gain=6.55234e+08 8.78516e+07 3.24658e+07 1.10715e+07 4.43172e+06 3.781e+06 3.53681e+06 1.89785e+06 1.82086e+06 1.42663e+06 1.29116e+06 797117 779250 611830 491153 488503 481666 475818 757384 466168 441050 396224 552494 387498 348633 339129 304643 283689 308070 283059
threshold=339.93785714285724 158.10428571428574 485.19196428571428 219.07982142857148 433.17482142857148 128.91142857142862 563.34839285714304 192.65892857142859 256.40375000000006 92.445714285714303 19.500000000000004 397.87160714285727 301.54500000000002 88.50500000000001 1.0000000180025095e-35 4.5000000000000009 -157.54499999999996 0.21608736195905351 6.3404516129032267 605.7355357142859 14.500000000000002 50.500000000000007 1.0000000180025095e-35 519.71285714285727 0.21608736195905351 2.5000000000000004 2.5000000000000004 6.0858104761904777 0.45257201001256891 233.01053571428577
decision_type=2 2 2 2 2 2 2 2 2 2 2 2 2 2 2 2 2 2 2 2 2 2 2 2 2 2 2 2 2 2
left_child=1 5 4 7 11 9 10 13 15 -1 24 20 16 -3 -12 -5 -10 18 -6 -8 -2 22 25 -16 -4 -19 -26 28 -14 -17
right_child=2 3 6 8 17 -7 19 -9 12 -11 14 -13 27 -15 23 29 -18 21 -20 -21 -22 -23 -24 -25 26 -27 -28 -29 -30 -31
leaf_value=-5.4451741502559123 2.9775585194297376 4.6851280520041101 2.5636089770423793 -0.90355638943297534 1.75343531812391 -3.150189449650219 10.194358426920189 -1.3729456657854724 -2.7866884575949777 -4.6393309479266405 5.3656409355198464 5.1763316090037108 -2.2379140613097994 -2.3495052351433201 8.648940833332686 -0.60986327839171273 0.46874696503652591 8.2296253179670664 7.2469748654703459 11.415335258732831 4.3604402309171126 8.9014594544584948 7.3569528473982322 9.621851439285102 9.6680515960727575 6.0072267569360553 7.7414041828558595 2.9159632197510064 2.0117488175630571 -0.1039545838354678
leaf_weight=9898 775 31 31 4854 124 3162 3130 10191 117 12339 82 2805 63 10553 1601 4598 3937 186 127 1042 2252 208 1693 2837 223 2226 2567 458 132 6935
leaf_count=9898 775 31 31 4854 124 3162 3130 10191 117 12339 82 2805 63 10553 1601 4598 3937 186 127 1042 2252 208 1693 2837 223 2226 2567 458 132 6935
internal_value=-0.00207388 -2.44803 7.50784 -1.04068 5.48233 -4.76798 9.33683 -1.85997 -0.233785 -4.99802 8.67617 4.56909 0.632991 -2.3289 9.20003 -0.482757 0.374794 6.6493 4.53304 10.4993 4.00638 6.77246 6.66458 9.27088 7.83681 6.17861 7.8954 2.23595 0.638781 -0.305651
internal_weight=89177 67268 21909 41869 10396 25399 11513 20775 21094 22237 7341 5832 4707 10584 4520 16387 4054 4564 251 4172 3027 4313 4105 4438 2821 2412 2790 653 195 11533
internal_count=89177 67268 21909 41869 10396 25399 11513 20775 21094 22237 7341 5832 4707 10584 4520 16387 4054 4564 251 4172 3027 4313 4105 4438 2821 2412 2790 653 195 11533
is_linear=0
shrinkage=0.05


Tree=10
num_leaves=31
num_cat=0
split_feature=23 25 25 23 25 25 25 25 25 23 8 27 8 23 18 25 25 8 23 25 8 25 18 8 28 8 8 8 27 8
split_gain=5.90546e+08 7.80135e+07 3.06347e+07 1.07084e+07 5.07995e+06 2.73019e+06 2.37704e+06 1.71405e+06 1.62852e+06 920525 853659 829042 709148 593597 576895 538003 491053 470243 460623 451952 402574 380146 369836 361870 361518 331842 323502 293441 324828 272901
threshold=324.57428571428574 154.82678571428576 466.11410714285722 215.45071428571433 531.24785714285724 415.30196428571435 101.02803571428574 190.60107142857143 247.2858928571429 128.91142857142862 18.500000000000004 0.21608736195905351 15.500000000000002 357.13214285714292 109.24500000000002 605.7355357142859 489.14089285714294 12.500000000000002 301.54500000000002 81.697142857142879 37.500000000000007 233.01053571428577 324.38500000000005 14.500000000000002 6.0560842549923208 29.500000000000004 3.5000000000000004 7.5000000000000009 0.56492519518116879 45.500000000000007
decision_type=2 2 2 2 2 2 2 2 2 2 2 2 2 2 2 2 2 2 2 2 2 2 2 2 2 2 2 2 2 2
left_child=1 6 5 7 11 13 19 -3 14 -8 27 24 26 -2 -5 20 25 -7 -10 -1 -12 -16 -9 -15 -4 -14 -13 -6 -29 -19
right_child=2 3 4 8 10 17 9 22 18 -11 15 12 16 23 21 -17 -18 29 -20 -21 -22 -23 -24 -25 -26 -27 -28 28 -30 -31
leaf_value=-5.3703635846194242 2.8990770597418307 -2.3134854635466104 2.1406935965756371 7.8805549263954164 8.8506086109410074 4.7017358791491519 -4.266037672959067 -1.3632310179200315 0.21055809951899543 -3.0982905904226019 10.017100417090967 8.3923049596891008 7.9240007061142439 3.3649908902844943 -0.83120499715275775 10.794107351618692 8.458189966807991 5.7643735282180542 2.0856673714110179 -4.7923085778060548 9.1000684668570155 -0.31628036636794599 -4.5150807906972608 4.5338442644285086 6.4354343258604718 6.3588398350501762 6.595588604381831 1.5529643203901209 7.651453185610456 6.9037808680479689
leaf_weight=5647 1024 10857 98 20 1114 903 8097 9426 7255 2132 2171 292 808 865 8619 984 2299 2675 343 8428 2667 6136 94 2824 98 583 1764 23 431 654
leaf_count=5647 1024 10857 98 20 1114 903 8097 9426 7255 2132 2171 292 808 865 8619 984 2299 2675 343 8428 2667 6136 94 2824 98 583 1764 23 431 654
internal_value=0.00241787 -2.3408 7.05551 -1.05488 8.57428 4.79188 -4.60269 -1.88407 -0.299658 -4.02265 9.44946 7.48583 7.59491 3.96413 -0.605566 9.72834 8.00953 5.71371 0.295207 -5.02423 9.51158 -0.617069 -1.39435 4.25977 4.28806 7.26801 6.85076 8.41395 7.3425 5.98822
internal_weight=89331 67054 22277 42750 13332 8945 24304 20377 22373 10229 7390 5942 5746 4713 14775 5822 3690 4232 7598 14075 4838 14755 9520 3689 196 1391 2056 1568 454 3329
internal_count=89331 67054 22277 42750 13332 8945 24304 20377 22373 10229 7390 5942 5746 4713 14775 5822 3690 4232 7598 14075 4838 14755 9520 3689 196 1391 2056 1568 454 3329
is_linear=0
shrinkage=0.05


Tree=11
num_leaves=31
num_cat=0
split_feature=23 25 25 23 25 23 25 23 25 25 25 27 34 5 25 23 15 5 5 27 25 34 25 28 25 23 5 25 25 27
split_gain=5.32968e+08 7.04486e+07 2.76478e+07 8.7787e+06 4.58814e+06 3.0955e+06 2.47656e+06 1.43565e+06 1.38892e+06 1.11127e+06 1.00564e+06 707644 528139 489844 470121 447724 445653 429534 397329 359302 345385 336484 335722 320775 300074 275537 270652 267926 254941 226730
threshold=324.57428571428574 159.76732142857148 466.11410714285722 216.28428571428574 523.58910714285719 123.57285714285716 410.9401785714287 253.98714285714289 195.53892857142861 87.455357142857153 563.34839285714304 0.21608736195905351 1.5000000000000002 5.5000000000000009 233.01053571428577 301.54500000000002 434.89500000000004 4.5000000000000009 4.5000000000000009 0.45257201001256891 489.14089285714294 1.5000000000000002 605.7355357142859 6.1001362692282735 433.17482142857148 461.93785714285724 7.5000000000000009 178.67160714285714 104.29017857142858 0.21608736195905351
decision_type=2 2 2 2 2 2 2 2 2 2 2 2 2 2 2 2 2 2 2 2 2 2 2 2 2 2 2 2 2 2
left_child=1 5 6 8 11 9 13 14 27 -1 17 23 16 -2 -5 -9 -8 25 -13 -10 26 -15 -12 -4 -14 -6 -20 -3 -11 -24
right_child=2 3 4 7 10 -7 12 15 19 28 22 18 24 21 -16 -17 -18 -19 20 -21 -22 -23 29 -25 -26 -27 -28 -29 -30 -31
leaf_value=-5.0052565015065165 3.1956120623637236 -2.3111940922283498 2.0330116641521454 -0.78591144153375736 1.6887312781810762 -2.9349968376221023 -1.7981517667355746 0.27842689832866446 -3.9420766737808783 -4.442784438333236 9.1662131131084355 6.5842718954421473 4.9089514454039591 -1.8938428212295879 -0.2442392817139282 2.1091995266373731 6.9924250602722173 8.6562034262178909 7.5176077835455279 -1.1856953185783845 7.9415298427316161 4.3228756105150756 5.8289006759380477 6.2379221486039915 5.7484036261070068 7.6086370776862484 6.0288153942821276 -1.8290591382345696 -4.0120439900828959 10.310819046643793
leaf_weight=7751 2291 6000 100 8173 20 3563 46 5632 120 8074 3141 2126 1718 22 7856 355 21 2704 674 8007 1709 2048 29 83 2799 1142 558 5544 5979 1046
leaf_count=7751 2291 6000 100 8173 20 3563 46 5632 120 8074 3141 2126 1718 22 7856 355 21 2704 674 8007 1709 2048 29 83 2799 1142 558 5544 5979 1046
internal_value=0.00229698 -2.22376 6.70274 -0.95952 8.14557 -4.30134 4.55229 -0.273671 -1.72713 -4.52462 8.89315 6.99471 5.36376 3.69932 -0.520432 0.386983 0.957104 8.31071 7.10503 -1.22639 7.48148 4.2568 9.42724 3.94016 5.42913 7.50675 6.8433 -2.07965 -4.25952 10.1899
internal_weight=89331 67054 22277 41687 13332 25367 8945 22016 19671 21804 8082 5250 4584 4361 16029 5987 67 3866 5067 8127 2941 2070 4216 183 4517 1162 1232 11544 14053 1075
internal_count=89331 67054 22277 41687 13332 25367 8945 22016 19671 21804 8082 5250 4584 4361 16029 5987 67 3866 5067 8127 2941 2070 4216 183 4517 1162 1232 11544 14053 1075
is_linear=0
shrinkage=0.05


Tree=12
num_leaves=31
num_cat=0
split_feature=23 23 25 25 25 23 25 23 25 23 8 27 8 27 25 34 8 25 8 25 15 8 34 8 8 28 25 34 0 8
split_gain=4.81003e+08 6.3602e+07 2.49521e+07 8.06104e+06 4.14891e+06 2.78987e+06 2.23509e+06 1.34431e+06 950948 926660 718297 678001 591828 500866 492873 476645 464346 437153 408010 407400 402202 380252 366982 365082 351400 295293 293024 324029 420698 291937
threshold=324.57428571428574 158.10428571428574 466.11410714285722 213.27821428571431 531.24785714285724 118.05285714285715 410.9401785714287 245.46857142857147 182.76875000000004 91.072142857142879 17.500000000000004 0.21608736195905351 15.500000000000002 0.21608736195905351 261.43571428571437 1.5000000000000002 14.500000000000002 605.7355357142859 14.500000000000002 496.9951785714286 434.89500000000004 15.500000000000002 1.0000000180025095e-35 37.500000000000007 35.500000000000007 6.0560842549923208 357.13714285714292 1.5000000000000002 434.87500000000006 3.5000000000000004
decision_type=2 2 2 2 2 2 2 2 2 2 2 2 2 2 2 2 2 2 2 2 2 2 2 2 2 2 2 2 2 2
left_child=1 5 6 8 11 9 16 21 13 -1 -6 25 29 22 -9 20 -2 23 -17 24 -8 -5 -3 -12 -14 -4 -18 28 -28 -13
right_child=2 3 4 7 10 -7 15 14 -10 -11 17 12 19 -15 -16 18 26 -19 -20 -21 -22 -23 -24 -25 -26 -27 27 -29 -30 -31
leaf_value=-4.6871268376628281 2.6512119127820384 2.8900307927812161 1.9220464418889307 -0.96718599796855775 7.5781868135844608 -2.9161468630261922 -1.7082441169282665 -0.070597363839806943 -1.3983498050175716 -4.0216095213069645 9.0703616998678456 7.6378631552400655 7.1383346451566174 -2.1845726770317753 0.72628521075657793 4.3150642801329084 2.8587581207016473 9.7454655055865302 5.4256703436317189 7.7475439029139412 6.6428037847791401 -0.41811414038065681 -3.0315968488392078 8.1974079608347346 5.5978290446518937 5.8035343868011724 -4.1256833378915436 4.1355954828115085 5.4420144271850592 5.9310532191582448
leaf_weight=9529 1148 84 98 4602 1565 4238 46 5901 10807 11595 2174 292 1291 7353 2891 1090 633 984 3427 1880 21 10016 38 2667 519 98 27 2533 20 1764
leaf_count=9529 1148 84 98 4602 1565 4238 46 5901 10807 11595 2174 292 1291 7353 2891 1090 633 984 3427 1880 21 10016 38 2667 519 98 27 2533 20 1764
internal_value=0.00218211 -2.11257 6.3676 -0.911525 7.73829 -4.08693 4.32467 -0.297126 -1.69826 -4.32182 8.52921 6.75463 6.85327 -2.13185 0.191435 5.09557 3.51435 8.78472 5.15767 7.23204 0.909249 -0.590971 1.04559 8.58943 6.69661 3.86279 3.82275 4.05927 -0.0543226 6.17346
internal_weight=89331 67054 22277 41692 13332 25362 8945 23410 18282 21124 7390 5942 5746 7475 8792 4584 4361 5825 4517 3690 67 14618 122 4841 1810 196 3213 2580 47 2056
internal_count=89331 67054 22277 41692 13332 25362 8945 23410 18282 21124 7390 5942 5746 7475 8792 4584 4361 5825 4517 3690 67 14618 122 4841 1810 196 3213 2580 47 2056
is_linear=0
shrinkage=0.05


Tree=13
num_leaves=31
num_cat=0
split_feature=23 25 25 23 25 23 23 25 25 25 25 23 18 8 24 8 8 25 23 18 8 28 8 25 8 25 23 8 34 15
split_gain=4.34106e+08 5.7484e+07 2.25193e+07 6.51209e+06 3.75914e+06 3.45986e+06 2.04995e+06 1.17937e+06 1.01942e+06 961877 861376 501205 442273 372743 368884 424279 352645 336156 321454 312926 272349 296870 325708 270821 269419 249526 245761 241861 237984 625587
threshold=324.57428571428574 163.86875000000001 466.11410714285722 217.11214285714289 523.58910714285719 128.91142857142862 413.07571428571435 250.92660714285719 196.50321428571434 86.584642857142867 563.34839285714304 357.13214285714292 117.74500000000002 45.500000000000007 26.416766861658484 15.500000000000002 15.500000000000002 233.01053571428577 301.54500000000002 324.38500000000005 51.500000000000007 6.035000000000001 24.500000000000004 489.14089285714294 29.500000000000004 106.14857142857143 461.93785714285724 3.5000000000000004 1.5000000000000002 434.89500000000004
decision_type=2 2 2 2 2 2 2 2 2 2 2 2 2 2 2 2 2 2 2 2 2 2 2 2 2 2 2 2 2 2
left_child=1 5 6 8 14 9 11 12 -3 -1 16 -2 -5 28 -4 27 26 -14 -9 -10 21 22 -12 24 -17 -11 -6 -16 29 -8
right_child=2 3 4 7 10 -7 13 18 19 25 20 -13 17 -15 15 23 -18 -19 -20 -21 -22 -23 -24 -25 -26 -27 -28 -29 -30 -31
leaf_value=-4.5383677336539794 2.3921225789317084 -1.8204905216048333 4.0459502291870999 5.7011347426423216 1.2559970080852509 -2.5149884612180893 -3.0224707033899096 0.26149682476632019 -1.0468584494793378 -3.993477113427391 7.882722849484046 3.6434553887921726 -0.70573461383827452 5.898663117974384 7.1882614501654878 6.7896004942220616 7.7974417045723401 -0.23849846118117193 1.8384888010872911 -3.9184510834049435 6.1943891377966915 8.1682348753577259 9.3715200570389214 7.1220725978136974 5.3821962078344336 -3.5646775536858266 6.8479222995610591 5.5378327034847992 4.7306361901236453 5.1498183573359881
leaf_weight=7404 1044 10828 174 29 20 4244 36 5862 8071 9482 481 3427 7946 730 259 814 2728 7467 342 96 122 2058 1555 1866 584 5283 1118 1553 3641 67
leaf_count=7404 1044 10828 174 29 20 4244 36 5862 8071 9482 481 3427 7946 730 259 814 2728 7467 342 96 122 2058 1555 1866 584 5283 1118 1553 3641 67
internal_value=0.00207303 -2.00694 6.04922 -0.826734 7.35137 -3.82289 4.10844 -0.233837 -1.50238 -4.07327 8.02806 3.35126 -0.46777 4.86511 6.30966 6.38726 7.48901 -0.479377 0.34843 -1.08061 8.52235 8.59173 9.0198 6.72786 6.20167 -3.84005 6.74965 5.77374 4.66359 2.29348
internal_weight=89331 67054 22277 40641 13332 26413 8945 21646 18995 22169 8082 4471 15442 4474 5250 5076 3866 15413 6204 8167 4216 4094 2036 3264 1398 14765 1138 1812 3744 103
internal_count=89331 67054 22277 40641 13332 26413 8945 21646 18995 22169 8082 4471 15442 4474 5250 5076 3866 15413 6204 8167 4216 4094 2036 3264 1398 14765 1138 1812 3744 103
is_linear=0
shrinkage=0.05


Tree=14
num_leaves=31
num_cat=0
split_feature=23 23 23 23 23 23 23 23 23 23 8 23 14 27 8 1 23 8 1 18 23 8 23 34 8 27 14 27 33 8
split_gain=3.91805e+08 5.28496e+07 1.8758e+07 6.93415e+06 2.80218e+06 2.28086e+06 1.80774e+06 1.45538e+06 1.0147e+06 891637 632315 457870 439446 416367 402982 364662 326666 270828 269308 245208 241190 230687 202662 202319 195278 191734 191351 195636 187820 186636
threshold=339.93785714285724 158.10428571428574 485.80000000000007 216.28428571428574 425.47571428571433 128.91142857142862 531.4392857142858 269.67357142857151 192.07571428571433 92.577857142857155 24.500000000000004 238.52571428571432 1.0000000180025095e-35 0.45257201001256891 20.500000000000004 6.4043161290322592 631.15928571428583 19.500000000000004 6.082953333333335 109.24500000000002 457.97214285714296 37.500000000000007 398.3907142857143 1.5000000000000002 50.500000000000007 0.45257201001256891 1.0000000180025095e-35 1.0000000180025095e-35 -15.598354760262739 15.500000000000002
decision_type=2 2 2 2 2 2 2 2 2 2 2 2 2 2 2 2 2 2 2 2 2 2 2 2 2 2 2 2 2 2
left_child=1 5 4 8 13 9 17 11 29 -1 -8 19 -9 15 22 28 21 -4 25 -5 23 -12 -15 -6 -18 -14 27 -22 -2 -3
right_child=2 3 6 7 20 -7 10 12 -10 -11 16 -13 18 14 -16 -17 24 -19 -20 -21 26 -23 -24 -25 -26 -27 -28 -29 -30 -31
leaf_value=-4.2115262059701166 -1.5972256943010368 -2.1551327405632863 5.8869744160131114 4.9539611303804847 0.99511577401842399 -2.4345212659528888 6.8785136862835321 0.53848629145523286 -1.0979029736187862 -3.5756901873732545 8.1932291761669642 -0.091954943355155722 -2.8486503478019469 2.7433503679558893 4.0013782847451163 4.6212130040833443 9.2016623491581875 6.7085924546897919 2.9767794244532841 -0.58768441999514254 1.8607517164686453 7.4970148535512511 3.790468451846666 4.8205284875072678 5.1344715764445645 1.3434877051779024 5.9561412572253261 5.1760532999423532 1.6776678346447136 -1.6868911380149272
leaf_weight=10220 52 2957 1692 20 35 3169 1838 2229 9116 11973 2156 9117 31 1451 2640 99 615 2463 344 10408 46 2655 678 2773 31 227 1064 1363 277 7592
leaf_count=10220 52 2957 1692 20 35 3169 1838 2229 9116 11973 2156 9117 31 1451 2640 99 615 2463 344 10408 46 2655 678 2773 31 227 1064 1363 277 7592
internal_value=0.00196936 -1.88673 5.80753 -0.799292 4.27881 -3.68932 7.20647 -0.197307 -1.48427 -3.8685 7.68061 -0.350775 0.862226 3.45456 3.58863 1.96065 7.95077 6.37401 2.06092 -0.577056 5.08995 7.80902 3.07681 4.77285 9.00649 0.839781 5.45002 5.06782 1.16006 -1.81814
internal_weight=89331 67403 21928 42041 10478 25362 11450 22376 19665 22193 7295 19545 2831 5197 4769 428 5457 4155 602 10428 5281 4811 2129 2808 646 258 2473 1409 329 10549
internal_count=89331 67403 21928 42041 10478 25362 11450 22376 19665 22193 7295 19545 2831 5197 4769 428 5457 4155 602 10428 5281 4811 2129 2808 646 258 2473 1409 329 10549
is_linear=0
shrinkage=0.05


Tree=15
num_leaves=31
num_cat=0
split_feature=25 25 25 25 25 25 25 25 34 25 0 8 25 27 8 30 30 14 25 8 25 14 25 8 25 25 8 28 6 8
split_gain=3.52188e+08 4.85184e+07 1.7452e+07 5.84563e+06 2.65923e+06 2.40882e+06 2.28017e+06 1.2371e+06 1.02212e+06 831409 684126 674146 629623 509427 434864 432453 415026 436827 369593 368502 365181 310097 293922 275671 265986 265258 235233 269791 277729 266102
threshold=349.75660714285715 163.86875000000001 481.54089285714286 219.07982142857148 112.62410714285717 433.17482142857148 563.34839285714304 267.76035714285723 1.5000000000000002 196.50321428571434 434.87500000000006 19.500000000000004 84.478214285714287 1.0000000180025095e-35 15.500000000000002 139.59500000000003 -157.54499999999996 1.0000000180025095e-35 397.87160714285727 50.500000000000007 140.60035714285718 1.0000000180025095e-35 519.71285714285727 6.5000000000000009 614.36482142857153 240.26375000000004 50.500000000000007 5.970133640552997 1.5000000000000002 24.500000000000004
decision_type=2 2 2 2 2 2 2 2 2 2 2 2 2 2 2 2 2 2 2 2 2 2 2 2 2 2 2 2 2 2
left_child=1 4 5 9 12 8 11 14 10 15 -2 23 -1 -13 -5 -3 -9 -18 -10 21 -6 -7 -15 -4 26 -16 29 -28 -29 -8
right_child=2 3 6 7 20 19 24 16 18 -11 -12 13 -14 22 25 -17 17 -19 -20 -21 -22 -23 -24 -25 -26 -27 27 28 -30 -31
leaf_value=-4.1314156462642027 -2.9307109189089218 -1.6384599653813152 6.437058833322272 -0.6759685835753575 -3.034785131599179 4.3976564272952228 6.7575262219506627 -2.4995654007723167 2.9787661566242427 -0.96858265480815564 4.4757061654871162 3.1055447035602164 -3.537781847470324 6.2454693136006716 -0.33836200492610263 4.5833492466381625 0.62788138078954858 2.1580712039486372 3.8027645675578814 6.9093172018442832 -2.2548817557313767 5.2935088271330217 7.0635471222859465 5.399541312810701 8.6293902800876214 0.097275215058657646 7.3257187541840345 7.4465177720592868 1.4455451236051673 7.8942854714803135
leaf_weight=6696 107 10913 922 5013 2460 2384 639 86 2676 8745 44 98 13416 1786 7427 28 1749 636 2769 210 3850 1624 2850 2095 708 6599 140 31 51 2649
leaf_count=6696 107 10913 922 5013 2460 2384 639 86 2676 8745 44 98 13416 1786 7427 28 1749 636 2769 210 3850 1624 2850 2095 708 6599 140 31 51 2649
internal_value=-0.000866466 -1.78207 5.52829 -0.709448 -3.45446 3.96536 6.80981 -0.139656 3.28527 -1.33203 -0.77255 6.30072 -3.73542 6.67297 -0.276261 -1.62254 0.912884 1.03593 3.3978 4.86762 -2.55893 4.76065 6.74839 5.71661 7.74533 -0.133402 7.567 5.99174 3.71421 7.67336
internal_weight=89401 67618 21783 41196 26422 9814 11969 21510 5596 19686 151 7751 20112 4734 19039 10941 2471 2385 5445 4218 6310 4008 4636 3017 4218 14026 3510 222 82 3288
internal_count=89401 67618 21783 41196 26422 9814 11969 21510 5596 19686 151 7751 20112 4734 19039 10941 2471 2385 5445 4218 6310 4008 4636 3017 4218 14026 3510 222 82 3288
is_linear=0
shrinkage=0.05


Tree=16
num_leaves=31
num_cat=0
split_feature=23 25 25 23 23 25 25 23 25 25 25 27 23 8 23 27 27 8 8 14 8 28 8 8 28 14 8 25 25 24
split_gain=3.1951e+08 4.31614e+07 1.59336e+07 5.04339e+06 2.41129e+06 2.22879e+06 1.91445e+06 965061 850275 740148 501763 484941 435214 427397 410312 330377 316941 309652 281251 259003 252608 246320 243373 249048 240242 205779 235678 202644 202629 199833
threshold=339.93785714285724 163.86875000000001 477.73482142857148 219.56571428571431 128.91142857142862 541.47535714285721 433.17482142857148 278.82428571428574 196.50321428571434 86.584642857142867 238.15375000000003 1.0000000180025095e-35 393.1307142857143 19.500000000000004 609.44214285714293 0.21608736195905351 0.45257201001256891 50.500000000000007 50.500000000000007 1.0000000180025095e-35 6.5000000000000009 6.006117434715823 22.500000000000004 37.500000000000007 6.1001362692282735 1.0000000180025095e-35 1.5000000000000002 104.85553571428572 605.7355357142859 1.0000000180025095e-35
decision_type=2 2 2 2 2 2 2 2 2 2 2 2 2 2 2 2 2 2 2 2 2 2 2 2 2 2 2 2 2 2
left_child=1 4 6 8 9 11 12 10 -3 -1 -5 24 -2 -13 15 20 -10 25 -16 -9 -7 -21 -17 -24 -4 26 -8 -11 -20 -6
right_child=2 3 5 7 29 14 17 19 16 27 -12 13 -14 -15 18 22 -18 -19 28 21 -22 -23 23 -25 -26 -27 -28 -29 -30 -31
leaf_value=-3.8987256495256846 2.6809172360329234 -1.5570752261201335 1.0304406447708607 -0.51436816105069882 1.9504252902392683 7.3172801804542544 6.8578196453897267 0.59172948901159361 -3.4236810304285066 -3.4381291146463155 -0.0038876349124930525 5.3328647946647214 3.5507616319044661 6.1921599502047586 8.0220788266095848 6.2462571424887665 -0.86831365492724277 6.4796494314823256 3.1159541276785045 -0.30414930180627475 0.15410752529278399 2.4942259088869974 7.598805457597857 6.7726037538957558 5.3231821563027122 4.944896959516579 4.0774555284879384 -3.0612008088844087 8.2761399141947418 -2.2144612355092814
leaf_weight=7388 2720 10891 80 9365 29 20 79 1255 123 8839 9905 2604 3051 3257 1314 1061 9002 203 52 98 32 398 1519 2283 55 1418 2164 5977 30 4189
leaf_count=7388 2720 10891 80 9365 29 20 79 1255 123 8839 9905 2604 3051 3257 1314 1061 9002 203 52 98 32 398 1519 2283 55 1418 2164 5977 30 4189
internal_value=-0.000823144 -1.70557 5.24028 -0.690738 -3.28174 6.43245 3.7175 -0.149852 -1.25878 -3.48992 -0.251975 5.74214 3.14078 5.81038 7.08831 6.87345 -0.902759 4.57883 7.84479 0.974024 2.90917 1.94132 6.91584 7.10269 2.77934 4.47343 4.17538 -3.28607 5.00383 -2.18583
internal_weight=89401 67459 21942 41037 26422 12307 9635 21021 20016 22204 19270 5996 5771 5861 6311 4915 9125 3864 1396 1751 52 496 4863 3802 135 3661 2243 14816 82 4218
internal_count=89401 67459 21942 41037 26422 12307 9635 21021 20016 22204 19270 5996 5771 5861 6311 4915 9125 3864 1396 1751 52 496 4863 3802 135 3661 2243 14816 82 4218
is_linear=0
shrinkage=0.05


Tree=17
num_leaves=31
num_cat=0
split_feature=23 23 25 25 25 25 23 23 25 25 23 27 25 8 8 8 26 27 8 25 25 13 25 24 27 2 27 8 25 8
split_gain=2.88358e+08 3.89822e+07 1.4392e+07 4.7774e+06 2.18412e+06 1.99855e+06 1.57308e+06 829156 683689 528708 527383 447188 357951 344554 330684 321878 321109 493596 315324 314872 304210 293495 293232 272284 271797 251285 244770 225897 198678 187485
threshold=339.93785714285724 161.05500000000004 473.99196428571435 218.25410714285718 548.58892857142871 112.62410714285717 417.43428571428575 258.99071428571432 192.65892857142859 512.45196428571433 83.560714285714297 0.21608736195905351 278.01553571428576 16.500000000000004 24.500000000000004 14.500000000000002 6.4261155145929356 0.21608736195905351 37.500000000000007 444.58232142857145 577.85535714285732 1.0000000180025095e-35 140.60035714285718 16.885615461317411 0.56492519518116879 28.510000000000002 1.0000000180025095e-35 50.500000000000007 152.63839285714289 15.500000000000002
decision_type=2 2 2 2 2 2 2 2 2 2 2 2 2 2 2 2 2 2 2 2 2 2 2 2 2 2 2 2 2 2
left_child=1 5 6 8 9 10 15 13 11 21 -1 25 -9 -5 -6 -2 17 -14 20 -8 -16 -4 -7 -18 -22 -3 -23 -21 -27 -10
right_child=2 3 4 7 14 22 19 12 29 -11 -12 -13 16 -15 18 -17 23 -19 -20 27 24 26 -24 -25 -26 28 -28 -29 -30 -31
leaf_value=-3.7520190080334852 2.1312309911338461 -3.4040754590718452 5.3507486539260007 -0.67331984794302624 6.0061121887080127 -2.7540951958370741 3.7188687707664343 0.18308991146167919 -1.2654214846657208 5.9200911328569168 -3.1999758208916269 -1.5593100055896307 -2.8452990811162939 -0.17519583031448902 6.9054497134546171 3.074316915212151 5.6932107448577884 1.0376720282602805 6.6656328329023298 4.4060641526911386 4.1493002089170314 -0.99443192254929313 -2.0408184652371957 1.7661599799722769 8.4263195694265622 -0.057339117527008057 4.4590459291426168 6.5059615866226315 4.5564420906294671 -0.78931787557998234
leaf_weight=6301 1258 21 2465 4896 1039 2430 2475 3708 2966 3539 13805 9791 96 11932 941 3222 49 555 2811 2197 39 21 3540 445 781 40 1018 136 56 6828
leaf_count=6301 1258 21 2465 4896 1039 2430 2475 3708 2966 3539 13805 9791 96 11932 941 3222 49 555 2811 2197 39 21 3540 445 781 40 1018 136 56 6828
internal_value=-0.000781995 -1.62029 4.97827 -0.666191 6.07535 -3.13446 3.4836 -0.154072 -1.22975 5.48903 -3.37298 -1.52259 0.421711 -0.320122 6.81131 2.8095 1.19447 0.465068 6.99429 4.11172 7.51891 5.05366 -2.33115 2.15569 8.2229 1.55027 4.34882 4.52848 2.63403 -0.9335
internal_weight=89401 67459 21942 41383 12654 26076 9288 21681 19702 7043 20106 9908 4853 16828 5611 4480 1145 651 4572 4808 1761 3504 5970 494 820 117 1039 2333 96 9794
internal_count=89401 67459 21942 41383 12654 26076 9288 21681 19702 7043 20106 9908 4853 16828 5611 4480 1145 651 4572 4808 1761 3504 5970 494 820 117 1039 2333 96 9794
is_linear=0
shrinkage=0.05


Tree=18
num_leaves=31
num_cat=0
split_feature=25 25 25 25 25 25 25 25 34 25 0 8 25 0 30 8 30 14 8 8 14 27 25 8 25 8 28 8 8 28
split_gain=2.59064e+08 3.57055e+07 1.28267e+07 4.31025e+06 1.95553e+06 1.94628e+06 1.60469e+06 895074 871056 627977 580771 545485 471459 357168 352268 327900 308262 307668 294356 291222 298294 276271 263411 255495 224548 210820 205827 279344 268432 200496
threshold=349.75660714285715 163.86875000000001 485.19196428571428 219.94732142857148 433.17482142857148 112.62410714285717 563.34839285714304 261.43571428571437 1.5000000000000002 196.50321428571434 439.47500000000008 19.500000000000004 84.478214285714287 416.93500000000006 139.59500000000003 15.500000000000002 -187.39499999999995 1.0000000180025095e-35 14.500000000000002 50.500000000000007 1.0000000180025095e-35 1.0000000180025095e-35 140.60035714285718 2.5000000000000004 614.36482142857153 6.5000000000000009 6.3137500000000015 22.500000000000004 51.500000000000007 5.8851785714285727
decision_type=2 2 2 2 2 2 2 2 2 2 2 2 2 2 2 2 2 2 2 2 2 2 2 2 2 2 2 2 2 2
left_child=1 5 4 9 8 12 11 18 10 14 -2 25 -1 16 -3 -10 -9 -18 -5 20 23 -13 -7 -6 26 -4 27 -8 -29 -19
right_child=2 3 6 7 19 22 24 13 15 -11 -12 21 -14 -15 -16 -17 17 29 -20 -21 -22 -23 -24 -25 -26 -27 -28 28 -30 -31
leaf_value=-3.5461131039201295 -2.8211371095884932 -1.4035231885393493 5.5264146141246364 -0.60068868489155847 5.5215151757156296 -2.6010948400629488 5.7491698452726361 -3.074619624326969 2.3087040232881182 -0.82683328182777327 4.1511089348211518 2.7658294474283855 -3.0324242020848295 3.9612292623672731 4.2119229384831023 3.1673860321434142 0.37312113167350652 -0.52672250471617044 -0.13511141819889558 6.0081785083926 4.611635466443035 5.8259525116297226 -1.9387200727522762 3.6289230057411297 7.4672499566344221 4.6041579630557772 5.8878926505656208 7.1669631520330093 4.7063050604472734 1.9634615350116005
leaf_weight=6696 110 10913 904 4590 193 2460 559 58 1557 9090 41 75 13416 78 28 3888 2763 95 13039 215 1820 4447 3850 2345 708 1970 1008 1825 118 542
leaf_count=6696 110 10913 904 4590 193 2460 559 58 1557 9090 41 75 13416 78 28 3888 2763 95 13039 215 1820 4447 3850 2345 708 1970 1008 1825 118 542
internal_value=-0.000742892 -1.52841 4.7414 -0.608257 3.44476 -2.96308 5.87671 -0.110708 2.81796 -1.13397 -0.928011 5.43287 -3.20345 0.615311 -1.38915 2.92185 0.539839 0.601497 -0.256332 4.21177 4.12314 5.7752 -2.19695 3.77284 6.65497 4.89425 6.49112 6.73415 7.01753 1.59208
internal_weight=89401 67618 21783 41196 10169 26422 11614 21165 5596 20031 151 7396 20112 3536 10941 5445 3458 3400 17629 4573 4358 4522 6310 2538 4218 2874 3510 2502 1943 637
internal_count=89401 67618 21783 41196 10169 26422 11614 21165 5596 20031 151 7396 20112 3536 10941 5445 3458 3400 17629 4573 4358 4522 6310 2538 4218 2874 3510 2502 1943 637
is_linear=0
shrinkage=0.05


Tree=19
num_leaves=31
num_cat=0
split_feature=23 23 25 25 25 25 23 25 30 23 25 27 8 25 23 25 8 8 28 30 18 25 28 27 24 25 8 8 8 8
split_gain=2.34915e+08 3.17906e+07 1.17393e+07 3.90991e+06 1.80246e+06 1.61353e+06 1.32334e+06 829057 504308 437097 436166 416258 356496 347947 342346 330920 337349 315455 309734 249553 237598 234581 223217 255124 247534 216894 206109 195342 518838 194864
threshold=339.93785714285724 161.05500000000004 473.99196428571435 213.27821428571431 541.47535714285721 112.62410714285717 408.27642857142865 247.2858928571429 149.10999999999999 83.560714285714297 181.79767857142858 1.0000000180025095e-35 19.500000000000004 444.58232142857145 289.92000000000007 570.06714285714304 50.500000000000007 15.500000000000002 5.8279287147977472 -170.79999999999995 471.56500000000005 140.60035714285718 6.122358986175116 0.45257201001256891 18.885288339684788 365.85767857142866 50.500000000000007 36.500000000000007 45.500000000000007 45.500000000000007
decision_type=2 2 2 2 2 2 2 2 2 2 2 2 2 2 2 2 2 2 2 2 2 2 2 2 2 2 2 2 2 2
left_child=1 5 6 8 11 9 25 17 10 -1 -3 20 -13 29 19 -6 -17 -5 -18 -9 -4 -7 23 -16 -24 -2 -15 -14 -29 -8
right_child=2 3 4 7 15 21 13 14 -10 -11 -12 12 27 26 22 16 18 -19 -20 -21 -22 -23 24 -25 -26 -27 -28 28 -30 -31
leaf_value=-3.3892279469840134 1.7723651353117043 -1.5094436360622012 4.5712582278251643 -0.73274503466871865 5.6747609687659208 -2.48633569200803 3.113864470328914 -2.4805366111595344 4.4414991509914401 -2.8866553123996379 -0.99093136586112962 4.5290263217317897 5.5429390610665878 3.9726317806842837 -2.1573977053165438 6.5238415661310469 6.6293529339812025 -0.24610290635037604 2.665397090251957 0.14099727998296302 0.40894092157483097 -1.8483673044883433 4.947334249814352 0.83559454154913859 1.395044324281957 2.6444307095502273 5.9170609449518139 3.5234696726147661 5.7501363735344313 4.2004699483786974
leaf_weight=6301 951 6366 60 4764 2783 2430 2584 92 40 13805 11176 2779 2371 2268 89 3328 88 11064 112 6848 80 3540 54 356 534 2849 145 485 568 491
leaf_count=6301 951 6366 60 4764 2783 2430 2584 92 40 13805 11176 2779 2371 2268 89 3328 88 11064 112 6848 80 3540 54 356 534 2849 145 485 568 491
internal_value=-0.000705749 -1.46245 4.49333 -0.600848 5.48416 -2.82984 3.14342 -0.183134 -1.16631 -3.04416 -1.1791 4.88892 4.94977 3.64004 0.232649 6.08241 6.40398 -0.392575 4.40954 0.106245 2.19279 -2.10804 1.08187 0.236996 1.72128 2.42618 4.08947 5.29126 4.72456 3.28737
internal_weight=89401 67459 21942 41383 12654 26076 9288 23801 17582 20106 17542 6343 6203 5488 7973 6311 3528 15828 200 6940 140 5970 1033 445 588 3800 2413 3424 1053 3075
internal_count=89401 67459 21942 41383 12654 26076 9288 23801 17582 20106 17542 6343 6203 5488 7973 6311 3528 15828 200 6940 140 5970 1033 445 588 3800 2413 3424 1053 3075
is_linear=0
shrinkage=0.05


Tree=20
num_leaves=31
num_cat=0
split_feature=23 23 25 25 25 25 8 25 23 27 25 4 25 8 23 23 28 27 25 8 28 30 8 25 8 8 8 8 27 22
split_gain=2.12262e+08 2.85007e+07 1.04202e+07 3.55037e+06 2.14961e+06 1.36475e+06 975596 860017 467127 448702 372657 369797 369284 356662 341542 335549 308707 321140 308519 289289 242655 228161 226698 222365 219628 180140 177313 269752 248005 385031
threshold=339.93785714285724 159.62642857142859 500.96892857142865 208.53375000000003 444.58232142857145 107.61785714285716 23.500000000000004 244.46214285714288 403.38000000000005 0.21608736195905351 180.77107142857145 78.947096774193568 570.06714285714304 50.500000000000007 289.92000000000007 136.3064285714286 6.2087077572964686 0.21608736195905351 78.660892857142869 15.500000000000002 5.9983744444444449 -145.82499999999996 3.5000000000000004 152.63839285714289 14.500000000000002 13.500000000000002 2.5000000000000004 14.500000000000002 0.21608736195905351 6.3404516129032267
decision_type=2 2 2 2 2 2 2 2 2 2 2 2 2 2 2 2 2 2 2 2 2 2 2 2 2 2 2 2 2 2
left_child=1 5 4 9 8 18 22 19 24 11 -11 23 -8 16 21 -7 17 -14 -1 -5 -15 -9 -4 -3 -2 -10 -6 -28 29 -29
right_child=2 3 6 7 26 15 12 14 25 10 -12 -13 13 20 -16 -17 -18 -19 -20 -21 -22 -23 -24 -25 -26 -27 27 28 -30 -31
leaf_value=-3.3028758573663284 1.6418876043754882 -0.27089513769509116 5.5926330804387989 -0.74210178325149423 5.6273053615086388 -2.4200149431935025 5.4714319773037134 -1.9605174039928792 2.3950255613203546 -1.4904114183315746 -0.99609102921769832 -3.3064731228736139 1.9306793530782063 5.1388277990690305 1.0487501001930741 -1.7557124357166345 5.7475170762065844 6.9155304341472039 -2.8270141360078931 -0.28858107904535707 0.98668297351674839 0.10528243777515192 4.5232191266223749 4.3337844522297386 2.5290506713143488 3.2877557055730935 3.3055844655851296 0.24951047640369861 4.307079854878185 4.5499844516451295
leaf_weight=4612 983 39 614 5117 174 4963 3969 136 715 6271 9726 31 33 140 1004 3081 1202 1544 13027 11240 47 7771 2569 80 2403 2695 1075 98 3463 111
leaf_count=4612 983 39 614 5117 174 4963 3969 136 715 6271 9726 31 33 140 1004 3081 1202 1544 13027 11240 47 7771 2569 80 2403 2695 1075 98 3463 111
internal_value=-0.00326018 -1.39673 4.2788 -0.585228 3.26379 -2.7053 5.45422 -0.215154 2.6875 -1.16435 -1.18987 1.55758 5.78684 6.20891 0.180054 -2.16557 6.35114 6.81122 -2.95144 -0.430457 4.09524 0.0697508 4.72951 2.82469 2.2715 3.10057 4.05966 4.0022 4.20613 2.53349
internal_weight=88933 67098 21835 41415 11717 25683 10118 25268 6796 16147 15997 150 6935 2966 8911 8044 2779 1577 17639 16357 187 7907 3183 119 3386 3410 4921 4747 3672 209
internal_count=88933 67098 21835 41415 11717 25683 10118 25268 6796 16147 15997 150 6935 2966 8911 8044 2779 1577 17639 16357 187 7907 3183 119 3386 3410 4921 4747 3672 209
is_linear=0
shrinkage=0.05


Tree=21
num_leaves=31
num_cat=0
split_feature=25 25 25 25 25 25 8 34 25 25 0 25 8 25 30 8 30 14 8 8 21 25 25 26 30 8 8 6 26 8
split_gain=1.90813e+08 2.65686e+07 8.66817e+06 3.28072e+06 1.71845e+06 1.58231e+06 887085 823197 774382 653464 578237 517371 367677 333278 332359 321888 285150 251963 214673 206198 186612 185589 183270 182915 173112 178263 172118 162953 159908 159159
threshold=357.13714285714292 165.05410714285716 500.96892857142865 227.19982142857148 444.58232142857145 127.32107142857144 23.500000000000004 1.5000000000000002 267.76035714285723 200.28607142857146 434.87500000000006 98.885714285714286 16.500000000000004 570.06714285714304 139.59500000000003 50.500000000000007 -187.39499999999995 1.0000000180025095e-35 15.500000000000002 3.5000000000000004 6.1062333333333347 73.696250000000006 410.9401785714287 6.6335714285714298 149.10999999999999 15.500000000000002 14.500000000000002 1.5000000000000002 41.837142857142865 2.5000000000000004
decision_type=2 2 2 2 2 2 2 2 2 2 2 2 2 2 2 2 2 2 2 2 2 2 2 2 2 2 2 2 2 2
left_child=1 5 4 9 7 11 19 10 26 14 20 21 -9 -8 18 23 -10 -18 -3 -4 -2 -1 -14 -15 25 -11 -5 -17 -28 -6
right_child=2 3 6 8 29 -7 13 12 16 24 -12 -13 22 15 -16 27 17 -19 -20 -21 -22 -23 -24 -25 -26 -27 28 -29 -30 -31
leaf_value=-3.2942078847856351 -2.0797687849601112 -1.5225137778639006 5.3130014338051295 -0.4362220024599659 5.3459401051460329 -1.6733807986366447 5.1978603790621909 2.1056470698484619 -2.4478719194433585 -0.91573089163043186 3.6116320360790604 -2.4153110862433502 2.6552935322609188 6.287196381679176 3.9349673815071586 6.2068541588606658 0.52864577060011975 1.5700285507593108 -1.0405921821049469 4.293238899356143 -7.2279996208522634 -2.8140557619964794 3.3097458972376836 5.3847608529746767 3.8099250598387289 -0.48910335780196262 0.11703508320078254 2.949995297776129 -0.26195699074156925 3.8063192974492481
leaf_weight=2485 75 3137 614 3612 174 4480 3969 1825 67 3653 44 9162 2358 1998 32 54 1858 845 8774 2573 23 10584 1958 781 22 7426 6700 133 4761 4756
leaf_count=2485 75 3137 614 3612 174 4480 3969 1825 67 3653 44 9162 2358 1998 32 54 1858 845 8774 2573 23 10584 1958 781 22 7426 6700 133 4761 4756
internal_value=-0.00309717 -1.30423 4.11943 -0.503035 3.16188 -2.53064 5.18018 2.61359 0.00595273 -0.897144 -1.1501 -2.70339 2.70061 5.4975 -1.15384 5.89846 0.774329 0.854198 -1.16752 4.4897 -3.28803 -2.90535 2.95219 6.03358 -0.620974 -0.629772 -0.135254 3.89048 -0.0404016 3.86066
internal_weight=88933 67598 21335 40887 11213 26711 10122 6283 17843 23044 142 22231 6141 6935 11943 2966 2770 2703 11911 3187 98 13069 4316 2779 11101 11079 15073 187 11461 4930
internal_count=88933 67598 21335 40887 11213 26711 10122 6283 17843 23044 142 22231 6141 6935 11943 2966 2770 2703 11911 3187 98 13069 4316 2779 11101 11079 15073 187 11461 4930
is_linear=0
shrinkage=0.05


Tree=22
num_leaves=31
num_cat=0
split_feature=23 23 25 25 23 25 23 23 23 5 18 23 25 34 28 27 28 5 27 5 25 25 13 28 13 27 32 24 5 25
split_gain=1.72948e+08 2.32591e+07 8.49951e+06 2.56297e+06 1.56559e+06 1.22472e+06 1.19224e+06 586407 423363 380537 377713 377319 272768 577629 203716 198919 198453 226697 260694 180879 176835 166769 160963 157339 177869 158333 198629 153571 152473 149729
threshold=339.93785714285724 164.99785714285716 481.54089285714286 227.19982142857148 116.50500000000001 556.01678571428579 429.69000000000011 197.13500000000002 275.26928571428573 4.5000000000000009 83.245000000000019 95.77500000000002 365.85767857142866 1.5000000000000002 5.6894320993528753 0.21608736195905351 6.2548214285714296 5.5000000000000009 0.21608736195905351 5.5000000000000009 500.96892857142865 614.36482142857153 1.0000000180025095e-35 5.7841071428571444 1.0000000180025095e-35 0.56492519518116879 0.37000000000000061 60.811030573429264 8.5000000000000018 73.696250000000006
decision_type=2 2 2 2 2 2 2 2 2 2 2 2 2 2 2 2 2 2 2 2 2 2 2 2 2 2 2 2 2 2
left_child=1 4 6 7 11 9 12 -3 14 15 -9 29 -2 -14 19 -4 17 -7 -19 -5 28 -20 -12 -15 -25 26 -26 -10 -11 -1
right_child=2 3 5 8 -6 16 -8 10 27 20 22 -13 13 23 -16 -17 -18 18 21 -21 -22 -23 -24 24 25 -27 -28 -29 -30 -31
leaf_value=-3.135302582727673 1.5114934706573924 -1.119178738092381 0.1228972317489596 -0.34323420210458722 -1.6976138638874663 4.8107482536486188 3.3872074405728307 5.6568936824798586 0.49628984917905011 4.3928959368849361 -0.50066502068810581 -2.361679046405543 -2.2674964247271419 3.0994801280020825 -0.2265308556155394 3.9175729199777396 4.9207139859811386 1.4693077879793506 5.7173977666071636 0.44836176844062037 4.800563357797845 6.915643353903139 -0.89391412962950145 2.6023381869549205 -2.6843438724676769 2.0119409601031903 2.0966674494743347 1.9743431102119615 2.9460616960271389 -2.6969181191668845
leaf_weight=2474 937 10480 35 1031 6232 715 4501 24 1867 745 8445 9203 64 919 11825 2603 1621 34 2180 2405 3369 335 3761 2443 42 1006 45 194 241 9157
leaf_count=2474 937 10480 35 1031 6232 715 4501 24 1867 745 8445 9203 64 919 11825 2603 1621 34 2180 2405 3369 335 3761 2443 42 1006 45 194 241 9157
internal_value=-0.00294232 -1.26076 3.86228 -0.495305 -2.39291 4.76548 2.78483 -0.84471 -0.0372183 4.34113 -0.609514 -2.60089 2.28789 2.44887 -0.128058 3.86723 5.37293 5.59752 5.81821 0.210837 4.6282 5.87701 -0.621836 2.51662 2.36514 1.83497 -0.211407 0.635418 4.03926 -2.79017
internal_weight=88933 67098 21835 40032 27066 11878 9957 22710 17322 6993 12230 20834 5456 4519 15261 2638 4885 3264 2549 3436 4355 2515 12206 4455 3536 1093 87 2061 986 11631
internal_count=88933 67098 21835 40032 27066 11878 9957 22710 17322 6993 12230 20834 5456 4519 15261 2638 4885 3264 2549 3436 4355 2515 12206 4455 3536 1093 87 2061 986 11631
is_linear=0
shrinkage=0.05


Tree=23
num_leaves=31
num_cat=0
split_feature=23 25 25 25 25 25 23 23 25 18 25 23 8 30 8 5 8 8 27 27 8 28 23 8 28 26 8 5 8 28
split_gain=1.56085e+08 2.10212e+07 7.71677e+06 2.68548e+06 1.6213e+06 932933 722221 634032 408756 348765 314966 280852 270135 265303 240225 237703 235571 231613 551187 227835 229751 217574 213641 200278 194359 176654 176025 174936 373690 173392
threshold=339.93785714285724 159.76732142857148 462.23178571428576 204.95142857142858 523.58910714285719 101.02803571428574 245.46857142857147 408.27642857142865 570.06714285714304 88.50500000000001 127.32107142857144 289.92000000000007 50.500000000000007 -170.79999999999995 12.500000000000002 4.5000000000000009 15.500000000000002 15.500000000000002 0.45257201001256891 0.21608736195905351 15.500000000000002 5.9983744444444449 461.93785714285724 2.5000000000000004 6.122358986175116 6.1103953917050706 3.5000000000000004 8.5000000000000018 45.500000000000007 6.1075683212176299
decision_type=2 2 2 2 2 2 2 2 2 2 2 2 2 2 2 2 2 2 2 2 2 2 2 2 2 2 2 2 2 2
left_child=1 5 7 9 19 -1 13 -2 15 -3 -7 -8 -10 -5 23 22 -15 18 -11 24 -21 -14 -6 -9 -4 -23 -24 -22 -29 -13
right_child=2 3 4 6 8 10 11 14 12 17 -12 29 21 16 -16 -17 -18 -19 -20 20 27 25 26 -25 -26 -27 -28 28 -30 -31
leaf_value=-2.6039427966251179 1.9781868338749895 5.1098171607307776 0.38748787460119827 -3.0128791252772018 -0.80573580057724659 -2.1573970337010118 0.059114107425907038 3.5867681722098825 5.3632504906248242 3.5542446540934698 -1.5655987032210326 0.18208896823365381 4.3982376871790203 -0.64327199685245806 3.0365804231924343 4.7704262783890838 -0.25210182617326055 -0.93161560796850262 -1.4404657960656222 3.3534468036810132 4.2602764658442309 -2.2883669046255259 5.2348730884404402 1.6911941986161336 3.703797295374029 3.877361843699501 3.7649724926466144 2.7315814944301007 4.7046637875133568 1.502852270028785
leaf_weight=14130 3748 23 92 96 23 8101 7909 177 3318 56 3112 432 140 5660 3623 3221 12028 10920 4046 1865 2542 26 254 655 85 21 1028 629 388 585
leaf_count=14130 3748 23 92 96 23 8101 7909 177 3318 56 3112 432 140 5660 3623 3221 12028 10920 4046 1865 2542 26 254 655 85 21 1028 629 388 585
internal_value=-0.0027952 -1.19772 3.66917 -0.508248 4.39832 -2.3337 -0.207303 2.45744 4.85369 -1.04253 -1.99315 0.159687 5.25904 -0.3915 2.86063 4.53978 -0.377273 -1.05195 -1.37228 3.74538 3.80298 3.41006 3.97051 2.09446 1.98007 0.466533 4.0562 4.03855 3.48434 0.94182
internal_weight=88933 67098 21835 41755 13632 25343 26710 8203 8031 15045 11213 8926 3505 17784 4455 4526 17688 15022 4102 5601 5424 187 1305 832 177 47 1282 3559 1017 1017
internal_count=88933 67098 21835 41755 13632 25343 26710 8203 8031 15045 11213 8926 3505 17784 4455 4526 17688 15022 4102 5601 5424 187 1305 832 177 47 1282 3559 1017 1017
is_linear=0
shrinkage=0.05


Tree=24
num_leaves=31
num_cat=0
split_feature=23 25 25 25 23 25 8 25 23 25 8 13 25 23 25 24 28 5 0 27 8 8 27 8 8 8 8 8 23 8
split_gain=1.40911e+08 1.93624e+07 6.51032e+06 2.12101e+06 1.44794e+06 1.30226e+06 656835 493176 479206 394356 283335 256717 271327 212512 205788 203882 185247 180914 169597 173783 158131 183486 215035 307035 277443 258917 151284 275823 147976 146310
threshold=348.81928571428574 168.40035714285719 500.96892857142865 230.81821428571428 128.91142857142862 444.58232142857145 23.500000000000004 204.95142857142858 289.92000000000007 95.44250000000001 15.500000000000002 1.0000000180025095e-35 592.63910714285714 199.0078571428572 410.9401785714287 1.0000000180025095e-35 5.7214285714285724 5.5000000000000009 579.1450000000001 0.21608736195905351 50.500000000000007 36.500000000000007 0.21608736195905351 15.500000000000002 23.500000000000004 2.5000000000000004 46.500000000000007 50.500000000000007 478.02785714285716 6.5000000000000009
decision_type=2 2 2 2 2 2 2 2 2 2 2 2 2 2 2 2 2 2 2 2 2 2 2 2 2 2 2 2 2 2
left_child=1 4 5 7 9 10 18 -3 13 -1 29 26 -13 -5 -12 -6 17 -15 19 -4 21 22 24 25 -7 -24 -8 -28 -26 -2
right_child=2 3 6 8 15 20 11 -9 -10 -11 14 12 -14 16 -16 -17 -18 -19 -20 -21 -22 -23 23 -25 28 -27 27 -29 -30 -31
leaf_value=-2.5271841662131322 2.4439883921198433 -0.92700382817806648 0.7874034566137027 -3.0428676427420926 2.2328926456601996 3.9195252454280856 4.3251712817987036 -0.47419471330574209 0.93674771416196667 -2.1057207775392102 2.1507441208796179 4.815062710145491 6.0401217974426267 -0.28662651724270977 2.8168185239204337 -1.4421162755427002 -0.14570100387274759 0.47772802649402357 4.4194858807671427 3.6847818440097302 4.7530814991049146 2.6462590614792219 4.7316703173321208 3.876362292531498 -1.094552240403075 2.6704871356556463 5.4115398355013085 3.8784861445426944 3.0043655918490502 1.4015079561434987
leaf_weight=11273 461 12629 53 59 38 85 3311 11479 1352 10933 2728 1606 629 1079 2017 5515 10345 2740 929 2200 184 971 174 2175 76 1225 968 421 31 1247
leaf_count=11273 461 12629 53 59 38 85 3311 11479 1352 10933 2728 1606 629 1079 2017 5515 10345 2740 929 2200 184 971 174 2175 76 1225 968 421 31 1247
internal_value=-0.00265544 -1.12616 3.52306 -0.417585 -2.1391 2.70231 4.44579 -0.711399 0.0371995 -2.31968 2.2351 4.71869 5.15983 -0.0483092 2.43388 -1.41697 -0.0358354 0.261771 3.85102 3.61662 3.31496 3.2591 3.41711 3.50469 1.78703 2.92685 4.50891 4.94688 0.0929847 1.68288
internal_weight=88933 67442 21491 39683 27759 11374 10117 24108 15575 22206 6453 6935 2235 14223 4745 5553 14164 3819 3182 2253 4921 4737 3766 3574 192 1399 4700 1389 107 1708
internal_count=88933 67442 21491 39683 27759 11374 10117 24108 15575 22206 6453 6935 2235 14223 4745 5553 14164 3819 3182 2253 4921 4737 3766 3574 192 1399 4700 1389 107 1708
is_linear=0
shrinkage=0.05


Tree=25
num_leaves=31
num_cat=0
split_feature=23 23 25 25 23 25 25 25 23 23 5 30 24 27 22 32 12 30 25 34 15 28 27 20 34 25 28 28 24 14
split_gain=1.27007e+08 1.76666e+07 6.05008e+06 1.98367e+06 1.43267e+06 989092 563657 442216 442052 325126 252659 243755 212771 202107 250157 201832 198908 197537 186414 336435 358920 182101 208247 248838 174403 240230 174423 169861 182525 164979
threshold=348.81928571428574 168.61285714285717 500.96892857142865 230.17875000000001 118.05285714285715 440.77660714285724 570.06714285714304 203.13339285714289 289.92000000000007 84.560714285714297 4.5000000000000009 139.59500000000003 1.0000000180025095e-35 0.21608736195905351 6.3404516129032267 -0.23441612903225859 1.0500000000000003 -157.54499999999996 378.76035714285723 1.5000000000000002 439.51500000000004 6.0422655527761169 0.56492519518116879 5.740967741935485 1.5000000000000002 338.97982142857148 6.629376996927804 6.2794642857142859 32.428595112210665 1.0000000180025095e-35
decision_type=2 2 2 2 2 2 2 2 2 2 2 2 2 2 2 2 2 2 2 2 2 2 2 2 2 2 2 2 2 2
left_child=1 4 5 7 9 18 10 11 17 -1 -4 -3 -6 14 15 -7 21 -5 -2 20 -20 22 23 -8 25 26 -10 28 -12 -15
right_child=2 3 6 8 12 13 16 -9 24 -11 27 -13 -14 29 -16 -17 -18 -19 19 -21 -22 -23 -24 -25 -26 -27 -28 -29 -30 -31
leaf_value=-2.5154528753518743 1.5772308522100542 -0.91022667036228511 3.5102936923664112 -1.9545378901568573 2.7241427652297485 -2.0430990833347127 -0.74459511849188043 -0.46361774410352957 0.27944676729594414 -2.0947183835703025 2.3108961545718976 2.9057876987116682 -1.4272471948528838 2.856544036379713 3.3131936641361399 1.9814988027919425 3.7749270761089777 -0.018765672947365301 -3.6169036276790565 2.3099005883340769 3.3273202713330585 4.4728568579732046 5.3780541637273291 4.9793402613425748 1.3130641541613381 -2.8491138151136499 4.2286502329508471 3.7022282862141291 4.4412526753580268 3.4305189158659584
leaf_weight=6761 1275 11559 2168 133 31 59 31 12015 411 14311 104 42 7085 2778 115 66 466 14474 49 4784 30 1427 1533 49 895 59 30 1366 3026 2279
leaf_count=6761 1275 11559 2168 133 31 59 31 12015 411 14311 104 42 7085 2778 115 66 466 14474 49 4784 30 1427 1533 49 895 59 30 1366 3026 2279
internal_value=-0.00202442 -1.06575 3.33643 -0.384987 -2.02257 2.54736 4.22364 -0.676221 0.0448218 -2.22971 3.95365 -0.896411 -1.40916 3.04793 1.63022 0.0818886 4.73684 -0.0363913 2.11537 2.25646 -0.979857 4.88429 5.24827 2.76132 0.895202 0.147229 0.5481 4.16744 4.37047 3.11521
internal_weight=89411 67806 21605 39618 28188 11435 10170 23616 16002 21072 6664 11601 7116 5297 240 125 3506 14607 6138 4863 79 3040 1613 80 1395 500 441 4496 3130 5057
internal_count=89411 67806 21605 39618 28188 11435 10170 23616 16002 21072 6664 11601 7116 5297 240 125 3506 14607 6138 4863 79 3040 1613 80 1395 500 441 4496 3130 5057
is_linear=0
shrinkage=0.05


Tree=26
num_leaves=31
num_cat=0
split_feature=23 25 25 25 23 25 23 25 25 8 8 8 23 5 28 28 25 27 4 19 27 8 28 8 8 27 8 8 8 8
split_gain=1.14624e+08 1.59656e+07 5.46019e+06 1.90437e+06 1.05111e+06 897746 531438 508701 281135 255295 254564 249408 235453 230810 230817 216587 212055 211614 228640 192865 184135 227482 181036 177481 418759 175500 169144 237105 220378 230483
threshold=348.81928571428574 166.19160714285718 500.96892857142865 220.76160714285714 108.91785714285716 444.58232142857145 275.26928571428573 570.06714285714304 188.35607142857143 14.500000000000002 51.500000000000007 23.500000000000004 141.5514285714286 4.5000000000000009 5.6978649770243095 6.0422655527761169 75.396964285714304 0.21608736195905351 81.544666666666686 5.035000000000001 0.21608736195905351 28.500000000000004 5.8279287147977472 37.500000000000007 46.500000000000007 0.21608736195905351 50.500000000000007 37.500000000000007 15.500000000000002 2.5000000000000004
decision_type=2 2 2 2 2 2 2 2 2 2 2 2 2 2 2 2 2 2 2 2 2 2 2 2 2 2 2 2 2 2
left_child=1 4 5 8 16 9 13 11 -3 -2 15 25 -6 -5 -15 20 -1 18 -7 -12 21 -9 -11 -13 -25 -4 27 28 29 -19
right_child=2 3 7 6 12 17 -8 10 -10 22 19 23 -14 14 -16 -17 -18 26 -20 -21 -22 -23 -24 24 -26 -27 -28 -29 -30 -31
leaf_value=-2.5447292978241132 1.4919451321583714 -0.9840671279306501 -0.13838150064860072 -0.4355267436537747 -1.7545886263519865 3.081763786960531 0.63883142150639149 4.3749443074931271 -0.59358510016350308 2.7527559588165889 -1.0702567620710892 4.3075479365421936 -1.2468102950737996 0.37314266291240711 -0.14227402451980364 4.1769503362917701 -2.0951915418765661 4.2763128118343898 -0.11513486712657173 3.5074297998296586 5.0809059280328057 -1.9055254709152949 2.0419291390306955 2.8824743306604983 4.3951901579990729 3.4258763491118938 4.4852000644835446 2.1946361399055667 3.4168557279003915 2.3674480768665052
leaf_weight=3191 1630 7358 35 5027 4881 108 2439 46 12340 1184 33 2191 4289 2718 10816 1698 14747 182 116 76 1632 21 3679 913 917 2608 184 866 2280 1206
leaf_count=3191 1630 7358 35 5027 4881 108 2439 46 12340 1184 33 2191 4289 2718 10816 1698 14747 182 116 76 1632 21 3679 913 917 2608 184 866 2280 1206
internal_value=-0.0019232 -1.01247 3.1696 -0.386297 -1.95255 2.41999 -0.0550437 4.01246 -0.739446 2.03348 4.49999 3.75597 -1.51709 -0.146222 -0.0387642 4.57631 -2.17516 2.9278 1.42623 2.12152 4.97544 2.40644 2.21499 4.00396 3.64049 3.37868 2.99909 2.93878 3.11447 2.61775
internal_weight=89411 67806 21605 40698 27108 11435 21000 10170 19698 6493 3506 6664 9170 18561 13534 3397 17938 4942 224 109 1699 67 4863 4021 1830 2643 4718 4534 3668 1388
internal_count=89411 67806 21605 40698 27108 11435 21000 10170 19698 6493 3506 6664 9170 18561 13534 3397 17938 4942 224 109 1699 67 4863 4021 1830 2643 4718 4534 3668 1388
is_linear=0
shrinkage=0.05


Tree=27
num_leaves=31
num_cat=0
split_feature=23 25 25 23 23 25 23 23 25 27 8 8 18 27 28 25 28 8 23 8 8 8 25 11 8 27 18 17 1 28
split_gain=1.03455e+08 1.41405e+07 5.25639e+06 2.06929e+06 967017 505162 469051 435760 417380 355935 236400 223161 201643 175873 344902 259196 248278 167786 167712 163741 242546 168361 157098 151872 148514 301949 194719 189322 145934 144954
threshold=339.93785714285724 154.82678571428576 500.96892857142865 219.56571428571431 429.69000000000011 101.02803571428574 566.06357142857155 188.01357142857145 256.40375000000006 0.21608736195905351 46.500000000000007 20.500000000000004 112.55500000000002 0.45257201001256891 6.36482142857143 406.33250000000004 5.870716589861753 51.500000000000007 489.93714285714287 37.500000000000007 46.500000000000007 33.500000000000007 389.11339285714291 1.0000000180025095e-35 15.500000000000002 1.0000000180025095e-35 289.03500000000003 169.46500000000003 5.7828378378378389 6.5392857142857155
decision_type=2 2 2 2 2 2 2 2 2 2 2 2 2 2 2 2 2 2 2 2 2 2 2 2 2 2 2 2 2 2
left_child=1 5 4 7 10 -1 9 24 12 -4 13 -11 -5 14 16 -15 28 18 -6 21 -21 -13 -18 -10 25 27 -26 -3 -2 -8
right_child=2 3 6 8 17 -7 29 -9 23 11 -12 19 -14 15 -16 -17 22 -19 -20 20 -22 -23 -24 -25 26 -27 -28 -29 -30 -31
leaf_value=-2.1309664099559398 0.37582494472303701 4.3935714225511289 0.67106583085189642 4.4847837477922443 2.4925353778549635 -1.6689939581349493 4.3449040486138371 -0.56151081954646842 0.22875249331369485 3.1755600326093618 2.7988468144334449 3.9065853173445335 -0.20016751855340106 1.4832092640214176 2.815038271003695 2.2649616268311954 1.0001538414704172 4.3739072098755667 3.0913999517137416 2.9661986499592299 4.1568657243076199 5.0940791316696856 -2.7564148271313083 1.0609496190108207 -0.85531984008525874 -1.3675260801642561 -3.842052105990323 -0.66450215288110692 4.2113265129827679 3.5253847944481502
leaf_weight=14100 124 37 107 23 4528 10197 3528 11968 4094 2155 516 1618 16247 2935 134 1660 38 144 1576 1025 734 366 104 633 6982 3078 55 37 31 637
leaf_count=14100 124 37 107 23 4528 10197 3528 11968 4094 2155 516 1618 16247 2935 134 1660 38 144 1576 1025 734 366 104 633 6982 3078 55 37 31 637
internal_value=-0.00182704 -0.972274 2.97894 -0.429056 2.26048 -1.93709 3.81184 -0.766105 -0.0733856 3.52905 1.77968 3.58089 -0.193545 1.67504 0.709298 1.76563 -0.240767 2.68695 2.64716 3.81426 3.46304 4.12565 -1.75114 0.340193 -1.00642 -1.29165 -0.878664 1.86453 1.14293 4.21957
internal_weight=89411 67451 21960 43154 11790 24297 10170 22157 20997 6005 5542 5898 16270 5026 431 4595 297 6248 6104 3743 1759 1984 142 4727 10189 3152 7037 74 155 4165
internal_count=89411 67451 21960 43154 11790 24297 10170 22157 20997 6005 5542 5898 16270 5026 431 4595 297 6248 6104 3743 1759 1984 142 4727 10189 3152 7037 74 155 4165
is_linear=0
shrinkage=0.05


Tree=28
num_leaves=31
num_cat=0
split_feature=23 25 25 25 23 25 25 23 25 23 30 8 8 24 8 28 27 4 19 8 28 27 8 6 8 30 27 8 8 8
split_gain=9.33846e+07 1.30366e+07 4.44326e+06 1.38709e+06 1.18489e+06 747078 437060 317180 314845 282776 259195 232569 226901 207436 203809 186684 182022 202382 174010 167957 158648 158300 211304 155836 151720 149357 145961 144999 211624 197509
threshold=348.81928571428574 171.58089285714291 500.96892857142865 233.01053571428577 128.91142857142862 444.58232142857145 570.06714285714304 289.92000000000007 203.13339285714289 95.77500000000002 -157.54499999999996 51.500000000000007 14.500000000000002 1.0000000180025095e-35 23.500000000000004 6.0422655527761169 0.21608736195905351 81.544666666666686 5.035000000000001 35.500000000000007 5.8279287147977472 0.21608736195905351 5.5000000000000009 4.5000000000000009 15.500000000000002 34.900000000000027 0.21608736195905351 50.500000000000007 37.500000000000007 15.500000000000002
decision_type=2 2 2 2 2 2 2 2 2 2 2 2 2 2 2 2 2 2 2 2 2 2 2 2 2 2 2 2 2 2
left_child=1 4 5 8 9 12 14 10 -3 -1 19 15 -2 -6 26 21 17 -7 -13 -5 -14 22 -8 -16 -10 -19 -4 28 29 -18
right_child=2 3 6 7 13 16 11 -9 24 -11 -12 18 20 -15 23 -17 27 25 -20 -21 -22 -23 -24 -25 -26 -27 -28 -29 -30 -31
leaf_value=-2.0653997961481356 1.3215849250420197 -0.74841676882489727 -0.16501571651015964 -2.905957762219689 2.5951399806383497 2.812890714860556 5.8931784470876067 0.78468459619522957 -0.6289582185963063 -1.7074083169253624 0.015938198853925133 -1.2319947965217359 2.5066533678796499 -1.1589806791765118 3.8062401141953432 3.7753247544393207 2.3539607913778178 -1.1591565511127313 3.1161739590920901 1.1673506580293178 1.8412289580575552 4.6144333136532749 0.036900666702625366 3.1197247352614448 -0.27009152611906989 3.143171834945679 3.0854818213473938 4.0900203877817027 1.955202068278338 3.1104723319598975
leaf_weight=11656 1630 10884 35 121 37 108 24 1395 4361 10472 13083 33 1184 6693 2858 1698 1388 90 76 32 3679 1632 43 1163 9072 26 2608 184 866 2280
leaf_count=11656 1630 10884 35 121 37 108 24 1395 4361 10472 13083 33 1184 6693 2858 1698 1388 90 76 32 3679 1632 43 1163 9072 26 2608 184 866 2280
internal_value=-0.00173569 -0.913862 2.86092 -0.31709 -1.71929 2.1847 3.62125 0.0675886 -0.548543 -1.89598 -0.00798929 4.07315 1.83212 -1.13834 3.3835 4.14609 2.64794 1.25532 1.79976 -2.05402 2.00324 4.51664 2.13467 3.60768 -0.386597 -0.194842 3.04244 2.71406 2.65822 2.8242
internal_weight=89411 67806 21605 38948 28858 11435 10170 14631 24317 22128 13236 3506 6493 6730 6664 3397 4942 224 109 153 4863 1699 67 4021 13433 116 2643 4718 4534 3668
internal_count=89411 67806 21605 38948 28858 11435 10170 14631 24317 22128 13236 3506 6493 6730 6664 3397 4942 224 109 153 4863 1699 67 4021 13433 116 2643 4718 4534 3668
is_linear=0
shrinkage=0.05


Tree=29
num_leaves=31
num_cat=0
split_feature=25 25 25 25 25 25 25 25 30 0 8 27 8 27 28 8 8 28 0 26 8 11 8 14 8 25 30 8 8 28
split_gain=8.40905e+07 1.16634e+07 4.19987e+06 1.84339e+06 785902 445095 395562 339331 304097 280841 248639 443668 213257 194528 248078 185397 182799 179152 174821 173907 167667 166809 164486 202264 161288 155039 150405 149125 350541 147312
threshold=349.75660714285715 150.39714285714288 500.96892857142865 209.51517857142861 433.17482142857148 249.95285714285717 570.06714285714304 98.177142857142869 149.10999999999999 221.34500000000003 15.500000000000002 1.0000000180025095e-35 50.500000000000007 0.21608736195905351 6.2087077572964686 23.500000000000004 14.500000000000002 5.970133640552997 420.97500000000008 6.3273483870967757 3.5000000000000004 1.0000000180025095e-35 50.500000000000007 1.0000000180025095e-35 16.500000000000004 180.77107142857145 -170.79999999999995 37.500000000000007 46.500000000000007 6.0707200460829505
decision_type=2 2 2 2 2 2 2 2 2 2 2 2 2 2 2 2 2 2 2 2 2 2 2 2 2 2 2 2 2 2
left_child=1 7 4 8 9 16 15 -1 10 -2 11 -3 29 14 -6 -4 20 -14 21 -19 -5 26 23 -15 -11 -12 -7 -17 -29 -8
right_child=2 3 6 5 13 18 12 -9 -10 24 25 -13 17 22 -16 27 -18 19 -20 -21 -22 -23 -24 -25 -26 -27 -28 28 -30 -31
leaf_value=-1.9456432490066928 -3.1216292950414846 3.2079156295210129 2.8883127729044014 0.070539037704909754 -0.08290444737614458 -1.9988963440770195 4.2852151381831574 -1.5651341462953592 4.4376153481858118 1.2532621567195947 -0.85162398738416933 -1.1162397147370737 3.3735484850600486 2.1802171450043515 2.8530002175822973 3.7055746604687614 -0.14332226595086117 -1.561037129941194 2.7097774100303651 3.9302920324461805 -0.63181377946520967 0.81881009529013127 3.8175733634532794 2.7898846379500402 1.8318655867520364 -0.50889048173806162 0.13173053141388896 2.4005920200507687 3.7846192128265699 3.6183293579736553
leaf_weight=12706 31 60 2645 1062 166 84 1713 10873 28 1754 5966 5228 123 3012 127 2191 12998 46 70 21 4251 938 231 2481 3844 7383 5946 913 917 1603
leaf_count=12706 31 60 2645 1062 166 84 1713 10873 28 1754 5966 5228 123 3012 127 2191 12998 46 70 21 4251 938 231 2481 3844 7383 5946 913 917 1603
internal_value=-0.0016489 -0.872822 2.69728 -0.392094 2.04895 -0.114432 3.43956 -1.77018 -0.769188 1.62429 -0.777011 -1.06718 3.86949 2.44623 1.18965 3.21343 -0.244325 2.24039 0.223514 0.160126 -0.491423 0.198537 2.51055 2.45558 1.65057 -0.662067 0.10205 3.42729 3.09412 3.96283
internal_weight=89411 67593 21818 44014 11646 25349 10172 23579 18665 5629 18637 5288 3506 6017 293 6666 18311 190 7038 67 5313 6968 5724 5493 5598 13349 6030 4021 1830 3316
internal_count=89411 67593 21818 44014 11646 25349 10172 23579 18665 5629 18637 5288 3506 6017 293 6666 18311 190 7038 67 5313 6968 5724 5493 5598 13349 6030 4021 1830 3316
is_linear=0
shrinkage=0.05


Tree=30
num_leaves=31
num_cat=0
split_feature=23 23 25 23 25 25 25 34 23 23 6 18 23 8 27 28 8 14 28 23 4 13 34 27 28 5 30 30 8 8
split_gain=7.52971e+07 9.91225e+06 4.1391e+06 1.58246e+06 757133 427726 384413 326467 326235 273687 238542 235332 225871 189916 251132 192991 188789 273807 212317 171448 155186 151133 166178 170399 140923 133551 123143 123087 122043 120735
threshold=301.54500000000002 141.5514285714286 462.23178571428576 200.96571428571431 538.0330357142858 384.10857142857145 234.61678571428573 1.5000000000000002 437.75642857142856 81.669285714285721 4.5000000000000009 83.245000000000019 466.10357142857151 15.500000000000002 1.0000000180025095e-35 6.1151785714285731 46.500000000000007 1.0000000180025095e-35 5.941433294930877 647.28928571428571 80.413225806451621 1.0000000180025095e-35 1.5000000000000002 1.0000000180025095e-35 5.6894320993528753 5.5000000000000009 170.54000000000002 -18.080000000000002 15.500000000000002 2.5000000000000004
decision_type=2 2 2 2 2 2 2 2 2 2 2 2 2 2 2 2 2 2 2 2 2 2 2 2 2 2 2 2 2 2
left_child=1 9 5 13 10 21 11 8 20 -1 29 -5 -6 14 15 -3 17 18 -9 -14 -7 26 23 -23 25 -8 -2 -17 -13 -4
right_child=2 3 4 6 12 7 24 16 -10 -11 -12 28 19 -15 -16 27 -18 -19 -20 -21 -22 22 -24 -25 -26 -27 -28 -29 -30 -31
leaf_value=-2.0018871761952641 1.2549342296690567 -1.581948450088501 4.2209718216756356 5.0622713851928713 -1.6424521597948942 -0.57306394418701534 -0.21039938662262869 2.0322603191679502 2.990413765346303 -1.6000423944046909 2.2113520634299975 -0.58662542849581389 3.3735246792337068 -0.69507263142469733 -1.1119412354754121 6.4463143141373358 2.6033615831121111 2.2685138610609643 1.2118423461673846 4.531017466530602 -5.45982418349295 -5.0144474487304684 0.78270154538316827 -0.17728949838609839 -0.084833369274767756 0.48206127857308245 3.1814714683198382 1.1517614069439117 -0.27218974592998291 2.8120293890217387
leaf_weight=5617 1780 25 157 20 22 32 966 1282 34 17249 2012 4380 6311 11280 4795 23 860 1993 2049 337 33 25 632 67 9338 2494 87 21 10445 4823
leaf_count=5617 1780 25 157 20 22 32 966 1282 34 17249 2012 4380 6311 11280 4795 23 860 1993 2049 337 33 25 632 67 9338 2494 87 21 10445 4823
internal_value=-0.0102283 -0.854986 2.48825 -0.414361 3.03436 1.64747 -0.184653 1.87038 -0.978163 -1.69875 2.67082 -0.357777 3.41546 -0.807685 -1.06884 1.92614 1.91599 1.80495 1.5276 3.4322 -3.05403 1.10691 0.493685 -1.49173 0.016162 0.288733 1.34471 3.91937 -0.365089 2.85645
internal_weight=89189 66653 22536 43787 13662 8874 27643 6283 99 22866 6992 14845 6670 16144 4864 69 6184 5324 3331 6648 65 2591 724 92 12798 3460 1867 44 14825 4980
internal_count=89189 66653 22536 43787 13662 8874 27643 6283 99 22866 6992 14845 6670 16144 4864 69 6184 5324 3331 6648 65 2591 724 92 12798 3460 1867 44 14825 4980
is_linear=0
shrinkage=0.05


Tree=31
num_leaves=31
num_cat=0
split_feature=23 23 23 23 23 23 23 23 8 8 8 8 27 28 3 33 6 8 8 27 8 28 8 23 23 3 17 6 27 19
split_gain=6.79556e+07 8.95335e+06 3.59152e+06 1.25191e+06 706784 409043 359558 291667 195182 180163 176542 219827 168812 540268 223215 238938 155693 154288 153255 165039 148991 130272 134789 139152 135182 125321 122278 122169 107932 212374
threshold=301.54500000000002 152.74785714285716 485.80000000000007 201.99071428571429 417.43428571428575 570.24071428571438 98.077857142857155 240.82785714285717 19.500000000000004 2.5000000000000004 45.500000000000007 38.500000000000007 0.45257201001256891 6.36482142857143 7.7114864864864874 -17.90463324154749 4.5000000000000009 15.500000000000002 15.500000000000002 1.0000000180025095e-35 2.5000000000000004 6.5392857142857155 50.500000000000007 647.28928571428571 584.12357142857161 15.250000000000002 369.06500000000005 4.5000000000000009 0.45257201001256891 6.2221666666666673
decision_type=2 2 2 2 2 2 2 2 2 2 2 2 2 2 2 2 2 2 2 2 2 2 2 2 2 2 2 2 2 2
left_child=1 6 4 18 12 8 -1 17 9 -4 11 16 13 14 -2 -16 28 20 19 -3 -5 22 23 27 -24 -15 -14 -7 29 -6
right_child=2 3 5 7 10 21 -8 -9 -10 -11 -12 -13 26 25 15 -17 -18 -19 -20 -21 -22 -23 24 -25 -26 -27 -28 -29 -30 -31
leaf_value=-1.7629383889367038 -3.3777136822922098 1.9596079445899801 3.5715491748615804 0.20189425119858112 -0.046989124471751548 3.713261711320742 -1.3776458995296776 0.04160637751493089 2.9590009639581676 2.2825333165801669 2.8053052227885624 1.1915165300396355 1.0902407392931794 3.3776317651178824 -2.80807624165974 0.66415862657274283 1.6589299284801868 -0.19802970849337023 -0.63691950613944237 -1.0192163191036878 -0.6220391320514429 2.7126040603574628 4.4034536805069235 4.6518209425865988 1.5606317850055209 -0.53085273106892905 1.6092232352550413 2.9676530424097258 2.3961375613460993 3.1023896861698605
leaf_weight=12631 62 47 306 623 130 1969 11631 10097 4969 2375 764 737 1957 141 63 232 1274 11970 10700 4355 4599 573 57 293 157 24 2702 762 2898 91
leaf_count=12631 62 47 306 623 130 1969 11631 10097 4969 2375 764 737 1957 141 63 232 1274 11970 10700 4355 4599 573 57 293 157 24 2702 762 2898 91
internal_value=-0.00971691 -0.812236 2.36383 -0.373827 1.72172 2.98432 -1.57823 -0.171692 2.77349 2.42966 2.09622 1.99061 1.29569 0.443033 -0.650539 -0.0773695 2.12467 -0.296963 -0.739083 -0.987412 -0.523741 3.40753 3.5305 3.61632 2.31783 2.80912 1.39123 3.50522 2.31491 1.24981
internal_weight=89189 66653 22536 42391 11075 11461 24262 27289 7650 2681 5894 5130 5181 522 357 295 4393 17192 15102 4402 5222 3811 3238 3024 214 165 4659 2731 3119 221
internal_count=89189 66653 22536 42391 11075 11461 24262 27289 7650 2681 5894 5130 5181 522 357 295 4393 17192 15102 4402 5222 3811 3238 3024 214 165 4659 2731 3119 221
is_linear=0
shrinkage=0.05


Tree=32
num_leaves=31
num_cat=0
split_feature=23 25 25 25 25 25 24 8 25 34 23 8 28 23 28 8 27 25 27 2 6 8 14 28 13 34 27 8 22 8
split_gain=6.13299e+07 8.10338e+06 3.42567e+06 1.20135e+06 712472 295768 288514 277516 268018 257824 255506 234180 210984 197301 184472 160984 558558 143896 161251 135507 132404 131537 193673 180792 130814 137365 141278 127619 141241 171593
threshold=301.54500000000002 150.39714285714288 453.02571428571434 204.0596428571429 523.58910714285719 384.10857142857145 1.0000000180025095e-35 15.500000000000002 101.02803571428574 1.5000000000000002 437.75642857142856 2.5000000000000004 5.6894320993528753 457.97214285714296 6.0782834101382504 15.500000000000002 0.45257201001256891 614.36482142857153 1.0000000180025095e-35 26.809677419354845 4.5000000000000009 46.500000000000007 1.0000000180025095e-35 5.9486464564413515 1.0000000180025095e-35 1.5000000000000002 1.0000000180025095e-35 45.500000000000007 5.1550000000000011 50.500000000000007
decision_type=2 2 2 2 2 2 2 2 2 2 2 2 2 2 2 2 2 2 2 2 2 2 2 2 2 2 2 2 2 2
left_child=1 8 5 6 20 24 -3 11 -1 10 19 -5 -9 -6 17 16 -8 -15 -19 -7 -4 22 23 -11 -2 26 -26 -16 -29 -30
right_child=2 3 4 7 13 9 15 12 -10 21 -12 -13 -14 14 27 -17 -18 18 -20 -21 -22 -23 -24 -25 25 -27 -28 28 29 -31
leaf_value=-1.6561138691798591 1.2096291969179607 4.4654148039994421 2.4587390530010391 0.29318040591070588 -0.95861290885556127 -0.46295754667371514 3.4128804243066244 0.28300608705542479 -1.3121895948003544 1.8217278268210528 2.6527198285767528 -0.53295817079855945 -0.1373182963048189 3.1740674212807001 2.6246848168874122 -0.60957405736052761 -1.0255357417200959 0.14587143117731269 4.5822306468831968 -5.0643736656755216 1.9523225423281436 2.2901227584991015 1.9982557757595936 1.0250801002370851 -4.5948393554687499 0.68064461110654895 -0.19036871962138077 2.1452039314412525 4.1198880157799112 1.2980010299409024
leaf_weight=14060 1867 27 4462 994 31 32 72 3690 9487 1170 33 6260 15638 4128 2889 11849 4576 22 297 32 1816 760 1757 1820 25 632 67 174 461 61
leaf_count=14060 1867 27 4462 994 31 32 72 3690 9487 1170 33 6260 15638 4128 2889 11849 4576 22 297 32 1816 760 1757 1820 25 632 67 174 461 61
internal_value=-0.00923106 -0.771625 2.24564 -0.364158 2.71165 1.43015 -0.698947 -0.156045 -1.51755 1.6344 -0.920978 -0.419754 -0.0570722 3.02262 3.03799 -0.707399 -0.956782 3.25313 4.27627 -2.76367 2.31225 1.67941 1.58163 1.33681 0.98839 0.417875 -1.38724 2.77111 3.3789 3.79013
internal_weight=89189 66653 22536 43106 14341 8195 16524 26582 23547 5604 97 7254 19328 8063 8032 16497 4648 4447 319 64 6278 5507 4747 2990 2591 724 92 3585 696 522
internal_count=89189 66653 22536 43106 14341 8195 16524 26582 23547 5604 97 7254 19328 8063 8032 16497 4648 4447 319 64 6278 5507 4747 2990 2591 724 92 3585 696 522
is_linear=0
shrinkage=0.05


Tree=33
num_leaves=31
num_cat=0
split_feature=23 25 25 25 25 25 25 34 23 30 23 25 28 14 8 8 8 8 27 28 25 8 8 24 23 22 30 2 8 14
